{"learner":{"attributes":{"best_iteration":"152","best_score":"0.6464792862472527"},"feature_names":["is_home","days_rest","opp_pts_allowed_L10","pts_L5","pts_L10","pts_ema_L5","pts_std_L10","reb_L5","reb_L10","reb_ema_L5","ast_L5","ast_L10","ast_ema_L5","min_L5","min_L10","fg_pct_L5","fg_pct_L10"],"feature_types":["int","float","float","float","float","float","float","float","float","float","float","float","float","float","float","float","float"],"gradient_booster":{"model":{"cats":{"enc":[],"feature_segments":[],"sorted_idx":[]},"gbtree_model_param":{"num_parallel_tree":"1","num_trees":"161"},"iteration_indptr":[0,1,2,3,4,5,6,7,8,9,10,11,12,13,14,15,16,17,18,19,20,21,22,23,24,25,26,27,28,29,30,31,32,33,34,35,36,37,38,39,40,41,42,43,44,45,46,47,48,49,50,51,52,53,54,55,56,57,58,59,60,61,62,63,64,65,66,67,68,69,70,71,72,73,74,75,76,77,78,79,80,81,82,83,84,85,86,87,88,89,90,91,92,93,94,95,96,97,98,99,100,101,102,103,104,105,106,107,108,109,110,111,112,113,114,115,116,117,118,119,120,121,122,123,124,125,126,127,128,129,130,131,132,133,134,135,136,137,138,139,140,141,142,143,144,145,146,147,148,149,150,151,152,153,154,155,156,157,158,159,160,161],"tree_info":[0,0,0,0,0,0,0,0,0,0,0,0,0,0,0,0,0,0,0,0,0,0,0,0,0,0,0,0,0,0,0,0,0,0,0,0,0,0,0,0,0,0,0,0,0,0,0,0,0,0,0,0,0,0,0,0,0,0,0,0,0,0,0,0,0,0,0,0,0,0,0,0,0,0,0,0,0,0,0,0,0,0,0,0,0,0,0,0,0,0,0,0,0,0,0,0,0,0,0,0,0,0,0,0,0,0,0,0,0,0,0,0,0,0,0,0,0,0,0,0,0,0,0,0,0,0,0,0,0,0,0,0,0,0,0,0,0,0,0,0,0,0,0,0,0,0,0,0,0,0,0,0,0,0,0,0,0,0,0,0,0],"trees":[{"base_weights":[1.55486055E-2,6.9523716E-1,-8.455323E-2,4.1135672E-1,1.1253093E0,-3.1581014E-1,4.901045E-2,1.097248E-2,3.139902E-2,4.6918955E-2,-7.833438E-3,-1.8197043E-2,-7.657E-3,4.181464E-3,-1.7031891E-2],"categories":[],"categories_nodes":[],"categories_segments":[],"categories_sizes":[],"default_left":[0,0,0,0,0,0,0,0,0,0,0,0,0,0,0],"id":0,"left_children":[1,3,5,7,9,11,13,-1,-1,-1,-1,-1,-1,-1,-1],"loss_changes":[1.7955873E2,4.010396E1,7.106518E1,9.814583E0,9.628204E0,1.421357E1,3.8499123E1,0E0,0E0,0E0,0E0,0E0,0E0,0E0,0E0],"parents":[2147483647,0,0,1,1,2,2,3,3,4,4,5,5,6,6],"right_children":[2,4,6,8,10,12,14,-1,-1,-1,-1,-1,-1,-1,-1],"split_conditions":[1E0,2.0805555E1,2.4764584E1,4.952553E0,1.1210651E1,1.7E0,7E0,1.097248E-2,3.139902E-2,4.6918955E-2,-7.833438E-3,-1.8197043E-2,-7.657E-3,4.181464E-3,-1.7031891E-2],"split_indices":[10,14,14,6,9,11,10,0,0,0,0,0,0,0,0],"split_type":[0,0,0,0,0,0,0,0,0,0,0,0,0,0,0],"sum_hessian":[2.632614E3,3.377583E2,2.2948557E3,2.0543307E2,1.3232523E2,8.409841E2,1.4538716E3,1.5303912E2,5.2393967E1,1.2793875E2,4.3864713E0,3.9137073E2,4.496133E2,1.3030258E3,1.5084589E2],"tree_param":{"num_deleted":"0","num_feature":"17","num_nodes":"15","size_leaf_vector":"1"}},{"base_weights":[-1.5130145E-2,7.14868E-1,-1.2014688E-1,4.716956E-1,1.075824E0,-3.4052268E-1,1.8055687E-2,6.344552E-3,2.705437E-2,1.1675248E-2,4.6020444E-2,-2.0266086E-2,-8.700701E-3,2.979467E-3,-1.7763313E-2],"categories":[],"categories_nodes":[],"categories_segments":[],"categories_sizes":[],"default_left":[0,0,0,0,0,0,0,0,0,0,0,0,0,0,0],"id":1,"left_children":[1,3,5,7,9,11,13,-1,-1,-1,-1,-1,-1,-1,-1],"loss_changes":[2.0150304E2,2.7687653E1,7.026903E1,1.2380123E1,6.8790283E0,1.7731361E1,3.69325E1,0E0,0E0,0E0,0E0,0E0,0E0,0E0,0E0],"parents":[2147483647,0,0,1,1,2,2,3,3,4,4,5,5,6,6],"right_children":[2,4,6,8,10,12,14,-1,-1,-1,-1,-1,-1,-1,-1],"split_conditions":[1E0,2.0907408E1,1.02E1,6.666667E-1,2.5E-1,1.7E0,7E0,6.344552E-3,2.705437E-2,1.1675248E-2,4.6020444E-2,-2.0266086E-2,-8.700701E-3,2.979467E-3,-1.7763313E-2],"split_indices":[10,14,4,11,10,11,10,0,0,0,0,0,0,0,0],"split_type":[0,0,0,0,0,0,0,0,0,0,0,0,0,0,0],"sum_hessian":[2.6300125E3,3.2938025E2,2.3006323E3,1.9911545E2,1.302648E2,8.87478E2,1.4131542E3,8.0856606E1,1.1825885E2,1.27579565E1,1.1750685E2,3.7194196E2,5.155361E2,1.2610243E3,1.5212997E2],"tree_param":{"num_deleted":"0","num_feature":"17","num_nodes":"15","size_leaf_vector":"1"}},{"base_weights":[5.341198E-3,6.6780156E-1,-9.19927E-2,3.5773277E-1,9.9732345E-1,-3.0102858E-1,2.3602331E-2,6.9072573E-3,2.7247656E-2,-1.718408E-2,4.055838E-2,-2.0534469E-2,-7.2505176E-3,2.8334658E-3,-1.5286349E-2],"categories":[],"categories_nodes":[],"categories_segments":[],"categories_sizes":[],"default_left":[0,0,0,0,0,0,0,0,0,0,0,0,0,0,0],"id":2,"left_children":[1,3,5,7,9,11,13,-1,-1,-1,-1,-1,-1,-1,-1],"loss_changes":[1.702689E2,3.351268E1,5.567086E1,1.005839E1,5.1845703E0,2.0445839E1,2.8386879E1,0E0,0E0,0E0,0E0,0E0,0E0,0E0,0E0],"parents":[2147483647,0,0,1,1,2,2,3,3,4,4,5,5,6,6],"right_children":[2,4,6,8,10,12,14,-1,-1,-1,-1,-1,-1,-1,-1],"split_conditions":[1E0,1.936E1,2.4558332E1,4.3358965E0,1.6666666E0,1.5E0,7E0,6.9072573E-3,2.7247656E-2,-1.718408E-2,4.055838E-2,-2.0534469E-2,-7.2505176E-3,2.8334658E-3,-1.5286349E-2],"split_indices":[10,13,14,6,8,11,10,0,0,0,0,0,0,0,0],"split_type":[0,0,0,0,0,0,0,0,0,0,0,0,0,0,0],"sum_hessian":[2.634101E3,3.3728244E2,2.2968188E3,1.7571205E2,1.6157039E2,8.1876465E2,1.4780541E3,1.14093636E2,6.1618423E1,1.472886E0,1.600975E2,2.9074838E2,5.2801624E2,1.3256499E3,1.5240417E2],"tree_param":{"num_deleted":"0","num_feature":"17","num_nodes":"15","size_leaf_vector":"1"}},{"base_weights":[-1.3921178E-2,6.4993346E-1,-1.10380225E-1,4.201024E-1,9.7546077E-1,-2.913284E-1,5.5858213E-2,8.7458576E-4,2.3680031E-2,4.0494252E-2,-9.238785E-3,-1.680137E-2,-7.386821E-3,4.974716E-3,-1.7014556E-2],"categories":[],"categories_nodes":[],"categories_segments":[],"categories_sizes":[],"default_left":[0,0,0,0,0,0,0,0,0,0,0,0,0,0,0],"id":3,"left_children":[1,3,5,7,9,11,13,-1,-1,-1,-1,-1,-1,-1,-1],"loss_changes":[1.6838133E2,2.3812592E1,6.932283E1,1.3361786E1,7.1057587E0,1.4809174E1,3.966411E1,0E0,0E0,0E0,0E0,0E0,0E0,0E0,0E0],"parents":[2147483647,0,0,1,1,2,2,3,3,4,4,5,5,6,6],"right_children":[2,4,6,8,10,12,14,-1,-1,-1,-1,-1,-1,-1,-1],"split_conditions":[1E0,2.0805555E1,2.721E1,5.714286E-1,1.175E1,1.75E0,7E0,8.7458576E-4,2.3680031E-2,4.0494252E-2,-9.238785E-3,-1.680137E-2,-7.386821E-3,4.974716E-3,-1.7014556E-2],"split_indices":[10,14,14,11,7,11,10,0,0,0,0,0,0,0,0],"split_type":[0,0,0,0,0,0,0,0,0,0,0,0,0,0,0],"sum_hessian":[2.631414E3,3.3239822E2,2.2990159E3,1.971877E2,1.3521053E2,1.1018446E3,1.1971711E3,6.1033955E1,1.3615375E2,1.3151439E2,3.6961462E0,4.9255447E2,6.0929016E2,1.0492938E3,1.4787733E2],"tree_param":{"num_deleted":"0","num_feature":"17","num_nodes":"15","size_leaf_vector":"1"}},{"base_weights":[4.8958743E-4,6.1746377E-1,-8.832857E-2,4.1038826E-1,9.0533376E-1,-3.13744E-1,3.4283124E-2,1.0084597E-2,3.2448534E-2,4.2734068E-2,1.1579273E-2,-1.1463689E-2,-3.531399E-2,3.291744E-3,-1.4692276E-2],"categories":[],"categories_nodes":[],"categories_segments":[],"categories_sizes":[],"default_left":[0,0,0,0,0,0,0,0,0,0,0,0,0,0,0],"id":4,"left_children":[1,3,5,7,9,11,13,-1,-1,-1,-1,-1,-1,-1,-1],"loss_changes":[1.4425339E2,1.8696999E1,6.3616127E1,1.1676651E1,1.2911476E1,1.1399635E1,2.873595E1,0E0,0E0,0E0,0E0,0E0,0E0,0E0,0E0],"parents":[2147483647,0,0,1,1,2,2,3,3,4,4,5,5,6,6],"right_children":[2,4,6,8,10,12,14,-1,-1,-1,-1,-1,-1,-1,-1],"split_conditions":[1E0,2.0733334E1,2.4452381E1,4.952553E0,7.3E0,5E0,7E0,1.0084597E-2,3.2448534E-2,4.2734068E-2,1.1579273E-2,-1.1463689E-2,-3.531399E-2,3.291744E-3,-1.4692276E-2],"split_indices":[10,14,14,6,8,10,10,0,0,0,0,0,0,0,0],"split_type":[0,0,0,0,0,0,0,0,0,0,0,0,0,0,0],"sum_hessian":[2.625474E3,3.302856E2,2.2951885E3,1.9463374E2,1.3565187E2,8.0943756E2,1.4857509E3,1.4202591E2,5.2607838E1,1.0561997E2,3.00319E1,7.7596844E2,3.346916E1,1.3287006E3,1.570502E2],"tree_param":{"num_deleted":"0","num_feature":"17","num_nodes":"15","size_leaf_vector":"1"}},{"base_weights":[-1.7540985E-3,3.3839452E-1,-5.8951214E-2,-3.1313285E-1,4.2530715E-1,-1.20722696E-1,2.1078086E-1,-4.6066687E-2,-5.110615E-3,1.26831075E-2,2.8331159E-2,-8.465695E-3,-1.6010315E-3,2.0143712E-2,2.548009E-3],"categories":[],"categories_nodes":[],"categories_segments":[],"categories_sizes":[],"default_left":[0,0,0,0,0,0,0,0,0,0,0,0,0,0,0],"id":5,"left_children":[1,3,5,7,9,11,13,-1,-1,-1,-1,-1,-1,-1,-1],"loss_changes":[5.1375584E1,2.171214E1,3.7769672E1,6.1566334E0,9.534153E0,1.3478758E1,1.7889856E1,0E0,0E0,0E0,0E0,0E0,0E0,0E0,0E0],"parents":[2147483647,0,0,1,1,2,2,3,3,4,4,5,5,6,6],"right_children":[2,4,6,8,10,12,14,-1,-1,-1,-1,-1,-1,-1,-1],"split_conditions":[9.5183736E-1,1.501E1,2.03E1,2.8E0,1.08E1,1.0111111E1,4.2784357E0,-4.6066687E-2,-5.110615E-3,1.26831075E-2,2.8331159E-2,-8.465695E-3,-1.6010315E-3,2.0143712E-2,2.548009E-3],"split_indices":[12,14,4,3,3,4,12,0,0,0,0,0,0,0,0],"split_type":[0,0,0,0,0,0,0,0,0,0,0,0,0,0,0],"sum_hessian":[2.6456047E3,3.7881232E2,2.2667925E3,4.3580647E1,3.352317E2,1.8463898E3,4.2040265E2,6.3504777E0,3.723017E1,2.4627641E2,8.895527E1,8.6143176E2,9.84958E2,1.38084E2,2.8231863E2],"tree_param":{"num_deleted":"0","num_feature":"17","num_nodes":"15","size_leaf_vector":"1"}},{"base_weights":[-6.3172323E-3,3.333197E-1,-5.642605E-2,7.28294E-2,5.5948925E-1,-1.539325E-1,1.516366E-1,2.3720369E-2,-2.1974836E-3,2.6700618E-2,3.2050072E-3,-1.5408765E-3,-8.920476E-3,1.0324737E-2,-3.956539E-3],"categories":[],"categories_nodes":[],"categories_segments":[],"categories_sizes":[],"default_left":[0,0,0,0,0,0,0,0,0,0,0,0,0,0,0],"id":6,"left_children":[1,3,5,7,9,11,13,-1,-1,-1,-1,-1,-1,-1,-1],"loss_changes":[4.4118797E1,1.9264133E1,4.6023365E1,1.0779995E1,8.870056E0,1.2269535E1,1.9508142E1,0E0,0E0,0E0,0E0,0E0,0E0,0E0,0E0],"parents":[2147483647,0,0,1,1,2,2,3,3,4,4,5,5,6,6],"right_children":[2,4,6,8,10,12,14,-1,-1,-1,-1,-1,-1,-1,-1],"split_conditions":[8.9262426E-1,1.8686666E1,1.6102856E1,2E0,7.3E0,1.7618911E0,5.871738E0,2.3720369E-2,-2.1974836E-3,2.6700618E-2,3.2050072E-3,-1.5408765E-3,-8.920476E-3,1.0324737E-2,-3.956539E-3],"split_indices":[12,13,5,7,8,12,12,0,0,0,0,0,0,0,0],"split_type":[0,0,0,0,0,0,0,0,0,0,0,0,0,0,0],"sum_hessian":[2.598152E3,3.3197705E2,2.266175E3,1.5596912E2,1.7600793E2,1.5448605E3,7.2131445E2,3.069945E1,1.2526966E2,1.4205107E2,3.395686E1,5.848004E2,9.6006006E2,5.068313E2,2.1448317E2],"tree_param":{"num_deleted":"0","num_feature":"17","num_nodes":"15","size_leaf_vector":"1"}},{"base_weights":[2.076279E-2,5.9780896E-1,-6.488215E-2,3.9662346E-1,9.0437514E-1,-2.6561674E-1,2.9536812E-2,9.363025E-3,3.441562E-2,5.187217E-2,2.9361118E-2,-1.615556E-2,-5.9818625E-3,2.8011815E-3,-1.364837E-2],"categories":[],"categories_nodes":[],"categories_segments":[],"categories_sizes":[],"default_left":[0,0,0,0,0,0,0,0,0,0,0,0,0,0,0],"id":7,"left_children":[1,3,5,7,9,11,13,-1,-1,-1,-1,-1,-1,-1,-1],"loss_changes":[1.310735E2,2.0108727E1,4.3798355E1,1.5073643E1,6.888489E0,1.1563137E1,2.3553965E1,0E0,0E0,0E0,0E0,0E0,0E0,0E0,0E0],"parents":[2147483647,0,0,1,1,2,2,3,3,4,4,5,5,6,6],"right_children":[2,4,6,8,10,12,14,-1,-1,-1,-1,-1,-1,-1,-1],"split_conditions":[1E0,2.0733334E1,9.111111E0,4.952553E0,3.0279899E0,1.7E0,7E0,9.363025E-3,3.441562E-2,5.187217E-2,2.9361118E-2,-1.615556E-2,-5.9818625E-3,2.8011815E-3,-1.364837E-2],"split_indices":[10,14,4,6,9,11,10,0,0,0,0,0,0,0,0],"split_type":[0,0,0,0,0,0,0,0,0,0,0,0,0,0,0],"sum_hessian":[2.6448877E3,3.4173148E2,2.3031562E3,2.0880765E2,1.3292383E2,7.3782794E2,1.5653282E3,1.5692755E2,5.18801E1,3.6677456E1,9.624637E1,3.317209E2,4.0610703E2,1.4129308E3,1.523974E2],"tree_param":{"num_deleted":"0","num_feature":"17","num_nodes":"15","size_leaf_vector":"1"}},{"base_weights":[4.3181577E-3,4.8721638E-1,-6.7782775E-2,2.243358E-1,8.809747E-1,-3.251983E-1,2.964777E-2,-1.4204825E-2,1.4705867E-2,4.100145E-2,1.9788744E-2,-2.1798234E-2,-8.726507E-3,-2.120421E-3,8.948652E-3],"categories":[],"categories_nodes":[],"categories_segments":[],"categories_sizes":[],"default_left":[0,0,0,0,0,0,0,0,0,0,0,0,0,0,0],"id":8,"left_children":[1,3,5,7,9,11,13,-1,-1,-1,-1,-1,-1,-1,-1],"loss_changes":[9.1724655E1,3.4675232E1,5.7494408E1,1.7509975E1,6.358795E0,1.4305679E1,2.6807737E1,0E0,0E0,0E0,0E0,0E0,0E0,0E0,0E0],"parents":[2147483647,0,0,1,1,2,2,3,3,4,4,5,5,6,6],"right_children":[2,4,6,8,10,12,14,-1,-1,-1,-1,-1,-1,-1,-1],"split_conditions":[1E0,2.0805555E1,8.5E0,1.501E1,6.6666665E0,1.4285715E0,3.322167E1,-1.4204825E-2,1.4705867E-2,4.100145E-2,1.9788744E-2,-2.1798234E-2,-8.726507E-3,-2.120421E-3,8.948652E-3],"split_indices":[10,14,4,14,8,11,14,0,0,0,0,0,0,0,0],"split_type":[0,0,0,0,0,0,0,0,0,0,0,0,0,0,0],"sum_hessian":[2.626353E3,3.412778E2,2.2850752E3,2.0642671E2,1.3485109E2,6.281193E2,1.6569558E3,4.0078728E1,1.6634798E2,9.5447105E1,3.9403988E1,2.0128816E2,4.2683118E2,1.1612036E3,4.9575223E2],"tree_param":{"num_deleted":"0","num_feature":"17","num_nodes":"15","size_leaf_vector":"1"}},{"base_weights":[1.5744226E-2,5.143861E-1,-5.7697535E-2,3.0753678E-1,8.169708E-1,-1.8694507E-1,1.1558432E-1,5.45846E-3,2.2828707E-2,3.410152E-2,-1.16333915E-2,-1.7832424E-2,-5.6511844E-3,8.135694E-3,-6.4140796E-3],"categories":[],"categories_nodes":[],"categories_segments":[],"categories_sizes":[],"default_left":[0,0,0,0,0,0,0,0,0,0,0,0,0,0,0],"id":9,"left_children":[1,3,5,7,9,11,13,-1,-1,-1,-1,-1,-1,-1,-1],"loss_changes":[9.614704E1,2.0268959E1,5.1174973E1,8.730045E0,6.1834717E0,1.506657E1,2.3820278E1,0E0,0E0,0E0,0E0,0E0,0E0,0E0,0E0],"parents":[2147483647,0,0,1,1,2,2,3,3,4,4,5,5,6,6],"right_children":[2,4,6,8,10,12,14,-1,-1,-1,-1,-1,-1,-1,-1],"split_conditions":[1E0,2.0805555E1,1.3347477E1,4.3358965E0,1.175E1,1.76125E1,6E0,5.45846E-3,2.2828707E-2,3.410152E-2,-1.16333915E-2,-1.7832424E-2,-5.6511844E-3,8.135694E-3,-6.4140796E-3],"split_indices":[10,14,5,6,7,14,10,0,0,0,0,0,0,0,0],"split_type":[0,0,0,0,0,0,0,0,0,0,0,0,0,0,0],"sum_hessian":[2.6172964E3,3.3602997E2,2.2812664E3,2.018627E2,1.3416727E2,1.3082491E3,9.730173E2,1.2481568E2,7.704701E1,1.3044179E2,3.7254908E0,1.9123434E2,1.1170148E3,7.3898065E2,2.3403659E2],"tree_param":{"num_deleted":"0","num_feature":"17","num_nodes":"15","size_leaf_vector":"1"}},{"base_weights":[4.346914E-3,4.800123E-1,-6.727536E-2,2.9973745E-1,7.6559114E-1,-1.5070719E-1,1.5862039E-1,5.9343274E-3,2.930406E-2,3.627867E-2,1.0569545E-2,-7.3069625E-4,-9.660148E-3,1.18151875E-2,-5.463898E-3],"categories":[],"categories_nodes":[],"categories_segments":[],"categories_sizes":[],"default_left":[0,0,0,0,0,0,0,0,0,0,0,0,0,0,0],"id":10,"left_children":[1,3,5,7,9,11,13,-1,-1,-1,-1,-1,-1,-1,-1],"loss_changes":[8.944093E1,1.691632E1,4.291179E1,1.34589615E1,8.586868E0,1.999522E1,2.5014046E1,0E0,0E0,0E0,0E0,0E0,0E0,0E0,0E0],"parents":[2147483647,0,0,1,1,2,2,3,3,4,4,5,5,6,6],"right_children":[2,4,6,8,10,12,14,-1,-1,-1,-1,-1,-1,-1,-1],"split_conditions":[1E0,2.0805555E1,1.7426495E1,4.952553E0,7.3E0,2E0,6E0,5.9343274E-3,2.930406E-2,3.627867E-2,1.0569545E-2,-7.3069625E-4,-9.660148E-3,1.18151875E-2,-5.463898E-3],"split_indices":[10,14,5,6,8,10,10,0,0,0,0,0,0,0,0],"split_type":[0,0,0,0,0,0,0,0,0,0,0,0,0,0,0],"sum_hessian":[2.6172185E3,3.4260745E2,2.274611E3,2.1245454E2,1.3015291E2,1.6629719E3,6.1163916E2,1.5959131E2,5.2863228E1,9.970145E1,3.0451464E1,6.817689E2,9.8120294E2,4.1861804E2,1.9302113E2],"tree_param":{"num_deleted":"0","num_feature":"17","num_nodes":"15","size_leaf_vector":"1"}},{"base_weights":[-9.148359E-3,3.9843115E-1,-6.735227E-2,1.646238E-1,6.9870764E-1,-2.216165E-1,1.8875409E-2,-4.4176902E-4,2.1914324E-2,1.8994806E-2,3.7279647E-2,-4.6132533E-3,-1.27397925E-2,2.5326305E-3,-1.4677501E-2],"categories":[],"categories_nodes":[],"categories_segments":[],"categories_sizes":[],"default_left":[0,0,0,0,0,0,0,0,0,0,0,0,0,0,0],"id":11,"left_children":[1,3,5,7,9,11,13,-1,-1,-1,-1,-1,-1,-1,-1],"loss_changes":[6.205391E1,2.2381157E1,3.0645145E1,1.2840563E1,6.2514343E0,8.28635E0,2.5248245E1,0E0,0E0,0E0,0E0,0E0,0E0,0E0,0E0],"parents":[2147483647,0,0,1,1,2,2,3,3,4,4,5,5,6,6],"right_children":[2,4,6,8,10,12,14,-1,-1,-1,-1,-1,-1,-1,-1],"split_conditions":[1E0,7.0081425E-1,9.8E0,2.0907408E1,8.279842E0,2E0,7E0,-4.4176902E-4,2.1914324E-2,1.8994806E-2,3.7279647E-2,-4.6132533E-3,-1.27397925E-2,2.5326305E-3,-1.4677501E-2],"split_indices":[10,12,4,14,5,10,10,0,0,0,0,0,0,0,0],"split_type":[0,0,0,0,0,0,0,0,0,0,0,0,0,0,0],"sum_hessian":[2.6204194E3,3.2558725E2,2.2948323E3,1.8492773E2,1.4065953E2,8.242597E2,1.4705725E3,1.2676794E2,5.8159798E1,7.505631E1,6.560322E1,3.9873602E2,4.2552368E2,1.3204912E3,1.5008131E2],"tree_param":{"num_deleted":"0","num_feature":"17","num_nodes":"15","size_leaf_vector":"1"}},{"base_weights":[1.30689265E-2,2.3836036E-1,-2.3980483E-2,-2.2014269E-1,3.0554345E-1,-1.00696445E-1,1.7028373E-1,-2.6752116E-2,3.4020473E-3,1.494886E-2,-6.587875E-3,-8.638111E-3,-1.8884123E-3,1.1758036E-2,-3.7454332E-3],"categories":[],"categories_nodes":[],"categories_segments":[],"categories_sizes":[],"default_left":[0,0,0,0,0,0,0,0,0,0,0,0,0,0,0],"id":12,"left_children":[1,3,5,7,9,11,13,-1,-1,-1,-1,-1,-1,-1,-1],"loss_changes":[2.1992096E1,1.1579939E1,3.351859E1,6.849526E0,1.0767017E1,9.840906E0,2.1008348E1,0E0,0E0,0E0,0E0,0E0,0E0,0E0,0E0],"parents":[2147483647,0,0,1,1,2,2,3,3,4,4,5,5,6,6],"right_children":[2,4,6,8,10,12,14,-1,-1,-1,-1,-1,-1,-1,-1],"split_conditions":[9.5183736E-1,1.501E1,1.7288065E1,1.128E2,7.3E0,7.7012587E0,5.871738E0,-2.6752116E-2,3.4020473E-3,1.494886E-2,-6.587875E-3,-8.638111E-3,-1.8884123E-3,1.1758036E-2,-3.7454332E-3],"split_indices":[12,14,5,2,8,5,12,0,0,0,0,0,0,0,0],"split_type":[0,0,0,0,0,0,0,0,0,0,0,0,0,0,0],"sum_hessian":[2.6201768E3,3.7109836E2,2.2490784E3,4.6166527E1,3.2493185E2,1.614559E3,6.345195E2,1.8791912E1,2.7374613E1,2.8446622E2,4.0465645E1,5.055177E2,1.1090413E3,4.3260086E2,2.0191858E2],"tree_param":{"num_deleted":"0","num_feature":"17","num_nodes":"15","size_leaf_vector":"1"}},{"base_weights":[-1.8652389E-2,4.1097575E-1,-8.219228E-2,2.4429289E-1,6.7277306E-1,-2.2361656E-1,3.3843905E-2,4.5276955E-3,2.3757115E-2,2.9696949E-2,-4.2142803E-3,-7.0790723E-3,-2.182533E-2,3.3678203E-3,-1.2836044E-2],"categories":[],"categories_nodes":[],"categories_segments":[],"categories_sizes":[],"default_left":[0,0,0,0,0,0,0,0,0,0,0,0,0,0,0],"id":13,"left_children":[1,3,5,7,9,11,13,-1,-1,-1,-1,-1,-1,-1,-1],"loss_changes":[7.1949036E1,1.4174549E1,3.7879257E1,9.228692E0,7.6402397E0,1.5070442E1,2.2617891E1,0E0,0E0,0E0,0E0,0E0,0E0,0E0,0E0],"parents":[2147483647,0,0,1,1,2,2,3,3,4,4,5,5,6,6],"right_children":[2,4,6,8,10,12,14,-1,-1,-1,-1,-1,-1,-1,-1],"split_conditions":[1E0,2.0907408E1,2.6871666E1,4.952553E0,1E1,4E0,7E0,4.5276955E-3,2.3757115E-2,2.9696949E-2,-4.2142803E-3,-7.0790723E-3,-2.182533E-2,3.3678203E-3,-1.2836044E-2],"split_indices":[10,14,14,6,8,10,10,0,0,0,0,0,0,0,0],"split_type":[0,0,0,0,0,0,0,0,0,0,0,0,0,0,0],"sum_hessian":[2.6391926E3,3.3826337E2,2.3009292E3,2.0911545E2,1.2914792E2,1.0384933E3,1.262436E3,1.5441371E2,5.4701744E1,1.18924515E2,1.0223394E1,9.1140533E2,1.2708793E2,1.1072201E3,1.5521597E2],"tree_param":{"num_deleted":"0","num_feature":"17","num_nodes":"15","size_leaf_vector":"1"}},{"base_weights":[7.5359303E-3,2.6028755E-1,-3.224408E-2,9.014204E-2,4.8467648E-1,-1.4054333E-1,7.120524E-2,-9.10625E-5,1.693795E-2,2.5957134E-2,-8.396419E-4,-5.344779E-3,-5.208349E-2,4.4182027E-3,-8.238138E-3],"categories":[],"categories_nodes":[],"categories_segments":[],"categories_sizes":[],"default_left":[0,0,0,0,0,0,0,0,0,0,0,0,0,0,0],"id":14,"left_children":[1,3,5,7,9,11,13,-1,-1,-1,-1,-1,-1,-1,-1],"loss_changes":[2.6463755E1,1.3338299E1,2.5397385E1,6.583268E0,1.3147865E1,7.625622E0,1.2655338E1,0E0,0E0,0E0,0E0,0E0,0E0,0E0,0E0],"parents":[2147483647,0,0,1,1,2,2,3,3,4,4,5,5,6,6],"right_children":[2,4,6,8,10,12,14,-1,-1,-1,-1,-1,-1,-1,-1],"split_conditions":[9.205954E-1,2.0733334E1,1.1910227E1,5.0728035E0,7.3E0,1.54E1,6.8600984E0,-9.10625E-5,1.693795E-2,2.5957134E-2,-8.396419E-4,-5.344779E-3,-5.208349E-2,4.4182027E-3,-8.238138E-3],"split_indices":[12,14,5,6,8,4,12,0,0,0,0,0,0,0,0],"split_type":[0,0,0,0,0,0,0,0,0,0,0,0,0,0,0],"sum_hessian":[2.618789E3,3.5699692E2,2.261792E3,2.0516284E2,1.5183408E2,1.1071489E3,1.1546432E3,1.6040733E2,4.4755505E1,1.1485454E2,3.697954E1,1.1025278E3,4.621003E0,1.0129374E3,1.4170583E2],"tree_param":{"num_deleted":"0","num_feature":"17","num_nodes":"15","size_leaf_vector":"1"}},{"base_weights":[-6.0153874E-3,3.980456E-1,-6.6667266E-2,2.3507386E-1,6.4387846E-1,-2.5725138E-1,8.116206E-3,-2.740613E-3,1.226016E-2,1.1754924E-2,3.705965E-2,-1.9549495E-2,-7.49752E-3,7.409179E-3,-1.97038E-3],"categories":[],"categories_nodes":[],"categories_segments":[],"categories_sizes":[],"default_left":[0,0,0,0,0,0,0,0,0,0,0,0,0,0,0],"id":15,"left_children":[1,3,5,7,9,11,13,-1,-1,-1,-1,-1,-1,-1,-1],"loss_changes":[6.398958E1,1.3044849E1,3.2580418E1,4.6941843E0,1.2420773E1,9.950596E0,1.676275E1,0E0,0E0,0E0,0E0,0E0,0E0,0E0,0E0],"parents":[2147483647,0,0,1,1,2,2,3,3,4,4,5,5,6,6],"right_children":[2,4,6,8,10,12,14,-1,-1,-1,-1,-1,-1,-1,-1],"split_conditions":[1E0,8.339277E0,8.6E0,1.501E1,6.518014E-1,1.2537825E0,2E0,-2.740613E-3,1.226016E-2,1.1754924E-2,3.705965E-2,-1.9549495E-2,-7.49752E-3,7.409179E-3,-1.97038E-3],"split_indices":[10,5,4,14,12,12,10,0,0,0,0,0,0,0,0],"split_type":[0,0,0,0,0,0,0,0,0,0,0,0,0,0,0],"sum_hessian":[2.6155227E3,3.3950842E2,2.2760144E3,2.0665225E2,1.3285616E2,6.425312E2,1.6334832E3,3.835488E1,1.6829738E2,6.144344E1,7.141271E1,1.4443497E2,4.9809622E2,4.010756E2,1.2324076E3],"tree_param":{"num_deleted":"0","num_feature":"17","num_nodes":"15","size_leaf_vector":"1"}},{"base_weights":[9.573786E-3,3.5315284E-1,-3.9960146E-2,-2.0336963E-1,4.5024E-1,-2.155057E-1,5.4247983E-2,-1.2339798E-2,3.9743196E-2,4.4979504E-3,2.4275742E-2,-3.6564477E-2,-7.607942E-3,3.7676124E-3,-1.1683075E-2],"categories":[],"categories_nodes":[],"categories_segments":[],"categories_sizes":[],"default_left":[0,0,0,0,0,0,0,0,0,0,0,0,0,0,0],"id":16,"left_children":[1,3,5,7,9,11,13,-1,-1,-1,-1,-1,-1,-1,-1],"loss_changes":[4.4205196E1,1.7911469E1,3.7486095E1,6.165024E0,1.4500362E1,1.3052605E1,2.0426023E1,0E0,0E0,0E0,0E0,0E0,0E0,0E0,0E0],"parents":[2147483647,0,0,1,1,2,2,3,3,4,4,5,5,6,6],"right_children":[2,4,6,8,10,12,14,-1,-1,-1,-1,-1,-1,-1,-1],"split_conditions":[1E0,5E-1,2.4452381E1,2.4870832E1,3.7727091E0,8.15782E-1,7E0,-1.2339798E-2,3.9743196E-2,4.4979504E-3,2.4275742E-2,-3.6564477E-2,-7.607942E-3,3.7676124E-3,-1.1683075E-2],"split_indices":[10,11,14,14,6,12,10,0,0,0,0,0,0,0,0],"split_type":[0,0,0,0,0,0,0,0,0,0,0,0,0,0,0],"sum_hessian":[2.586308E3,3.2631155E2,2.2599966E3,4.7534245E1,2.787773E2,7.906289E2,1.4693676E3,4.4799034E1,2.7352114E0,9.051575E1,1.8826157E2,2.5069347E1,7.655596E2,1.3189309E3,1.504367E2],"tree_param":{"num_deleted":"0","num_feature":"17","num_nodes":"15","size_leaf_vector":"1"}},{"base_weights":[-1.473758E-2,-5.3593263E-2,2.0476641E-1,1.7797743E-1,-9.90895E-2,3.4967908E-1,-8.408811E-2,1.7247731E-3,1.4558952E-2,-1.0303914E-2,-2.4127148E-3,3.0287888E-2,1.1040904E-2,1.0798579E-2,-1.1110985E-2],"categories":[],"categories_nodes":[],"categories_segments":[],"categories_sizes":[],"default_left":[0,0,0,0,0,0,0,0,0,0,0,0,0,0,0],"id":17,"left_children":[1,3,5,7,9,11,13,-1,-1,-1,-1,-1,-1,-1,-1],"loss_changes":[2.2116503E1,2.3286678E1,1.6463667E1,8.891648E0,1.1204683E1,7.047117E0,9.034249E0,0E0,0E0,0E0,0E0,0E0,0E0,0E0,0E0],"parents":[2147483647,0,0,1,1,2,2,3,3,4,4,5,5,6,6],"right_children":[2,4,6,8,10,12,14,-1,-1,-1,-1,-1,-1,-1,-1],"split_conditions":[2.08E1,9.382716E-1,6.161718E0,2.0805555E1,1.1E2,4.3693903E-1,4.6E0,1.7247731E-3,1.4558952E-2,-1.0303914E-2,-2.4127148E-3,3.0287888E-2,1.1040904E-2,1.0798579E-2,-1.1110985E-2],"split_indices":[4,12,12,14,2,16,7,0,0,0,0,0,0,0,0],"split_type":[0,0,0,0,0,0,0,0,0,0,0,0,0,0,0],"sum_hessian":[2.5994229E3,2.211104E3,3.8831863E2,3.6076733E2,1.8503368E3,2.595821E2,1.2873654E2,2.1192393E2,1.488434E2,3.5774744E2,1.4925894E3,3.67203E1,2.2286179E2,4.4514072E1,8.422247E1],"tree_param":{"num_deleted":"0","num_feature":"17","num_nodes":"15","size_leaf_vector":"1"}},{"base_weights":[-5.4820143E-3,3.659658E-1,-6.1974857E-2,2.1917392E-1,6.036087E-1,-1.2438827E-1,2.1966714E-1,4.010817E-3,2.1018244E-2,2.7056208E-2,-1.1262465E-2,-1.1849051E-2,-2.7645275E-3,1.9527305E-2,3.6946812E-3],"categories":[],"categories_nodes":[],"categories_segments":[],"categories_sizes":[],"default_left":[0,0,0,0,0,0,0,0,0,0,0,0,0,0,0],"id":18,"left_children":[1,3,5,7,9,11,13,-1,-1,-1,-1,-1,-1,-1,-1],"loss_changes":[5.4945095E1,1.1498684E1,4.006185E1,7.533207E0,8.970543E0,1.756396E1,1.3800425E1,0E0,0E0,0E0,0E0,0E0,0E0,0E0,0E0],"parents":[2147483647,0,0,1,1,2,2,3,3,4,4,5,5,6,6],"right_children":[2,4,6,8,10,12,14,-1,-1,-1,-1,-1,-1,-1,-1],"split_conditions":[1E0,5.0343266E0,2.0428572E1,2.0907408E1,9E0,2.065E1,4.3333335E0,4.010817E-3,2.1018244E-2,2.7056208E-2,-1.1262465E-2,-1.1849051E-2,-2.7645275E-3,1.9527305E-2,3.6946812E-3],"split_indices":[10,6,4,14,7,14,10,0,0,0,0,0,0,0,0],"split_type":[0,0,0,0,0,0,0,0,0,0,0,0,0,0,0],"sum_hessian":[2.623347E3,3.4436588E2,2.278981E3,2.1545409E2,1.2891177E2,1.8675011E3,4.1147992E2,1.5766675E2,5.7787334E1,1.196765E2,9.235279E0,4.4877606E2,1.418725E3,1.2955917E2,2.8192075E2],"tree_param":{"num_deleted":"0","num_feature":"17","num_nodes":"15","size_leaf_vector":"1"}},{"base_weights":[1.3251059E-2,4.4729936E-1,-4.8581913E-2,2.889123E-1,6.693288E-1,-1.2761773E-1,1.3278526E-1,6.042359E-3,2.213305E-2,1.5455485E-2,3.1535022E-2,7.304861E-5,-8.927959E-3,1.4981569E-2,-7.044858E-4],"categories":[],"categories_nodes":[],"categories_segments":[],"categories_sizes":[],"default_left":[0,0,0,0,0,0,0,0,0,0,0,0,0,0,0],"id":19,"left_children":[1,3,5,7,9,11,13,-1,-1,-1,-1,-1,-1,-1,-1],"loss_changes":[7.01106E1,1.0772308E1,3.2688843E1,6.6234035E0,3.636467E0,1.9891493E1,2.5386997E1,0E0,0E0,0E0,0E0,0E0,0E0,0E0,0E0],"parents":[2147483647,0,0,1,1,2,2,3,3,4,4,5,5,6,6],"right_children":[2,4,6,8,10,12,14,-1,-1,-1,-1,-1,-1,-1,-1],"split_conditions":[1E0,2.0805555E1,1.6452675E1,7.360552E-1,6E-1,2E0,4E0,6.042359E-3,2.213305E-2,1.5455485E-2,3.1535022E-2,7.304861E-5,-8.927959E-3,1.4981569E-2,-7.044858E-4],"split_indices":[10,14,5,12,10,10,10,0,0,0,0,0,0,0,0],"split_type":[0,0,0,0,0,0,0,0,0,0,0,0,0,0,0],"sum_hessian":[2.602975E3,3.2473145E2,2.2782437E3,1.9229077E2,1.3244067E2,1.5888969E3,6.893469E2,1.2907266E2,6.3218105E1,4.234036E1,9.010032E1,6.752678E2,9.13629E2,2.6447107E2,4.248759E2],"tree_param":{"num_deleted":"0","num_feature":"17","num_nodes":"15","size_leaf_vector":"1"}},{"base_weights":[3.9264676E-3,3.1940562E-1,-4.232451E-2,1.6051027E-1,5.771896E-1,-1.7485586E-1,5.0716117E-2,-4.3625855E-3,8.979365E-3,-3.4228766E-3,2.6665354E-2,-1.3166301E-2,-2.3612569E-3,3.7599038E-3,-1.3743617E-2],"categories":[],"categories_nodes":[],"categories_segments":[],"categories_sizes":[],"default_left":[0,0,0,0,0,0,0,0,0,0,0,0,0,0,0],"id":20,"left_children":[1,3,5,7,9,11,13,-1,-1,-1,-1,-1,-1,-1,-1],"loss_changes":[3.817031E1,1.3240532E1,2.8086622E1,3.7344165E0,7.9544334E0,1.6641504E1,2.283234E1,0E0,0E0,0E0,0E0,0E0,0E0,0E0,0E0],"parents":[2147483647,0,0,1,1,2,2,3,3,4,4,5,5,6,6],"right_children":[2,4,6,8,10,12,14,-1,-1,-1,-1,-1,-1,-1,-1],"split_conditions":[1E0,5.0343266E0,1.0777778E1,1.501E1,5E-1,1.7E0,7.2E0,-4.3625855E-3,8.979365E-3,-3.4228766E-3,2.6665354E-2,-1.3166301E-2,-2.3612569E-3,3.7599038E-3,-1.3743617E-2],"split_indices":[10,6,4,14,11,11,10,0,0,0,0,0,0,0,0],"split_type":[0,0,0,0,0,0,0,0,0,0,0,0,0,0,0],"sum_hessian":[2.6044595E3,3.3356122E2,2.2708982E3,2.0864226E2,1.2491897E2,9.3847485E2,1.3324233E3,3.8622643E1,1.7001962E2,1.4428423E1,1.1049054E2,3.9827765E2,5.4019727E2,1.2021472E3,1.3027611E2],"tree_param":{"num_deleted":"0","num_feature":"17","num_nodes":"15","size_leaf_vector":"1"}},{"base_weights":[1.4333485E-2,3.545014E-1,-3.5091873E-2,-6.2370606E-2,4.659036E-1,-1.080202E-1,1.4424898E-1,-2.5781102E-2,5.7305573E-3,1.2385199E-2,2.5304845E-2,-1.3692954E-3,-1.0236334E-2,9.261444E-3,-1.0564551E-2],"categories":[],"categories_nodes":[],"categories_segments":[],"categories_sizes":[],"default_left":[0,0,0,0,0,0,0,0,0,0,0,0,0,0,0],"id":21,"left_children":[1,3,5,7,9,11,13,-1,-1,-1,-1,-1,-1,-1,-1],"loss_changes":[4.410775E1,1.5691654E1,2.9837378E1,8.791673E0,6.2186127E0,1.7625547E1,2.368821E1,0E0,0E0,0E0,0E0,0E0,0E0,0E0,0E0],"parents":[2147483647,0,0,1,1,2,2,3,3,4,4,5,5,6,6],"right_children":[2,4,6,8,10,12,14,-1,-1,-1,-1,-1,-1,-1,-1],"split_conditions":[1E0,5.5E0,1.67E1,1.11E2,8.641309E0,3E0,7E0,-2.5781102E-2,5.7305573E-3,1.2385199E-2,2.5304845E-2,-1.3692954E-3,-1.0236334E-2,9.261444E-3,-1.0564551E-2],"split_indices":[10,4,4,2,5,10,10,0,0,0,0,0,0,0,0],"split_type":[0,0,0,0,0,0,0,0,0,0,0,0,0,0,0],"sum_hessian":[2.6121235E3,3.318098E2,2.2803137E3,6.913258E1,2.6267722E2,1.6233743E3,6.569394E2,1.8057053E1,5.1075535E1,1.3961334E2,1.2306389E2,1.088E3,5.353744E2,5.421841E2,1.147553E2],"tree_param":{"num_deleted":"0","num_feature":"17","num_nodes":"15","size_leaf_vector":"1"}},{"base_weights":[-1.9129263E-2,-5.6373127E-2,1.4381114E-1,1.6996941E-1,-1.01315774E-1,4.093123E-1,-7.756776E-3,1.2612254E-3,1.3600149E-2,-2.5159877E-3,-9.994988E-3,-1.9157354E-3,1.9194623E-2,3.9898343E-3,-1.4829423E-2],"categories":[],"categories_nodes":[],"categories_segments":[],"categories_sizes":[],"default_left":[0,0,0,0,0,0,0,0,0,0,0,0,0,0,0],"id":22,"left_children":[1,3,5,7,9,11,13,-1,-1,-1,-1,-1,-1,-1,-1],"loss_changes":[1.5665892E1,2.1439457E1,1.9485275E1,8.028887E0,9.885183E0,5.9883747E0,1.2127723E1,0E0,0E0,0E0,0E0,0E0,0E0,0E0,0E0],"parents":[2147483647,0,0,1,1,2,2,3,3,4,4,5,5,6,6],"right_children":[2,4,6,8,10,12,14,-1,-1,-1,-1,-1,-1,-1,-1],"split_conditions":[1.92E1,9.205954E-1,4.2784357E0,4.549725E0,3.9071739E0,1.92E1,3.677667E1,1.2612254E-3,1.3600149E-2,-2.5159877E-3,-9.994988E-3,-1.9157354E-3,1.9194623E-2,3.9898343E-3,-1.4829423E-2],"split_indices":[4,12,12,6,12,3,13,0,0,0,0,0,0,0,0],"split_type":[0,0,0,0,0,0,0,0,0,0,0,0,0,0,0],"sum_hessian":[2.5861184E3,2.1080344E3,4.780841E2,3.468988E2,1.7611356E3,1.7426195E2,3.0382214E2,1.9398056E2,1.5291823E2,1.4054127E3,3.5572293E2,2.2723886E1,1.5153806E2,2.3396593E2,6.9856224E1],"tree_param":{"num_deleted":"0","num_feature":"17","num_nodes":"15","size_leaf_vector":"1"}},{"base_weights":[1.0850417E-2,2.991026E-1,-3.24495E-2,1.388079E-1,5.44259E-1,-1.00012206E-1,1.2389142E-1,7.010534E-3,-2.5965111E-2,1.444306E-2,3.367019E-2,7.5304834E-4,-7.4064806E-3,9.3332715E-3,-5.31575E-3],"categories":[],"categories_nodes":[],"categories_segments":[],"categories_sizes":[],"default_left":[0,0,0,0,0,0,0,0,0,0,0,0,0,0,0],"id":23,"left_children":[1,3,5,7,9,11,13,-1,-1,-1,-1,-1,-1,-1,-1],"loss_changes":[3.2845707E1,1.3088829E1,2.4057745E1,6.0165477E0,6.4046707E0,1.6295378E1,1.946809E1,0E0,0E0,0E0,0E0,0E0,0E0,0E0,0E0],"parents":[2147483647,0,0,1,1,2,2,3,3,4,4,5,5,6,6],"right_children":[2,4,6,8,10,12,14,-1,-1,-1,-1,-1,-1,-1,-1],"split_conditions":[1E0,2.0907408E1,3.157E1,7.6666665E0,5.2E-1,2E0,6E0,7.010534E-3,-2.5965111E-2,1.444306E-2,3.367019E-2,7.5304834E-4,-7.4064806E-3,9.3332715E-3,-5.31575E-3],"split_indices":[10,14,14,7,15,10,10,0,0,0,0,0,0,0,0],"split_type":[0,0,0,0,0,0,0,0,0,0,0,0,0,0,0],"sum_hessian":[2.619058E3,3.4270377E2,2.2763542E3,2.0946782E2,1.3323595E2,1.5919572E3,6.843972E2,2.015284E2,7.9394274E0,8.533492E1,4.7901024E1,6.6428394E2,9.2767316E2,4.8075333E2,2.0364392E2],"tree_param":{"num_deleted":"0","num_feature":"17","num_nodes":"15","size_leaf_vector":"1"}},{"base_weights":[-1.4942456E-2,3.018128E-1,-6.406522E-2,1.3291526E-1,5.831998E-1,-2.750244E-1,-1.3053866E-2,2.6824445E-4,1.7451523E-2,1.7518597E-2,5.236846E-2,-1.9393666E-2,-5.0754906E-3,1.37873255E-2,-3.480569E-3],"categories":[],"categories_nodes":[],"categories_segments":[],"categories_sizes":[],"default_left":[0,0,0,0,0,0,0,0,0,0,0,0,0,0,0],"id":24,"left_children":[1,3,5,7,9,11,13,-1,-1,-1,-1,-1,-1,-1,-1],"loss_changes":[4.033304E1,1.6084402E1,2.4084866E1,8.218847E0,1.206752E1,1.3242516E1,4.820405E1,0E0,0E0,0E0,0E0,0E0,0E0,0E0,0E0],"parents":[2147483647,0,0,1,1,2,2,3,3,4,4,5,5,6,6],"right_children":[2,4,6,8,10,12,14,-1,-1,-1,-1,-1,-1,-1,-1],"split_conditions":[1E0,5.0343266E0,1.5E0,2.0733334E1,1.25E0,2.0486666E1,2E0,2.6824445E-4,1.7451523E-2,1.7518597E-2,5.236846E-2,-1.9393666E-2,-5.0754906E-3,1.37873255E-2,-3.480569E-3],"split_indices":[10,6,11,14,11,14,10,0,0,0,0,0,0,0,0],"split_type":[0,0,0,0,0,0,0,0,0,0,0,0,0,0,0],"sum_hessian":[2.5972705E3,3.466033E2,2.2506672E3,2.186962E2,1.2790711E2,4.3543103E2,1.8152363E3,1.5654018E2,6.2156013E1,1.0880574E2,1.9101374E1,1.7700752E2,2.584235E2,3.0929614E2,1.5059402E3],"tree_param":{"num_deleted":"0","num_feature":"17","num_nodes":"15","size_leaf_vector":"1"}},{"base_weights":[-4.080549E-3,-2.1826491E-1,2.3097616E-2,8.716443E-2,-3.4376794E-1,1.7715552E-1,-2.6542056E-2,-9.709697E-3,1.0734829E-2,-5.878927E-3,-2.1919046E-2,5.219534E-3,2.5575092E-2,-7.847972E-3,7.348751E-4],"categories":[],"categories_nodes":[],"categories_segments":[],"categories_sizes":[],"default_left":[0,0,0,0,0,0,0,0,0,0,0,0,0,0,0],"id":25,"left_children":[1,3,5,7,9,11,13,-1,-1,-1,-1,-1,-1,-1,-1],"loss_changes":[1.5238454E1,1.1466054E1,1.7717245E1,5.2285647E0,8.061121E0,1.1664141E1,1.3421541E1,0E0,0E0,0E0,0E0,0E0,0E0,0E0,0E0],"parents":[2147483647,0,0,1,1,2,2,3,3,4,4,5,5,6,6],"right_children":[2,4,6,8,10,12,14,-1,-1,-1,-1,-1,-1,-1,-1],"split_conditions":[1.76125E1,7.195435E-1,1.4756818E0,4.4444445E-1,2.6666667E0,1.7777778E0,2.1111112E0,-9.709697E-3,1.0734829E-2,-5.878927E-3,-2.1919046E-2,5.219534E-3,2.5575092E-2,-7.847972E-3,7.348751E-4],"split_indices":[14,12,12,11,7,11,11,0,0,0,0,0,0,0,0],"split_type":[0,0,0,0,0,0,0,0,0,0,0,0,0,0,0],"sum_hessian":[2.5991074E3,2.9386627E2,2.305241E3,8.452862E1,2.0933765E2,5.6352997E2,1.741711E3,2.8902689E1,5.562593E1,1.0921323E2,1.0012442E2,5.145508E2,4.8979153E1,3.6561124E2,1.3760999E3],"tree_param":{"num_deleted":"0","num_feature":"17","num_nodes":"15","size_leaf_vector":"1"}},{"base_weights":[-1.0662078E-3,-7.42786E-2,7.0350766E-2,-0E0,-1.6959459E-1,1.4254746E-1,-7.2162785E-2,-3.2455828E-3,1.6383708E-2,-1.976145E-2,-3.889545E-3,1.1120691E-3,8.55651E-3,-7.1828472E-3,7.02248E-3],"categories":[],"categories_nodes":[],"categories_segments":[],"categories_sizes":[],"default_left":[0,0,0,0,0,0,0,0,0,0,0,0,0,0,0],"id":26,"left_children":[1,3,5,7,9,11,13,-1,-1,-1,-1,-1,-1,-1,-1],"loss_changes":[1.3493702E1,9.007718E0,1.3450388E1,2.4019127E1,1.2763851E1,7.0222855E0,1.1715026E1,0E0,0E0,0E0,0E0,0E0,0E0,0E0,0E0],"parents":[2147483647,0,0,1,1,2,2,3,3,4,4,5,5,6,6],"right_children":[2,4,6,8,10,12,14,-1,-1,-1,-1,-1,-1,-1,-1],"split_conditions":[1E0,2.6484716E0,5.096732E-1,2.2222223E0,3.1E0,9.017082E0,1.6189058E1,-3.2455828E-3,1.6383708E-2,-1.976145E-2,-3.889545E-3,1.1120691E-3,8.55651E-3,-7.1828472E-3,7.02248E-3],"split_indices":[0,12,15,11,11,5,5,0,0,0,0,0,0,0,0],"split_type":[0,0,0,0,0,0,0,0,0,0,0,0,0,0,0],"sum_hessian":[2.5782039E3,1.276511E3,1.3016929E3,7.1934393E2,5.57167E2,8.663089E2,4.3538394E2,6.015811E2,1.17762825E2,9.863718E1,4.5852982E2,3.3699316E2,5.2931573E2,3.0509854E2,1.302854E2],"tree_param":{"num_deleted":"0","num_feature":"17","num_nodes":"15","size_leaf_vector":"1"}},{"base_weights":[1.2593793E-2,3.3365476E-1,-3.4066085E-2,-7.7358976E-2,4.066083E-1,-8.512577E-2,1.8808186E-1,-6.5821903E-3,4.2365704E-2,7.5691487E-3,2.32537E-2,-7.7740947E-4,-8.731483E-3,1.7637478E-2,-5.254424E-4],"categories":[],"categories_nodes":[],"categories_segments":[],"categories_sizes":[],"default_left":[0,0,0,0,0,0,0,0,0,0,0,0,0,0,0],"id":27,"left_children":[1,3,5,7,9,11,13,-1,-1,-1,-1,-1,-1,-1,-1],"loss_changes":[3.907776E1,1.0125111E1,2.568938E1,4.7118454E0,1.0284176E1,1.6080582E1,2.179952E1,0E0,0E0,0E0,0E0,0E0,0E0,0E0,0E0],"parents":[2147483647,0,0,1,1,2,2,3,3,4,4,5,5,6,6],"right_children":[2,4,6,8,10,12,14,-1,-1,-1,-1,-1,-1,-1,-1],"split_conditions":[1E0,4.4444445E-1,2.03E1,2.4870832E1,4.3358965E0,5.0595236E-1,5E0,-6.5821903E-3,4.2365704E-2,7.5691487E-3,2.32537E-2,-7.7740947E-4,-8.731483E-3,1.7637478E-2,-5.254424E-4],"split_indices":[10,11,4,14,6,15,10,0,0,0,0,0,0,0,0],"split_type":[0,0,0,0,0,0,0,0,0,0,0,0,0,0,0],"sum_hessian":[2.5967085E3,3.299988E2,2.2667097E3,4.8708363E1,2.8129047E2,1.8454465E3,4.212632E2,4.6496357E1,2.212005E0,1.283076E2,1.5298285E2,1.2409874E3,6.0445905E2,1.8678561E2,2.344776E2],"tree_param":{"num_deleted":"0","num_feature":"17","num_nodes":"15","size_leaf_vector":"1"}},{"base_weights":[-8.211445E-3,2.6890445E-1,-4.907748E-2,2.1495984E-1,6.975774E-1,-1.0323404E-1,1.8433967E-1,-3.1689312E-3,1.1406362E-2,-1.4877391E-2,3.0414343E-2,1.053027E-3,-7.29109E-3,1.6337132E-2,-0E0],"categories":[],"categories_nodes":[],"categories_segments":[],"categories_sizes":[],"default_left":[0,0,0,0,0,0,0,0,0,0,0,0,0,0,0],"id":28,"left_children":[1,3,5,7,9,11,13,-1,-1,-1,-1,-1,-1,-1,-1],"loss_changes":[2.9287868E1,7.0628643E0,2.8594887E1,6.3344126E0,2.9623299E0,1.9034882E1,1.7587181E1,0E0,0E0,0E0,0E0,0E0,0E0,0E0,0E0],"parents":[2147483647,0,0,1,1,2,2,3,3,4,4,5,5,6,6],"right_children":[2,4,6,8,10,12,14,-1,-1,-1,-1,-1,-1,-1,-1],"split_conditions":[1E0,1.0009751E0,2.03E1,1.5243333E1,1.031E2,2E0,5E0,-3.1689312E-3,1.1406362E-2,-1.4877391E-2,3.0414343E-2,1.053027E-3,-7.29109E-3,1.6337132E-2,-0E0],"split_indices":[10,12,4,13,2,10,10,0,0,0,0,0,0,0,0],"split_type":[0,0,0,0,0,0,0,0,0,0,0,0,0,0,0],"sum_hessian":[2.593501E3,3.309693E2,2.2625315E3,2.964503E2,3.4518993E1,1.838664E3,4.238676E2,5.6138363E1,2.4031194E2,1.2319325E0,3.3287064E1,6.967419E2,1.1419221E3,1.9000931E2,2.338583E2],"tree_param":{"num_deleted":"0","num_feature":"17","num_nodes":"15","size_leaf_vector":"1"}},{"base_weights":[-1.3458584E-2,2.7416518E-1,-5.639038E-2,8.8612385E-2,4.6917212E-1,-2.5029808E-1,1.702922E-2,-1.9981539E-2,5.692869E-3,2.9406622E-3,2.6372079E-2,-6.3499613E-3,-3.3549752E-2,2.001479E-2,-1.5208198E-3],"categories":[],"categories_nodes":[],"categories_segments":[],"categories_sizes":[],"default_left":[0,0,0,0,0,0,0,0,0,0,0,0,0,0,0],"id":29,"left_children":[1,3,5,7,9,11,13,-1,-1,-1,-1,-1,-1,-1,-1],"loss_changes":[3.1994345E1,1.1841528E1,3.2342747E1,5.47015E0,1.1889549E1,3.2924484E1,4.408896E1,0E0,0E0,0E0,0E0,0E0,0E0,0E0,0E0],"parents":[2147483647,0,0,1,1,2,2,3,3,4,4,5,5,6,6],"right_children":[2,4,6,8,10,12,14,-1,-1,-1,-1,-1,-1,-1,-1],"split_conditions":[1E0,6.518014E-1,1.75E0,1.066E2,3.9384148E0,2E0,2E0,-1.9981539E-2,5.692869E-3,2.9406622E-3,2.6372079E-2,-6.3499613E-3,-3.3549752E-2,2.001479E-2,-1.5208198E-3],"split_indices":[10,12,11,2,6,10,10,0,0,0,0,0,0,0,0],"split_type":[0,0,0,0,0,0,0,0,0,0,0,0,0,0,0],"sum_hessian":[2.5973271E3,3.3507407E2,2.2622532E3,1.738121E2,1.6126196E2,6.224522E2,1.6398009E3,1.3075934E1,1.6073618E2,5.3980793E1,1.0728117E2,5.4111017E2,8.134205E1,1.6756863E2,1.4722323E3],"tree_param":{"num_deleted":"0","num_feature":"17","num_nodes":"15","size_leaf_vector":"1"}},{"base_weights":[-9.014894E-3,2.9043052E-1,-5.3948764E-2,1.651288E-1,4.9859977E-1,-2.4413757E-1,1.0849909E-2,3.8811672E-3,2.7974753E-2,4.425619E-2,1.4288148E-2,-2.1336788E-2,-7.0923897E-3,7.077066E-3,-1.6658776E-3],"categories":[],"categories_nodes":[],"categories_segments":[],"categories_sizes":[],"default_left":[0,0,0,0,0,0,0,0,0,0,0,0,0,0,0],"id":30,"left_children":[1,3,5,7,9,11,13,-1,-1,-1,-1,-1,-1,-1,-1],"loss_changes":[3.483319E1,8.384096E0,2.7969467E1,7.3053274E0,9.546896E0,1.0662464E1,1.4827695E1,0E0,0E0,0E0,0E0,0E0,0E0,0E0,0E0],"parents":[2147483647,0,0,1,1,2,2,3,3,4,4,5,5,6,6],"right_children":[2,4,6,8,10,12,14,-1,-1,-1,-1,-1,-1,-1,-1],"split_conditions":[1E0,8.641309E0,2.2133333E1,1.3E0,2.7E0,1.1666666E0,2E0,3.8811672E-3,2.7974753E-2,4.425619E-2,1.4288148E-2,-2.1336788E-2,-7.0923897E-3,7.077066E-3,-1.6658776E-3],"split_indices":[10,5,14,11,8,11,10,0,0,0,0,0,0,0,0],"split_type":[0,0,0,0,0,0,0,0,0,0,0,0,0,0,0],"sum_hessian":[2.5951997E3,3.3640112E2,2.2587986E3,2.1270139E2,1.23699715E2,5.7520166E2,1.6835968E3,1.907505E2,2.1950893E1,2.1092394E1,1.0260732E2,1.042015E2,4.7100018E2,4.0581754E2,1.2777793E3],"tree_param":{"num_deleted":"0","num_feature":"17","num_nodes":"15","size_leaf_vector":"1"}},{"base_weights":[1.3274411E-2,-4.6314903E-2,1.2467198E-1,2.1518175E-1,-1.0461168E-1,2.779692E-1,-4.3981997E-3,3.4605314E-3,1.8146526E-2,-1.912053E-3,-1.1052931E-2,6.806637E-3,2.1018967E-2,-4.0873535E-2,1.3179253E-3],"categories":[],"categories_nodes":[],"categories_segments":[],"categories_sizes":[],"default_left":[0,0,0,0,0,0,0,0,0,0,0,0,0,0,0],"id":31,"left_children":[1,3,5,7,9,11,13,-1,-1,-1,-1,-1,-1,-1,-1],"loss_changes":[1.7129778E1,2.5498682E1,1.7947514E1,9.046193E0,1.3228925E1,1.0596062E1,1.9154196E1,0E0,0E0,0E0,0E0,0E0,0E0,0E0,0E0],"parents":[2147483647,0,0,1,1,2,2,3,3,4,4,5,5,6,6],"right_children":[2,4,6,8,10,12,14,-1,-1,-1,-1,-1,-1,-1,-1],"split_conditions":[1.42E1,1E0,4E0,2.0907408E1,5.35E-1,3.3E0,3.6E0,3.4605314E-3,1.8146526E-2,-1.912053E-3,-1.1052931E-2,6.806637E-3,2.1018967E-2,-4.0873535E-2,1.3179253E-3],"split_indices":[4,10,10,14,15,11,11,0,0,0,0,0,0,0,0],"split_type":[0,0,0,0,0,0,0,0,0,0,0,0,0,0,0],"sum_hessian":[2.572633E3,1.6735734E3,8.9905975E2,3.029995E2,1.3705739E3,4.1214706E2,4.869127E2,1.9954106E2,1.0345844E2,1.0345367E3,3.360372E2,2.9052786E2,1.2161922E2,1.669261E1,4.702201E2],"tree_param":{"num_deleted":"0","num_feature":"17","num_nodes":"15","size_leaf_vector":"1"}},{"base_weights":[6.6765E-3,2.3871918E-1,-2.7604243E-2,-1.685368E-1,3.3563223E-1,-7.986158E-2,1.7923845E-1,-2.739603E-2,-3.073383E-4,2.361728E-2,9.993799E-3,-1.2544304E-3,-1.0221971E-2,2.4425272E-2,4.0348237E-3],"categories":[],"categories_nodes":[],"categories_segments":[],"categories_sizes":[],"default_left":[0,0,0,0,0,0,0,0,0,0,0,0,0,0,0],"id":32,"left_children":[1,3,5,7,9,11,13,-1,-1,-1,-1,-1,-1,-1,-1],"loss_changes":[2.0667412E1,1.3350357E1,2.4292828E1,4.9858747E0,5.349886E0,1.5209707E1,1.4875413E1,0E0,0E0,0E0,0E0,0E0,0E0,0E0,0E0],"parents":[2147483647,0,0,1,1,2,2,3,3,4,4,5,5,6,6],"right_children":[2,4,6,8,10,12,14,-1,-1,-1,-1,-1,-1,-1,-1],"split_conditions":[1E0,3.808931E-1,3.3495E1,5.285714E0,2.5555556E0,4E0,3E0,-2.739603E-2,-3.073383E-4,2.361728E-2,9.993799E-3,-1.2544304E-3,-1.0221971E-2,2.4425272E-2,4.0348237E-3],"split_indices":[10,12,14,4,8,10,10,0,0,0,0,0,0,0,0],"split_type":[0,0,0,0,0,0,0,0,0,0,0,0,0,0,0],"sum_hessian":[2.583011E3,3.335133E2,2.2494978E3,6.2970074E1,2.705432E2,1.7982493E3,4.512485E2,1.3348554E1,4.9621517E1,6.445371E1,2.0608951E2,1.4139358E3,3.8431348E2,6.689425E1,3.8435425E2],"tree_param":{"num_deleted":"0","num_feature":"17","num_nodes":"15","size_leaf_vector":"1"}},{"base_weights":[7.001872E-3,2.6701105E-1,-3.1240283E-2,2.040044E-1,6.6840607E-1,-4.5205936E-1,-4.7873952E-3,-2.0528806E-3,1.2567571E-2,3.6007013E-2,3.404557E-6,-1.498767E-2,-4.8906397E-2,5.1411195E-3,-2.1946898E-3],"categories":[],"categories_nodes":[],"categories_segments":[],"categories_sizes":[],"default_left":[0,0,0,0,0,0,0,0,0,0,0,0,0,0,0],"id":33,"left_children":[1,3,5,7,9,11,13,-1,-1,-1,-1,-1,-1,-1,-1],"loss_changes":[2.5763351E1,7.8249073E0,2.4784662E1,8.363253E0,6.3591347E0,6.501505E0,1.4169391E1,0E0,0E0,0E0,0E0,0E0,0E0,0E0,0E0],"parents":[2147483647,0,0,1,1,2,2,3,3,4,4,5,5,6,6],"right_children":[2,4,6,8,10,12,14,-1,-1,-1,-1,-1,-1,-1,-1],"split_conditions":[1E0,1.25E0,1.1E0,1.7156666E1,2.3033333E1,7.9E0,2E0,-2.0528806E-3,1.2567571E-2,3.6007013E-2,3.404557E-6,-1.498767E-2,-4.8906397E-2,5.1411195E-3,-2.1946898E-3],"split_indices":[10,11,11,14,13,8,10,0,0,0,0,0,0,0,0],"split_type":[0,0,0,0,0,0,0,0,0,0,0,0,0,0,0],"sum_hessian":[2.577255E3,3.3129193E2,2.245963E3,2.888276E2,4.246435E1,1.306903E2,2.1152727E3,8.626812E1,2.0255948E2,3.0624187E1,1.1840164E1,1.2098038E2,9.709927E0,5.745836E2,1.5406891E3],"tree_param":{"num_deleted":"0","num_feature":"17","num_nodes":"15","size_leaf_vector":"1"}},{"base_weights":[-7.146486E-4,1.029325E-1,-7.2513476E-2,1.84951E-2,5.2805996E-1,-5.2500457E-1,-3.0935393E-3,7.6858536E-3,-3.323166E-3,-0E0,2.4797365E-2,-3.1145072E-2,-1.4103029E-2,1.0671073E-2,-3.0998336E-3],"categories":[],"categories_nodes":[],"categories_segments":[],"categories_sizes":[],"default_left":[0,0,0,0,0,0,0,0,0,0,0,0,0,0,0],"id":34,"left_children":[1,3,5,7,9,11,13,-1,-1,-1,-1,-1,-1,-1,-1],"loss_changes":[1.913548E1,3.7420303E1,4.7579346E1,1.5634981E1,8.328903E0,7.976528E0,2.6611E1,0E0,0E0,0E0,0E0,0E0,0E0,0E0,0E0],"parents":[2147483647,0,0,1,1,2,2,3,3,4,4,5,5,6,6],"right_children":[2,4,6,8,10,12,14,-1,-1,-1,-1,-1,-1,-1,-1],"split_conditions":[2E0,1.7777778E0,2.125E0,1E0,1.094E2,1.75E0,3E0,7.6858536E-3,-3.323166E-3,-0E0,2.4797365E-2,-3.1145072E-2,-1.4103029E-2,1.0671073E-2,-3.0998336E-3],"split_indices":[10,11,11,10,2,11,10,0,0,0,0,0,0,0,0],"split_type":[0,0,0,0,0,0,0,0,0,0,0,0,0,0,0],"sum_hessian":[2.571228E3,1.0492167E3,1.5220115E3,8.7727484E2,1.7194179E2,2.0054631E2,1.3214651E3,3.2506982E2,5.52205E2,2.650453E1,1.4543726E2,7.78738E1,1.22672516E2,2.8357074E2,1.0378944E3],"tree_param":{"num_deleted":"0","num_feature":"17","num_nodes":"15","size_leaf_vector":"1"}},{"base_weights":[4.7211284E-3,1.1319889E-1,-6.919748E-2,-2.674599E-2,2.2103947E-1,-3.390118E-1,-1.5895024E-2,-7.6133325E-3,5.31403E-3,7.6546585E-3,3.0385168E-2,-1.5630042E-2,1.6330404E-2,9.534203E-3,-3.0906873E-3],"categories":[],"categories_nodes":[],"categories_segments":[],"categories_sizes":[],"default_left":[0,0,0,0,0,0,0,0,0,0,0,0,0,0,0],"id":35,"left_children":[1,3,5,7,9,11,13,-1,-1,-1,-1,-1,-1,-1,-1],"loss_changes":[2.0874945E1,1.6049406E1,2.2023382E1,1.2091759E1,8.825338E0,1.0138386E1,2.0204182E1,0E0,0E0,0E0,0E0,0E0,0E0,0E0,0E0],"parents":[2147483647,0,0,1,1,2,2,3,3,4,4,5,5,6,6],"right_children":[2,4,6,8,10,12,14,-1,-1,-1,-1,-1,-1,-1,-1],"split_conditions":[2E0,2.0733334E1,2.342297E0,1.155E2,3.3495E1,3.3863335E1,3E0,-7.6133325E-3,5.31403E-3,7.6546585E-3,3.0385168E-2,-1.5630042E-2,1.6330404E-2,9.534203E-3,-3.0906873E-3],"split_indices":[10,14,12,2,14,13,10,0,0,0,0,0,0,0,0],"split_type":[0,0,0,0,0,0,0,0,0,0,0,0,0,0,0],"sum_hessian":[2.598471E3,1.0555546E3,1.5429164E3,4.5774677E2,5.978078E2,2.5202916E2,1.2908872E3,2.2738774E2,2.3035902E2,5.694047E2,2.8403105E1,2.3656052E2,1.5468642E1,2.4898596E2,1.0419012E3],"tree_param":{"num_deleted":"0","num_feature":"17","num_nodes":"15","size_leaf_vector":"1"}},{"base_weights":[7.783467E-3,2.1922886E-1,-2.3394989E-2,1.12774834E-1,3.764803E-1,-1.8415372E-1,2.9845743E-2,7.2803465E-3,-2.0543113E-2,1.6676875E-2,-2.873744E-2,-5.2617113E-3,-2.6125537E-2,1.8000815E-2,-1.1007969E-3],"categories":[],"categories_nodes":[],"categories_segments":[],"categories_sizes":[],"default_left":[0,0,0,0,0,0,0,0,0,0,0,0,0,0,0],"id":36,"left_children":[1,3,5,7,9,11,13,-1,-1,-1,-1,-1,-1,-1,-1],"loss_changes":[1.7221592E1,5.332985E0,1.9442287E1,8.842033E0,6.228298E0,1.3425138E1,4.1296677E1,0E0,0E0,0E0,0E0,0E0,0E0,0E0,0E0],"parents":[2147483647,0,0,1,1,2,2,3,3,4,4,5,5,6,6],"right_children":[2,4,6,8,10,12,14,-1,-1,-1,-1,-1,-1,-1,-1],"split_conditions":[1E0,8.339277E0,1.6666666E0,7.754565E0,1.1210651E1,2E0,2E0,7.2803465E-3,-2.0543113E-2,1.6676875E-2,-2.873744E-2,-5.2617113E-3,-2.6125537E-2,1.8000815E-2,-1.1007969E-3],"split_indices":[10,5,11,5,9,10,10,0,0,0,0,0,0,0,0],"split_type":[0,0,0,0,0,0,0,0,0,0,0,0,0,0,0],"sum_hessian":[2.5956057E3,3.3475528E2,2.2608503E3,2.0261293E2,1.3214235E2,5.641319E2,1.6967185E3,1.8377351E2,1.8839418E1,1.2841544E2,3.7269123E0,5.0989816E2,5.423374E1,2.0371849E2,1.493E3],"tree_param":{"num_deleted":"0","num_feature":"17","num_nodes":"15","size_leaf_vector":"1"}},{"base_weights":[-7.640609E-3,2.3069388E-1,-4.2895447E-2,1.7247057E-1,6.0653526E-1,-2.0490387E-1,1.419627E-2,1.7492492E-2,3.6105623E-3,7.981939E-3,4.0218566E-2,-5.6678113E-3,-2.8793529E-2,1.6051851E-2,-1.4529196E-3],"categories":[],"categories_nodes":[],"categories_segments":[],"categories_sizes":[],"default_left":[0,0,0,0,0,0,0,0,0,0,0,0,0,0,0],"id":37,"left_children":[1,3,5,7,9,11,13,-1,-1,-1,-1,-1,-1,-1,-1],"loss_changes":[2.177912E1,6.800396E0,2.108717E1,6.0498285E0,6.225151E0,1.8743574E1,3.3123173E1,0E0,0E0,0E0,0E0,0E0,0E0,0E0,0E0],"parents":[2147483647,0,0,1,1,2,2,3,3,4,4,5,5,6,6],"right_children":[2,4,6,8,10,12,14,-1,-1,-1,-1,-1,-1,-1,-1],"split_conditions":[1E0,1.2222222E0,1.7E0,2.6E0,1.163E2,2E0,2E0,1.7492492E-2,3.6105623E-3,7.981939E-3,4.0218566E-2,-5.6678113E-3,-2.8793529E-2,1.6051851E-2,-1.4529196E-3],"split_indices":[10,11,11,8,2,10,10,0,0,0,0,0,0,0,0],"split_type":[0,0,0,0,0,0,0,0,0,0,0,0,0,0,0],"sum_hessian":[2.600735E3,3.3254218E2,2.2681929E3,2.9045044E2,4.2091743E1,5.92566E2,1.6756268E3,6.592218E1,2.2452826E2,2.2331867E1,1.9759874E1,5.303639E2,6.22021E1,1.9357112E2,1.4820558E3],"tree_param":{"num_deleted":"0","num_feature":"17","num_nodes":"15","size_leaf_vector":"1"}},{"base_weights":[4.8091568E-4,-8.272427E-2,6.560347E-2,1.2746319E-1,-1.4416982E-1,1.2226289E-1,-8.5307E-2,-7.8053237E-4,1.3172163E-2,-1.6213445E-2,-3.8568077E-3,2.1230758E-3,1.3967301E-2,5.8590658E-2,-4.369215E-3],"categories":[],"categories_nodes":[],"categories_segments":[],"categories_sizes":[],"default_left":[0,0,0,0,0,0,0,0,0,0,0,0,0,0,0],"id":38,"left_children":[1,3,5,7,9,11,13,-1,-1,-1,-1,-1,-1,-1,-1],"loss_changes":[1.409551E1,1.4744368E1,1.2543011E1,7.8021784E0,1.0719809E1,1.655877E1,1.4440307E1,0E0,0E0,0E0,0E0,0E0,0E0,0E0,0E0],"parents":[2147483647,0,0,1,1,2,2,3,3,4,4,5,5,6,6],"right_children":[2,4,6,8,10,12,14,-1,-1,-1,-1,-1,-1,-1,-1],"split_conditions":[1.0444445E1,1E0,5E0,6.8442327E-1,1.1502417E0,1.888889E1,1.6652056E0,-7.8053237E-4,1.3172163E-2,-1.6213445E-2,-3.8568077E-3,2.1230758E-3,1.3967301E-2,5.8590658E-2,-4.369215E-3],"split_indices":[4,10,10,12,12,4,9,0,0,0,0,0,0,0,0],"split_type":[0,0,0,0,0,0,0,0,0,0,0,0,0,0,0],"sum_hessian":[2.6007493E3,1.1383696E3,1.4623796E3,2.5541663E2,8.8295294E2,1.0657424E3,3.9663727E2,1.4716223E2,1.082544E2,1.3265013E2,7.503028E2,8.204629E2,2.4527953E2,4.7718134E0,3.9186545E2],"tree_param":{"num_deleted":"0","num_feature":"17","num_nodes":"15","size_leaf_vector":"1"}},{"base_weights":[2.066355E-2,-1.9171618E-2,1.9035321E-1,9.8407224E-2,-1.2838446E-1,4.0476754E-2,3.3759353E-1,-1.5310124E-3,8.232771E-3,-2.160178E-2,-2.8516084E-3,-4.760673E-3,1.3306011E-2,-1.1963535E-2,1.5839381E-2],"categories":[],"categories_nodes":[],"categories_segments":[],"categories_sizes":[],"default_left":[0,0,0,0,0,0,0,0,0,0,0,0,0,0,0],"id":39,"left_children":[1,3,5,7,9,11,13,-1,-1,-1,-1,-1,-1,-1,-1],"loss_changes":[1.7470236E1,2.67521E1,1.0640184E1,1.4858014E1,2.5078362E1,1.1682352E1,9.480284E0,0E0,0E0,0E0,0E0,0E0,0E0,0E0,0E0],"parents":[2147483647,0,0,1,1,2,2,3,3,4,4,5,5,6,6],"right_children":[2,4,6,8,10,12,14,-1,-1,-1,-1,-1,-1,-1,-1],"split_conditions":[1.92E1,2E0,1E0,2.065E1,2.0798721E0,1.18E2,1.875E1,-1.5310124E-3,8.232771E-3,-2.160178E-2,-2.8516084E-3,-4.760673E-3,1.3306011E-2,-1.1963535E-2,1.5839381E-2],"split_indices":[4,10,0,14,12,2,3,0,0,0,0,0,0,0,0],"split_type":[0,0,0,0,0,0,0,0,0,0,0,0,0,0,0],"sum_hessian":[2.5702563E3,2.0800046E3,4.902518E2,9.9950037E2,1.0805042E3,2.4530743E2,2.4494437E2,4.3904926E2,5.604511E2,1.2873456E2,9.5176965E2,1.5805486E2,8.725259E1,1.9769852E1,2.2517451E2],"tree_param":{"num_deleted":"0","num_feature":"17","num_nodes":"15","size_leaf_vector":"1"}},{"base_weights":[6.620376E-3,5.9193175E-2,-9.6624374E-2,-4.180897E-2,1.613715E-1,1.552998E-1,-1.3866155E-1,-3.6263608E-3,1.0224161E-2,4.2386423E-3,1.7057085E-2,-1.8359864E-2,9.763315E-3,-1.8856714E-2,-3.8836233E-3],"categories":[],"categories_nodes":[],"categories_segments":[],"categories_sizes":[],"default_left":[0,0,0,0,0,0,0,0,0,0,0,0,0,0,0],"id":40,"left_children":[1,3,5,7,9,11,13,-1,-1,-1,-1,-1,-1,-1,-1],"loss_changes":[1.4010413E1,1.7772856E1,9.216807E0,1.2535727E1,1.22406025E1,6.7829533E0,9.976466E0,0E0,0E0,0E0,0E0,0E0,0E0,0E0,0E0],"parents":[2147483647,0,0,1,1,2,2,3,3,4,4,5,5,6,6],"right_children":[2,4,6,8,10,12,14,-1,-1,-1,-1,-1,-1,-1,-1],"split_conditions":[5.096732E-1,1E0,1E0,3.409E1,1.9732311E1,1.086E2,1.1666666E0,-3.6263608E-3,1.0224161E-2,4.2386423E-3,1.7057085E-2,-1.8359864E-2,9.763315E-3,-1.8856714E-2,-3.8836233E-3],"split_indices":[15,0,10,14,5,2,11,0,0,0,0,0,0,0,0],"split_type":[0,0,0,0,0,0,0,0,0,0,0,0,0,0,0],"sum_hessian":[2.5823987E3,1.7145914E3,8.678072E2,8.601367E2,8.544547E2,1.21991455E2,7.4581573E2,7.406241E2,1.19512634E2,7.105402E2,1.4391447E2,1.4193088E1,1.0779836E2,7.9607254E1,6.662085E2],"tree_param":{"num_deleted":"0","num_feature":"17","num_nodes":"15","size_leaf_vector":"1"}},{"base_weights":[-1.1064949E-2,-2.3862419E-1,1.5769796E-2,-1.1700693E-1,-5.509552E-1,6.635175E-2,-1.0216826E-1,9.174142E-3,-8.595534E-3,5.414365E-3,-2.4441162E-2,4.541388E-4,9.794486E-3,-1.3288805E-2,1.4772542E-3],"categories":[],"categories_nodes":[],"categories_segments":[],"categories_sizes":[],"default_left":[0,0,0,0,0,0,0,0,0,0,0,0,0,0,0],"id":41,"left_children":[1,3,5,7,9,11,13,-1,-1,-1,-1,-1,-1,-1,-1],"loss_changes":[1.5873273E1,1.0015203E1,1.3754847E1,6.869274E0,3.5124435E0,1.5802881E1,2.2331903E1,0E0,0E0,0E0,0E0,0E0,0E0,0E0,0E0],"parents":[2147483647,0,0,1,1,2,2,3,3,4,4,5,5,6,6],"right_children":[2,4,6,8,10,12,14,-1,-1,-1,-1,-1,-1,-1,-1],"split_conditions":[5.625E0,4.8675212E-1,4E0,1.4926666E1,1.3879195E0,2.7708871E0,3.1468334E1,9.174142E-3,-8.595534E-3,5.414365E-3,-2.4441162E-2,4.541388E-4,9.794486E-3,-1.3288805E-2,1.4772542E-3],"split_indices":[4,15,10,13,9,12,14,0,0,0,0,0,0,0,0],"split_type":[0,0,0,0,0,0,0,0,0,0,0,0,0,0,0],"sum_hessian":[2.5795337E3,2.731512E2,2.3063826E3,1.9881572E2,7.433549E1,1.6173912E3,6.8899133E2,4.2493546E1,1.5632217E2,5.340807E0,6.899468E1,1.2405321E3,3.768591E2,2.5994363E2,4.290477E2],"tree_param":{"num_deleted":"0","num_feature":"17","num_nodes":"15","size_leaf_vector":"1"}},{"base_weights":[1.7281124E-2,-1.9026345E-2,1.7260534E-1,2.1387922E-2,-1.2653899E-1,2.5226194E-1,-2.3191932E-1,1.1646126E-3,-2.6168676E-2,-1.55079225E-2,-3.2129588E-3,3.2840266E-3,1.6908675E-2,1.4001866E-2,-1.4878943E-2],"categories":[],"categories_nodes":[],"categories_segments":[],"categories_sizes":[],"default_left":[0,0,0,0,0,0,0,0,0,0,0,0,0,0,0],"id":42,"left_children":[1,3,5,7,9,11,13,-1,-1,-1,-1,-1,-1,-1,-1],"loss_changes":[1.4624615E1,9.131325E0,1.5906426E1,7.7113223E0,6.659149E0,1.1718893E1,6.7543263E0,0E0,0E0,0E0,0E0,0E0,0E0,0E0,0E0],"parents":[2147483647,0,0,1,1,2,2,3,3,4,4,5,5,6,6],"right_children":[2,4,6,8,10,12,14,-1,-1,-1,-1,-1,-1,-1,-1],"split_conditions":[1.92E1,5.2791196E-1,3.6668335E1,9E0,1.087E2,1E0,3.6366665E1,1.1646126E-3,-2.6168676E-2,-1.55079225E-2,-3.2129588E-3,3.2840266E-3,1.6908675E-2,1.4001866E-2,-1.4878943E-2],"split_indices":[4,15,14,1,2,0,13,0,0,0,0,0,0,0,0],"split_type":[0,0,0,0,0,0,0,0,0,0,0,0,0,0,0],"sum_hessian":[2.5780405E3,2.0877725E3,4.9026804E2,1.5146587E3,5.7311383E2,4.1097662E2,7.9291405E1,1.4991697E3,1.5489022E1,8.2797714E1,4.9031613E2,2.0864172E2,2.023349E2,1.4439797E1,6.485161E1],"tree_param":{"num_deleted":"0","num_feature":"17","num_nodes":"15","size_leaf_vector":"1"}},{"base_weights":[-9.912855E-5,2.1840064E-1,-3.2562416E-2,2.5248146E-1,-2.867982E-1,-1.1137603E-1,6.9419414E-2,8.327759E-3,3.596045E-2,-2.6582541E-2,1.1745784E-2,-1.8754634E-3,-2.4140537E-2,1.5469995E-2,-2.3804584E-3],"categories":[],"categories_nodes":[],"categories_segments":[],"categories_sizes":[],"default_left":[0,0,0,0,0,0,0,0,0,0,0,0,0,0,0],"id":43,"left_children":[1,3,5,7,9,11,13,-1,-1,-1,-1,-1,-1,-1,-1],"loss_changes":[1.8331514E1,5.812249E0,1.8221203E1,8.176512E0,4.9593153E0,4.0313156E1,4.0630737E1,0E0,0E0,0E0,0E0,0E0,0E0,0E0,0E0],"parents":[2147483647,0,0,1,1,2,2,3,3,4,4,5,5,6,6],"right_children":[2,4,6,8,10,12,14,-1,-1,-1,-1,-1,-1,-1,-1],"split_conditions":[1E0,8.569977E0,3.1E0,2.8613333E1,6.1851853E-1,3E0,4E0,8.327759E-3,3.596045E-2,-2.6582541E-2,1.1745784E-2,-1.8754634E-3,-2.4140537E-2,1.5469995E-2,-2.3804584E-3],"split_indices":[10,9,11,13,16,10,10,0,0,0,0,0,0,0,0],"split_type":[0,0,0,0,0,0,0,0,0,0,0,0,0,0,0],"sum_hessian":[2.5952087E3,3.3292075E2,2.2622878E3,3.1331015E2,1.96106E1,1.2787858E3,9.8350226E2,2.9555328E2,1.7756857E1,1.2286519E1,7.324081E0,1.1331711E3,1.4561458E2,2.8427032E2,6.9923193E2],"tree_param":{"num_deleted":"0","num_feature":"17","num_nodes":"15","size_leaf_vector":"1"}},{"base_weights":[1.5449178E-2,3.690704E-2,-3.2900885E-1,1.8826634E-2,7.243315E-1,-5.202718E-1,1.6958642E-1,-1.2388164E-3,5.393947E-3,-1.7203822E-3,3.3812348E-2,-2.6213823E-2,1.8355524E-2,2.3506667E-2,-3.7384527E-3],"categories":[],"categories_nodes":[],"categories_segments":[],"categories_sizes":[],"default_left":[0,0,0,0,0,0,0,0,0,0,0,0,0,0,0],"id":44,"left_children":[1,3,5,7,9,11,13,-1,-1,-1,-1,-1,-1,-1,-1],"loss_changes":[1.9143332E1,3.0156746E1,1.4734295E1,1.3957925E1,6.3126717E0,1.5238539E1,4.960621E0,0E0,0E0,0E0,0E0,0E0,0E0,0E0,0E0],"parents":[2147483647,0,0,1,1,2,2,3,3,4,4,5,5,6,6],"right_children":[2,4,6,8,10,12,14,-1,-1,-1,-1,-1,-1,-1,-1],"split_conditions":[7E0,6.4E0,9E0,3.2222223E0,2.8625E1,1.06E1,1E1,-1.2388164E-3,5.393947E-3,-1.7203822E-3,3.3812348E-2,-2.6213823E-2,1.8355524E-2,2.3506667E-2,-3.7384527E-3],"split_indices":[10,11,11,11,14,8,10,0,0,0,0,0,0,0,0],"split_type":[0,0,0,0,0,0,0,0,0,0,0,0,0,0,0],"sum_hessian":[2.606728E3,2.456134E3,1.5059398E2,2.3949785E3,6.115544E1,1.0952758E2,4.10664E1,1.6739523E3,7.210263E2,7.985431E0,5.317001E1,9.6888306E1,1.263928E1,1.6045412E1,2.5020988E1],"tree_param":{"num_deleted":"0","num_feature":"17","num_nodes":"15","size_leaf_vector":"1"}},{"base_weights":[1.0507033E-2,5.925039E-2,-1.1955858E-1,8.155839E-3,4.266477E-1,-6.4548784E-1,-8.293886E-3,2.0121592E-3,-1.4229378E-2,3.153261E-2,1.3581442E-2,-5.2812908E-2,-2.0133883E-2,1.1501717E-2,-4.229317E-3],"categories":[],"categories_nodes":[],"categories_segments":[],"categories_sizes":[],"default_left":[0,0,0,0,0,0,0,0,0,0,0,0,0,0,0],"id":45,"left_children":[1,3,5,7,9,11,13,-1,-1,-1,-1,-1,-1,-1,-1],"loss_changes":[1.637726E1,3.51674E1,4.07914E1,2.541525E1,6.330559E0,1.001833E1,1.6797922E1,0E0,0E0,0E0,0E0,0E0,0E0,0E0,0E0],"parents":[2147483647,0,0,1,1,2,2,3,3,4,4,5,5,6,6],"right_children":[2,4,6,8,10,12,14,-1,-1,-1,-1,-1,-1,-1,-1],"split_conditions":[4E0,3.3E0,4.1E0,3E0,3E0,3.2222223E0,5E0,2.0121592E-3,-1.4229378E-2,3.153261E-2,1.3581442E-2,-5.2812908E-2,-2.0133883E-2,1.1501717E-2,-4.229317E-3],"split_indices":[10,11,11,10,10,11,10,0,0,0,0,0,0,0,0],"split_type":[0,0,0,0,0,0,0,0,0,0,0,0,0,0,0],"sum_hessian":[2.5856592E3,1.8840146E3,7.016446E2,1.656151E3,2.2786359E2,1.2083037E2,5.808142E2,1.4862163E3,1.6993471E2,4.091997E1,1.8694362E2,1.862576E1,1.0220461E2,1.4214903E2,4.386652E2],"tree_param":{"num_deleted":"0","num_feature":"17","num_nodes":"15","size_leaf_vector":"1"}},{"base_weights":[-6.631929E-3,-9.220554E-2,5.1671818E-2,-6.2589444E-2,-3.1040955E-1,2.6921047E-2,2.0723914E-1,1.2138245E-2,-3.0792947E-3,-3.2637898E-2,-7.85456E-3,4.4198926E-3,-1.4424028E-3,1.8561376E-2,2.1069176E-3],"categories":[],"categories_nodes":[],"categories_segments":[],"categories_sizes":[],"default_left":[0,0,0,0,0,0,0,0,0,0,0,0,0,0,0],"id":46,"left_children":[1,3,5,7,9,11,13,-1,-1,-1,-1,-1,-1,-1,-1],"loss_changes":[1.2841253E1,6.545347E0,5.7496614E0,4.8479095E0,6.3868437E0,7.018992E0,7.9373713E0,0E0,0E0,0E0,0E0,0E0,0E0,0E0,0E0],"parents":[2147483647,0,0,1,1,2,2,3,3,4,4,5,5,6,6],"right_children":[2,4,6,8,10,12,14,-1,-1,-1,-1,-1,-1,-1,-1],"split_conditions":[2.4558332E1,2.4053333E1,2.4569664E1,2.8277674E-1,3.8614717E-1,4.5E-1,3.456167E1,1.2138245E-2,-3.0792947E-3,-3.2637898E-2,-7.85456E-3,4.4198926E-3,-1.4424028E-3,1.8561376E-2,2.1069176E-3],"split_indices":[14,13,5,16,16,15,14,0,0,0,0,0,0,0,0],"split_type":[0,0,0,0,0,0,0,0,0,0,0,0,0,0,0],"sum_hessian":[2.567624E3,1.0436798E3,1.5239441E3,9.221858E2,1.21494E2,1.3186162E3,2.053279E2,3.3119682E1,8.890661E2,2.0190666E1,1.0130334E2,5.691165E2,7.494997E2,7.488585E1,1.3044205E2],"tree_param":{"num_deleted":"0","num_feature":"17","num_nodes":"15","size_leaf_vector":"1"}},{"base_weights":[-6.361033E-3,2.0063882E-1,-3.6630567E-2,1.581966E-1,6.832167E-1,-2.1279632E-1,2.4987608E-2,1.0215947E-2,-4.172517E-3,3.658714E-2,3.5905847E-4,-5.3426987E-3,-3.474093E-2,1.8937394E-2,-1.4027222E-3],"categories":[],"categories_nodes":[],"categories_segments":[],"categories_sizes":[],"default_left":[0,0,0,0,0,0,0,0,0,0,0,0,0,0,0],"id":47,"left_children":[1,3,5,7,9,11,13,-1,-1,-1,-1,-1,-1,-1,-1],"loss_changes":[1.618561E1,6.2058573E0,2.4705866E1,7.938924E0,3.5215273E0,2.9980928E1,4.561139E1,0E0,0E0,0E0,0E0,0E0,0E0,0E0,0E0],"parents":[2147483647,0,0,1,1,2,2,3,3,4,4,5,5,6,6],"right_children":[2,4,6,8,10,12,14,-1,-1,-1,-1,-1,-1,-1,-1],"split_conditions":[1E0,2.8613333E1,1.7E0,4.875E0,8.9262426E-1,2E0,2E0,1.0215947E-2,-4.172517E-3,3.658714E-2,3.5905847E-4,-5.3426987E-3,-3.474093E-2,1.8937394E-2,-1.4027222E-3],"split_indices":[10,13,11,8,12,10,10,0,0,0,0,0,0,0,0],"split_type":[0,0,0,0,0,0,0,0,0,0,0,0,0,0,0],"sum_hessian":[2.593813E3,3.2803305E2,2.26578E3,3.0378442E2,2.4248629E1,5.885421E2,1.6772379E3,2.2277841E2,8.100603E1,1.717183E1,7.076799E0,5.273369E2,6.120516E1,1.9798532E2,1.4792526E3],"tree_param":{"num_deleted":"0","num_feature":"17","num_nodes":"15","size_leaf_vector":"1"}},{"base_weights":[1.5467109E-2,-1.8344462E-2,1.2092999E-1,1.6755756E-2,-2.096892E-1,2.934008E-1,1.9262422E-2,1.0380053E-3,-2.0485299E-2,-1.2926319E-2,5.638945E-3,3.4208164E-2,8.893156E-3,-1.2239536E-3,1.1986435E-2],"categories":[],"categories_nodes":[],"categories_segments":[],"categories_sizes":[],"default_left":[0,0,0,0,0,0,0,0,0,0,0,0,0,0,0],"id":48,"left_children":[1,3,5,7,9,11,13,-1,-1,-1,-1,-1,-1,-1,-1],"loss_changes":[9.268158E0,1.3224432E1,1.0904163E1,7.8683834E0,1.2376463E1,8.490601E0,5.758515E0,0E0,0E0,0E0,0E0,0E0,0E0,0E0,0E0],"parents":[2147483647,0,0,1,1,2,2,3,3,4,4,5,5,6,6],"right_children":[2,4,6,8,10,12,14,-1,-1,-1,-1,-1,-1,-1,-1],"split_conditions":[1.7426495E1,4E0,4E0,1.76E1,1.197E2,4.8819394E0,9.2E0,1.0380053E-3,-2.0485299E-2,-1.2926319E-2,5.638945E-3,3.4208164E-2,8.893156E-3,-1.2239536E-3,1.1986435E-2],"split_indices":[5,10,10,3,2,6,7,0,0,0,0,0,0,0,0],"split_type":[0,0,0,0,0,0,0,0,0,0,0,0,0,0,0],"sum_hessian":[2.5830884E3,1.9531066E3,6.2998175E2,1.6490074E3,3.0409906E2,2.3106662E2,3.989151E2,1.6226438E3,2.636367E1,2.3056165E2,7.3537415E1,2.3569283E1,2.0749733E2,3.3806363E2,6.0851475E1],"tree_param":{"num_deleted":"0","num_feature":"17","num_nodes":"15","size_leaf_vector":"1"}},{"base_weights":[-2.661325E-2,-7.464422E-2,1.1281786E-1,1.4818732E-1,-1.20130144E-1,5.755529E-1,8.7185785E-2,-4.2112057E-5,1.2433834E-2,-1.1365338E-2,-3.643312E-3,2.8929003E-2,-2.035424E-2,-1.0494967E-2,5.2329726E-3],"categories":[],"categories_nodes":[],"categories_segments":[],"categories_sizes":[],"default_left":[0,0,0,0,0,0,0,0,0,0,0,0,0,0,0],"id":49,"left_children":[1,3,5,7,9,11,13,-1,-1,-1,-1,-1,-1,-1,-1],"loss_changes":[1.7294611E1,1.9518267E1,7.442562E0,8.079519E0,7.387743E0,5.927332E0,9.628494E0,0E0,0E0,0E0,0E0,0E0,0E0,0E0,0E0],"parents":[2147483647,0,0,1,1,2,2,3,3,4,4,5,5,6,6],"right_children":[2,4,6,8,10,12,14,-1,-1,-1,-1,-1,-1,-1,-1],"split_conditions":[1.67E1,1E0,1.56E1,4.3358965E0,1.2142396E0,3.4933334E1,1.756554E1,-4.2112057E-5,1.2433834E-2,-1.1365338E-2,-3.643312E-3,2.8929003E-2,-2.035424E-2,-1.0494967E-2,5.2329726E-3],"split_indices":[4,10,3,6,12,13,5,0,0,0,0,0,0,0,0],"split_type":[0,0,0,0,0,0,0,0,0,0,0,0,0,0,0],"sum_hessian":[2.5828193E3,1.9240808E3,6.5873865E2,3.239098E2,1.600171E3,3.2336185E1,6.2640247E2,1.682592E2,1.5565059E2,2.3442699E2,1.365744E3,2.914376E1,3.192426E0,6.79844E1,5.58418E2],"tree_param":{"num_deleted":"0","num_feature":"17","num_nodes":"15","size_leaf_vector":"1"}},{"base_weights":[-7.0638326E-3,2.2705132E-1,-3.2146934E-2,6.217771E-2,4.4648427E-1,-1.372689E-1,3.6364626E-2,2.4492176E-2,-6.472913E-4,-3.8499879E-3,2.207716E-2,-6.62565E-4,-2.3037089E-2,1.1650156E-2,-2.0308923E-3],"categories":[],"categories_nodes":[],"categories_segments":[],"categories_sizes":[],"default_left":[0,0,0,0,0,0,0,0,0,0,0,0,0,0,0],"id":50,"left_children":[1,3,5,7,9,11,13,-1,-1,-1,-1,-1,-1,-1,-1],"loss_changes":[1.4997049E1,8.647079E0,1.678767E1,6.512074E0,6.3369694E0,4.853038E1,3.1458128E1,0E0,0E0,0E0,0E0,0E0,0E0,0E0,0E0],"parents":[2147483647,0,0,1,1,2,2,3,3,4,4,5,5,6,6],"right_children":[2,4,6,8,10,12,14,-1,-1,-1,-1,-1,-1,-1,-1],"split_conditions":[8E-1,4.498148E0,2.1111112E0,2E-1,4.4444445E-1,2E0,3E0,2.4492176E-2,-6.472913E-4,-3.8499879E-3,2.207716E-2,-6.62565E-4,-2.3037089E-2,1.1650156E-2,-2.0308923E-3],"split_indices":[10,6,11,10,11,10,10,0,0,0,0,0,0,0,0],"split_type":[0,0,0,0,0,0,0,0,0,0,0,0,0,0,0],"sum_hessian":[2.567897E3,2.4573947E2,2.3221575E3,1.4240009E2,1.03339386E2,9.186972E2,1.4034603E3,1.758805E1,1.24812035E2,1.6231363E1,8.710802E1,7.227509E2,1.9594632E2,3.5800513E2,1.0454552E3],"tree_param":{"num_deleted":"0","num_feature":"17","num_nodes":"15","size_leaf_vector":"1"}},{"base_weights":[-1.4537123E-2,-3.6898103E-2,1.953877E-1,8.229952E-3,-1.9825478E-1,3.4175053E-1,-2.3761474E-1,-1.2484961E-3,7.323903E-3,-1.0833023E-2,4.9830424E-3,1.6339341E-2,-8.763095E-3,3.0565098E-2,-1.3538118E-2],"categories":[],"categories_nodes":[],"categories_segments":[],"categories_sizes":[],"default_left":[0,0,0,0,0,0,0,0,0,0,0,0,0,0,0],"id":51,"left_children":[1,3,5,7,9,11,13,-1,-1,-1,-1,-1,-1,-1,-1],"loss_changes":[1.19914465E1,1.702863E1,1.5692306E1,1.2659866E1,1.2189621E1,7.21089E0,6.3710184E0,0E0,0E0,0E0,0E0,0E0,0E0,0E0,0E0],"parents":[2147483647,0,0,1,1,2,2,3,3,4,4,5,5,6,6],"right_children":[2,4,6,8,10,12,14,-1,-1,-1,-1,-1,-1,-1,-1],"split_conditions":[2.3555452E1,4E0,7.2E0,2.8510988E0,3.4715E1,3.2E1,3.1111112E0,-1.2484961E-3,7.323903E-3,-1.0833023E-2,4.9830424E-3,1.6339341E-2,-8.763095E-3,3.0565098E-2,-1.3538118E-2],"split_indices":[5,10,10,12,14,3,8,0,0,0,0,0,0,0,0],"split_type":[0,0,0,0,0,0,0,0,0,0,0,0,0,0,0],"sum_hessian":[2.5685803E3,2.3242617E3,2.4431874E2,1.8146844E3,5.095772E2,1.8362532E2,6.069342E1,1.479283E3,3.354015E2,4.1684427E2,9.273293E1,1.649152E2,1.871012E1,4.4804525E0,5.621297E1],"tree_param":{"num_deleted":"0","num_feature":"17","num_nodes":"15","size_leaf_vector":"1"}},{"base_weights":[8.169045E-4,-2.748997E-2,2.354159E-1,2.2947298E-2,-2.206472E-1,4.4924977E-1,-4.184952E-2,-1.7547496E-3,1.7352425E-2,-2.7029764E-2,-3.5147127E-3,2.9792935E-2,8.228039E-3,-9.1005815E-3,2.4552885E-2],"categories":[],"categories_nodes":[],"categories_segments":[],"categories_sizes":[],"default_left":[0,0,0,0,0,0,0,0,0,0,0,0,0,0,0],"id":52,"left_children":[1,3,5,7,9,11,13,-1,-1,-1,-1,-1,-1,-1,-1],"loss_changes":[1.7289097E1,2.2583399E1,1.6854904E1,5.0617188E1,2.8610733E1,1.0885944E1,1.490309E1,0E0,0E0,0E0,0E0,0E0,0E0,0E0,0E0],"parents":[2147483647,0,0,1,1,2,2,3,3,4,4,5,5,6,6],"right_children":[2,4,6,8,10,12,14,-1,-1,-1,-1,-1,-1,-1,-1],"split_conditions":[3.4715E1,4E0,6E0,3.1E0,4.1E0,4.6827033E-1,9E0,-1.7547496E-3,1.7352425E-2,-2.7029764E-2,-3.5147127E-3,2.9792935E-2,8.228039E-3,-9.1005815E-3,2.4552885E-2],"split_indices":[14,10,10,11,11,16,11,0,0,0,0,0,0,0,0],"split_type":[0,0,0,0,0,0,0,0,0,0,0,0,0,0,0],"sum_hessian":[2.585791E3,2.3063464E3,2.794446E2,1.8275269E3,4.788195E2,1.5840051E2,1.2104408E2,1.5719019E3,2.5562508E2,1.058796E2,3.7293988E2,6.931775E1,8.908276E1,9.545863E1,2.5585447E1],"tree_param":{"num_deleted":"0","num_feature":"17","num_nodes":"15","size_leaf_vector":"1"}},{"base_weights":[-7.5289006E-3,8.6484805E-2,-7.338617E-2,-7.885326E-2,2.1482484E-1,-4.564923E-1,-3.5926484E-2,-5.4793893E-3,6.1639673E-3,7.490424E-3,2.9603003E-2,-1.9816516E-2,1.1764804E-2,-7.026916E-3,5.974883E-4],"categories":[],"categories_nodes":[],"categories_segments":[],"categories_sizes":[],"default_left":[0,0,0,0,0,0,0,0,0,0,0,0,0,0,0],"id":53,"left_children":[1,3,5,7,9,11,13,-1,-1,-1,-1,-1,-1,-1,-1],"loss_changes":[1.6113506E1,2.2779106E1,2.1753592E1,6.376255E0,8.021795E0,4.3360767E0,1.0069162E1,0E0,0E0,0E0,0E0,0E0,0E0,0E0,0E0],"parents":[2147483647,0,0,1,1,2,2,3,3,4,4,5,5,6,6],"right_children":[2,4,6,8,10,12,14,-1,-1,-1,-1,-1,-1,-1,-1],"split_conditions":[2E0,2.065E1,2.0617285E0,1.21E2,2.0798721E0,3.41E1,1.0399253E1,-5.4793893E-3,6.1639673E-3,7.490424E-3,2.9603003E-2,-1.9816516E-2,1.1764804E-2,-7.026916E-3,5.974883E-4],"split_indices":[10,14,12,2,12,13,5,0,0,0,0,0,0,0,0],"split_type":[0,0,0,0,0,0,0,0,0,0,0,0,0,0,0],"sum_hessian":[2.6013806E3,1.0683671E3,1.5330134E3,4.6537814E2,6.0298895E2,1.3428395E2,1.3987295E3,3.742011E2,9.117703E1,5.7576886E2,2.722008E1,1.284582E2,5.8257384E0,3.745148E2,1.0242147E3],"tree_param":{"num_deleted":"0","num_feature":"17","num_nodes":"15","size_leaf_vector":"1"}},{"base_weights":[5.3857034E-3,2.0507434E-1,-2.3348235E-2,4.9507067E-1,1.2071246E-1,-1.393621E-1,4.727101E-2,-6.457031E-3,2.4720002E-2,2.155521E-3,2.3366014E-2,-1.8037851E-3,-1.750822E-2,1.27269E-2,-1.7239572E-3],"categories":[],"categories_nodes":[],"categories_segments":[],"categories_sizes":[],"default_left":[0,0,0,0,0,0,0,0,0,0,0,0,0,0,0],"id":54,"left_children":[1,3,5,7,9,11,13,-1,-1,-1,-1,-1,-1,-1,-1],"loss_changes":[1.4878806E1,7.6143427E0,1.8496271E1,6.208624E0,7.572089E0,2.383303E1,3.449805E1,0E0,0E0,0E0,0E0,0E0,0E0,0E0,0E0],"parents":[2147483647,0,0,1,1,2,2,3,3,4,4,5,5,6,6],"right_children":[2,4,6,8,10,12,14,-1,-1,-1,-1,-1,-1,-1,-1],"split_conditions":[1E0,2.25E0,2.125E0,3.25E-1,1.2222222E0,2E0,3E0,-6.457031E-3,2.4720002E-2,2.155521E-3,2.3366014E-2,-1.8037851E-3,-1.750822E-2,1.27269E-2,-1.7239572E-3],"split_indices":[10,7,11,16,11,10,10,0,0,0,0,0,0,0,0],"split_type":[0,0,0,0,0,0,0,0,0,0,0,0,0,0,0],"sum_hessian":[2.575386E3,3.2530197E2,2.250084E3,7.079086E1,2.5451111E2,8.5366016E2,1.3964238E3,1.058321E1,6.020765E1,2.2456631E2,2.9944801E1,6.516169E2,2.0204327E2,3.4956464E2,1.0468591E3],"tree_param":{"num_deleted":"0","num_feature":"17","num_nodes":"15","size_leaf_vector":"1"}},{"base_weights":[-7.4859643E-3,-4.1352786E-2,1.5448278E-1,6.627554E-2,-1.4045885E-1,5.689689E-1,1.0533099E-1,-1.5281815E-4,1.3453114E-2,-2.2984032E-2,-3.338754E-3,4.94646E-2,1.3417846E-2,-1.1049662E-3,9.302761E-3],"categories":[],"categories_nodes":[],"categories_segments":[],"categories_sizes":[],"default_left":[0,0,0,0,0,0,0,0,0,0,0,0,0,0,0],"id":55,"left_children":[1,3,5,7,9,11,13,-1,-1,-1,-1,-1,-1,-1,-1],"loss_changes":[1.4077787E1,2.2803288E1,8.626744E0,1.955458E1,2.7158987E1,5.8903885E0,6.8828006E0,0E0,0E0,0E0,0E0,0E0,0E0,0E0,0E0],"parents":[2147483647,0,0,1,1,2,2,3,3,4,4,5,5,6,6],"right_children":[2,4,6,8,10,12,14,-1,-1,-1,-1,-1,-1,-1,-1],"split_conditions":[2.0197813E1,2E0,3.3333333E0,1.6666666E0,2E0,4.141827E-1,1E0,-1.5281815E-4,1.3453114E-2,-2.2984032E-2,-3.338754E-3,4.94646E-2,1.3417846E-2,-1.1049662E-3,9.302761E-3],"split_indices":[5,10,8,11,11,16,0,0,0,0,0,0,0,0,0],"split_type":[0,0,0,0,0,0,0,0,0,0,0,0,0,0,0],"sum_hessian":[2.5743198E3,2.1323333E3,4.4198648E2,1.019986E3,1.1123472E3,4.456961E1,3.9741687E2,8.096529E2,2.1033313E2,1.26174095E2,9.861731E2,9.724872E0,3.4844738E1,1.9323297E2,2.0418391E2],"tree_param":{"num_deleted":"0","num_feature":"17","num_nodes":"15","size_leaf_vector":"1"}},{"base_weights":[4.7337613E-3,2.202744E-2,-2.5841284E-1,-1.4155808E-2,2.1062203E-1,-5.263089E-1,6.451757E-2,1.065487E-3,-1.6546497E-2,2.1936761E-2,2.8734375E-3,-2.7315328E-2,-2.854338E-3,1.3508427E-2,-2.2405513E-2],"categories":[],"categories_nodes":[],"categories_segments":[],"categories_sizes":[],"default_left":[0,0,0,0,0,0,0,0,0,0,0,0,0,0,0],"id":56,"left_children":[1,3,5,7,9,11,13,-1,-1,-1,-1,-1,-1,-1,-1],"loss_changes":[1.1617794E1,1.6622963E1,1.3870173E1,3.34237E1,1.8074955E1,5.8236084E0,1.2345909E1,0E0,0E0,0E0,0E0,0E0,0E0,0E0,0E0],"parents":[2147483647,0,0,1,1,2,2,3,3,4,4,5,5,6,6],"right_children":[2,4,6,8,10,12,14,-1,-1,-1,-1,-1,-1,-1,-1],"split_conditions":[7E0,4.5E0,8E0,4E0,5E0,2.6131687E1,3.677667E1,1.065487E-3,-1.6546497E-2,2.1936761E-2,2.8734375E-3,-2.7315328E-2,-2.854338E-3,1.3508427E-2,-2.2405513E-2],"split_indices":[10,11,11,10,10,5,13,0,0,0,0,0,0,0,0],"split_type":[0,0,0,0,0,0,0,0,0,0,0,0,0,0,0],"sum_hessian":[2.57628E3,2.4201138E3,1.561663E2,2.0291724E3,3.9094147E2,8.5823616E1,7.03427E1,1.8411199E3,1.880525E2,1.1146729E2,2.7947418E2,6.245919E1,2.3364426E1,4.9825413E1,2.0517284E1],"tree_param":{"num_deleted":"0","num_feature":"17","num_nodes":"15","size_leaf_vector":"1"}},{"base_weights":[3.0758759E-2,1.1367999E-1,-2.5276873E-2,3.6619715E-2,4.081646E-1,-3.1542522E-1,5.1891442E-2,8.131773E-3,-2.6109258E-3,6.153726E-3,2.0477476E-2,-2.5856616E-2,-8.545962E-3,1.4692516E-2,-2.4633366E-4],"categories":[],"categories_nodes":[],"categories_segments":[],"categories_sizes":[],"default_left":[0,0,0,0,0,0,0,0,0,0,0,0,0,0,0],"id":57,"left_children":[1,3,5,7,9,11,13,-1,-1,-1,-1,-1,-1,-1,-1],"loss_changes":[1.1984473E1,2.335886E1,3.4414745E1,1.4183865E1,5.2938194E0,1.0299072E1,2.2375702E1,0E0,0E0,0E0,0E0,0E0,0E0,0E0,0E0],"parents":[2147483647,0,0,1,1,2,2,3,3,4,4,5,5,6,6],"right_children":[2,4,6,8,10,12,14,-1,-1,-1,-1,-1,-1,-1,-1],"split_conditions":[2E0,1.6666666E0,2.4444444E0,1E0,1.122E2,1.75E0,3E0,8.131773E-3,-2.6109258E-3,6.153726E-3,2.0477476E-2,-2.5856616E-2,-8.545962E-3,1.4692516E-2,-2.4633366E-4],"split_indices":[10,11,11,10,2,11,10,0,0,0,0,0,0,0,0],"split_type":[0,0,0,0,0,0,0,0,0,0,0,0,0,0,0],"sum_hessian":[2.5680208E3,1.0387015E3,1.5293191E3,8.255725E2,2.1312904E2,3.2193793E2,1.2073811E3,3.143872E2,5.111853E2,6.450068E1,1.4862837E2,7.26488E1,2.4928912E2,1.8770052E2,1.0196806E3],"tree_param":{"num_deleted":"0","num_feature":"17","num_nodes":"15","size_leaf_vector":"1"}},{"base_weights":[6.2848013E-3,-1.4757616E-2,1.7595556E-1,3.3903524E-2,-1.9971618E-1,1.0511087E0,1.3178028E-1,-5.1283045E-4,1.8200917E-2,-2.8388062E-2,-2.0471306E-3,6.745349E-2,1.6105162E-2,1.1964971E-2,-2.4660283E-3],"categories":[],"categories_nodes":[],"categories_segments":[],"categories_sizes":[],"default_left":[0,0,0,0,0,0,0,0,0,0,0,0,0,0,0],"id":58,"left_children":[1,3,5,7,9,11,13,-1,-1,-1,-1,-1,-1,-1,-1],"loss_changes":[9.168775E0,2.045266E1,1.0221679E1,3.5560436E1,3.554181E1,3.5705996E0,8.974691E0,0E0,0E0,0E0,0E0,0E0,0E0,0E0,0E0],"parents":[2147483647,0,0,1,1,2,2,3,3,4,4,5,5,6,6],"right_children":[2,4,6,8,10,12,14,-1,-1,-1,-1,-1,-1,-1,-1],"split_conditions":[3.4715E1,4E0,3.3243332E1,3.3333333E0,4.1E0,6.9928536E0,5.8E0,-5.1283045E-4,1.8200917E-2,-2.8388062E-2,-2.0471306E-3,6.745349E-2,1.6105162E-2,1.1964971E-2,-2.4660283E-3],"split_indices":[14,10,13,11,11,6,10,0,0,0,0,0,0,0,0],"split_type":[0,0,0,0,0,0,0,0,0,0,0,0,0,0,0],"sum_hessian":[2.5437876E3,2.261395E3,2.823927E2,1.78894E3,4.7245505E2,1.1841545E1,2.7055115E2,1.6104683E3,1.7847162E2,1.0455381E2,3.6790125E2,4.6943474E0,7.147198E0,1.4587918E2,1.2467197E2],"tree_param":{"num_deleted":"0","num_feature":"17","num_nodes":"15","size_leaf_vector":"1"}},{"base_weights":[5.6088674E-3,-1.7679334E-1,3.153978E-2,-3.2485384E-2,-3.8582766E-1,4.9421627E-2,-2.1387167E-1,7.494876E-3,-9.886412E-3,2.8729584E-2,-1.765682E-2,1.4134165E-3,3.6472514E-2,-1.5103872E-2,8.90745E-3],"categories":[],"categories_nodes":[],"categories_segments":[],"categories_sizes":[],"default_left":[0,0,0,0,0,0,0,0,0,0,0,0,0,0,0],"id":59,"left_children":[1,3,5,7,9,11,13,-1,-1,-1,-1,-1,-1,-1,-1],"loss_changes":[1.2204264E1,9.452131E0,9.911838E0,9.199358E0,8.315073E0,2.519371E1,1.1162904E1,0E0,0E0,0E0,0E0,0E0,0E0,0E0,0E0],"parents":[2147483647,0,0,1,1,2,2,3,3,4,4,5,5,6,6],"right_children":[2,4,6,8,10,12,14,-1,-1,-1,-1,-1,-1,-1,-1],"split_conditions":[5.9E0,3.4E0,7E0,4.8E0,2.5E-1,6.8E0,9E0,7.494876E-3,-9.886412E-3,2.8729584E-2,-1.765682E-2,1.4134165E-3,3.6472514E-2,-1.5103872E-2,8.90745E-3],"split_indices":[4,8,10,4,10,11,11,0,0,0,0,0,0,0,0],"split_type":[0,0,0,0,0,0,0,0,0,0,0,0,0,0,0],"sum_hessian":[2.593148E3,3.195965E2,2.2735515E3,1.9121716E2,1.2837932E2,2.121834E3,1.5171753E2,9.343022E1,9.778695E1,5.208826E0,1.2317049E2,2.0896907E3,3.2143368E1,1.1114083E2,4.057669E1],"tree_param":{"num_deleted":"0","num_feature":"17","num_nodes":"15","size_leaf_vector":"1"}},{"base_weights":[5.851315E-4,-1.2872037E-1,2.2334503E-2,1.2558638E-1,-2.0975104E-1,-0E0,1.996215E-1,-2.2382451E-2,9.104629E-3,-2.751159E-2,-6.8491283E-3,3.750258E-3,-1.8494598E-3,3.9030347E-2,4.5980434E-3],"categories":[],"categories_nodes":[],"categories_segments":[],"categories_sizes":[],"default_left":[0,0,0,0,0,0,0,0,0,0,0,0,0,0,0],"id":60,"left_children":[1,3,5,7,9,11,13,-1,-1,-1,-1,-1,-1,-1,-1],"loss_changes":[7.2523165E0,7.7096157E0,8.736705E0,6.2242103E0,4.6190233E0,8.651104E0,1.5570754E1,0E0,0E0,0E0,0E0,0E0,0E0,0E0,0E0],"parents":[2147483647,0,0,1,1,2,2,3,3,4,4,5,5,6,6],"right_children":[2,4,6,8,10,12,14,-1,-1,-1,-1,-1,-1,-1,-1],"split_conditions":[1.087E2,4.10464E-1,3.4787037E1,2.8751812E0,3.75E-1,3.2E0,3.4253334E1,-2.2382451E-2,9.104629E-3,-2.751159E-2,-6.8491283E-3,3.750258E-3,-1.8494598E-3,3.9030347E-2,4.5980434E-3],"split_indices":[2,16,14,6,15,7,13,0,0,0,0,0,0,0,0],"split_type":[0,0,0,0,0,0,0,0,0,0,0,0,0,0,0],"sum_hessian":[2.5953638E3,3.6963367E2,2.22573E3,8.7693115E1,2.8194055E2,1.9796924E3,2.4603769E2,1.0139956E1,7.755316E1,1.8433523E1,2.6350702E2,6.563578E2,1.3233346E3,2.2367802E1,2.2366989E2],"tree_param":{"num_deleted":"0","num_feature":"17","num_nodes":"15","size_leaf_vector":"1"}},{"base_weights":[-9.854619E-3,1.297469E-2,-1.9923577E-1,-2.8920522E-2,2.5511682E-1,-4.7967762E-1,2.3980647E-2,1.0947202E-4,-1.903581E-2,1.8498516E-2,8.903877E-4,4.8128525E-3,-2.1693192E-2,1.2965177E-2,-8.167202E-3],"categories":[],"categories_nodes":[],"categories_segments":[],"categories_sizes":[],"default_left":[0,0,0,0,0,0,0,0,0,0,0,0,0,0,0],"id":61,"left_children":[1,3,5,7,9,11,13,-1,-1,-1,-1,-1,-1,-1,-1],"loss_changes":[1.120796E1,2.3376759E1,1.7698853E1,2.7955164E1,1.6245964E1,5.0648384E0,1.0820206E1,0E0,0E0,0E0,0E0,0E0,0E0,0E0,0E0],"parents":[2147483647,0,0,1,1,2,2,3,3,4,4,5,5,6,6],"right_children":[2,4,6,8,10,12,14,-1,-1,-1,-1,-1,-1,-1,-1],"split_conditions":[6E0,4.2E0,6.6E0,4E0,5E0,2.363777E0,7.8E0,1.0947202E-4,-1.903581E-2,1.8498516E-2,8.903877E-4,4.8128525E-3,-2.1693192E-2,1.2965177E-2,-8.167202E-3],"split_indices":[10,11,11,10,10,9,10,0,0,0,0,0,0,0,0],"split_type":[0,0,0,0,0,0,0,0,0,0,0,0,0,0,0],"sum_hessian":[2.5692449E3,2.2914106E3,2.7783432E2,1.9524957E3,3.3891483E2,1.2356717E2,1.5426714E2,1.8236044E3,1.2889139E2,1.7712352E2,1.617913E2,1.1053263E1,1.1251391E2,6.7347374E1,8.691976E1],"tree_param":{"num_deleted":"0","num_feature":"17","num_nodes":"15","size_leaf_vector":"1"}},{"base_weights":[-2.1420654E-2,4.9529377E-2,-7.135992E-2,-3.0394973E-2,3.7771788E-1,-4.0027216E-1,-5.5356817E-3,-6.547527E-3,3.6050612E-3,-5.34681E-3,1.9350387E-2,-2.2449683E-2,-1.0477931E-2,1.0097225E-2,-2.6253127E-3],"categories":[],"categories_nodes":[],"categories_segments":[],"categories_sizes":[],"default_left":[0,0,0,0,0,0,0,0,0,0,0,0,0,0,0],"id":62,"left_children":[1,3,5,7,9,11,13,-1,-1,-1,-1,-1,-1,-1,-1],"loss_changes":[9.097586E0,2.7871082E1,3.2467888E1,1.3748488E1,1.1652927E1,5.0255623E0,1.9550892E1,0E0,0E0,0E0,0E0,0E0,0E0,0E0,0E0],"parents":[2147483647,0,0,1,1,2,2,3,3,4,4,5,5,6,6],"right_children":[2,4,6,8,10,12,14,-1,-1,-1,-1,-1,-1,-1,-1],"split_conditions":[2E0,1.7E0,2.3E0,2.0733334E1,1.3025553E0,1.8888888E0,3E0,-6.547527E-3,3.6050612E-3,-5.34681E-3,1.9350387E-2,-2.2449683E-2,-1.0477931E-2,1.0097225E-2,-2.6253127E-3],"split_indices":[10,11,11,14,12,11,10,0,0,0,0,0,0,0,0],"split_type":[0,0,0,0,0,0,0,0,0,0,0,0,0,0,0],"sum_hessian":[2.5623984E3,1.0544207E3,1.5079779E3,8.474987E2,2.0692197E2,2.492859E2,1.2586919E3,4.0395505E2,4.4354367E2,3.498667E1,1.719353E2,1.1123676E2,1.3804915E2,2.3566435E2,1.0230276E3],"tree_param":{"num_deleted":"0","num_feature":"17","num_nodes":"15","size_leaf_vector":"1"}},{"base_weights":[8.625941E-3,-2.5726855E-2,1.5616943E-1,-1.3473187E-2,-4.8572102E-1,8.993239E-1,1.261019E-1,-1.1172807E-3,1.2681062E-2,-2.5445668E-2,1.1560519E-2,-2.5040845E-3,4.187448E-2,7.6158578E-3,-4.9374867E-3],"categories":[],"categories_nodes":[],"categories_segments":[],"categories_sizes":[],"default_left":[0,0,0,0,0,0,0,0,0,0,0,0,0,0,0],"id":63,"left_children":[1,3,5,7,9,11,13,-1,-1,-1,-1,-1,-1,-1,-1],"loss_changes":[1.3003686E1,1.1402551E1,1.0201481E1,9.568533E0,6.567294E0,3.1639757E0,7.626978E0,0E0,0E0,0E0,0E0,0E0,0E0,0E0,0E0],"parents":[2147483647,0,0,1,1,2,2,3,3,4,4,5,5,6,6],"right_children":[2,4,6,8,10,12,14,-1,-1,-1,-1,-1,-1,-1,-1],"split_conditions":[3.322167E1,7E0,3.8111112E-1,8.932463E0,9.173148E0,1.07E2,7E0,-1.1172807E-3,1.2681062E-2,-2.5445668E-2,1.1560519E-2,-2.5040845E-3,4.187448E-2,7.6158578E-3,-4.9374867E-3],"split_indices":[14,10,16,6,12,2,10,0,0,0,0,0,0,0,0],"split_type":[0,0,0,0,0,0,0,0,0,0,0,0,0,0,0],"sum_hessian":[2.5508494E3,2.0670942E3,4.837552E2,2.0155968E3,5.1497288E1,1.6950003E1,4.6680518E2,1.9333158E3,8.22811E1,4.375735E1,7.739938E0,1.9249225E0,1.502508E1,3.7251233E2,9.4292854E1],"tree_param":{"num_deleted":"0","num_feature":"17","num_nodes":"15","size_leaf_vector":"1"}},{"base_weights":[4.4123963E-3,1.7385583E-1,-2.093523E-2,5.475957E-2,3.8040477E-1,-3.197182E-1,1.0238398E-3,5.859688E-3,-8.612842E-3,4.1403998E-2,1.1438984E-2,-3.242143E-2,-9.866335E-3,4.974557E-3,-1.8147461E-3],"categories":[],"categories_nodes":[],"categories_segments":[],"categories_sizes":[],"default_left":[0,0,0,0,0,0,0,0,0,0,0,0,0,0,0],"id":64,"left_children":[1,3,5,7,9,11,13,-1,-1,-1,-1,-1,-1,-1,-1],"loss_changes":[1.1081623E1,8.026426E0,1.4767476E1,5.3793664E0,6.48543E0,4.755415E0,1.1967E1,0E0,0E0,0E0,0E0,0E0,0E0,0E0,0E0],"parents":[2147483647,0,0,1,1,2,2,3,3,4,4,5,5,6,6],"right_children":[2,4,6,8,10,12,14,-1,-1,-1,-1,-1,-1,-1,-1],"split_conditions":[1E0,8.641309E0,1.0684263E0,7.0375276E0,2.3333333E0,2.790858E0,2E0,5.859688E-3,-8.612842E-3,4.1403998E-2,1.1438984E-2,-3.242143E-2,-9.866335E-3,4.974557E-3,-1.8147461E-3],"split_indices":[10,5,12,5,8,6,10,0,0,0,0,0,0,0,0],"split_type":[0,0,0,0,0,0,0,0,0,0,0,0,0,0,0],"sum_hessian":[2.5604453E3,3.3490616E2,2.2255393E3,2.14818E2,1.2008819E2,1.5290927E2,2.07263E3,1.6201668E2,5.2801304E1,1.296986E1,1.07118324E2,1.7309786E1,1.3559949E2,5.688967E2,1.5037332E3],"tree_param":{"num_deleted":"0","num_feature":"17","num_nodes":"15","size_leaf_vector":"1"}},{"base_weights":[-1.8010018E-2,-1.113112E-2,-4.3942186E-1,2.2882372E-2,-1.007027E-1,-6.704607E-1,-8.732964E-3,-1.5276655E-3,1.4077271E-2,-2.3841918E-2,-6.6516286E-4,-1.2156267E-2,-5.1717483E-2,1.8708188E-2,-1.5628401E-2],"categories":[],"categories_nodes":[],"categories_segments":[],"categories_sizes":[],"default_left":[0,0,0,0,0,0,0,0,0,0,0,0,0,0,0],"id":65,"left_children":[1,3,5,7,9,11,13,-1,-1,-1,-1,-1,-1,-1,-1],"loss_changes":[7.257392E0,7.789799E0,3.6656284E0,3.730048E1,2.9080725E1,4.603175E0,3.0711362E0,0E0,0E0,0E0,0E0,0E0,0E0,0E0,0E0],"parents":[2147483647,0,0,1,1,2,2,3,3,4,4,5,5,6,6],"right_children":[2,4,6,8,10,12,14,-1,-1,-1,-1,-1,-1,-1,-1],"split_conditions":[7.176871E-1,4E0,2.4168518E1,3.1E0,4E0,1.193E2,2.7103333E1,-1.5276655E-3,1.4077271E-2,-2.3841918E-2,-6.6516286E-4,-1.2156267E-2,-5.1717483E-2,1.8708188E-2,-1.5628401E-2],"split_indices":[16,10,14,11,11,2,14,0,0,0,0,0,0,0,0],"split_type":[0,0,0,0,0,0,0,0,0,0,0,0,0,0,0],"sum_hessian":[2.5814658E3,2.5422588E3,3.920705E1,1.8391372E3,7.0312164E2,2.4374775E1,1.4832276E1,1.5510118E3,2.8812527E2,9.992186E1,6.0319977E2,1.6898224E1,7.476552E0,5.9150405E0,8.917235E0],"tree_param":{"num_deleted":"0","num_feature":"17","num_nodes":"15","size_leaf_vector":"1"}},{"base_weights":[1.0033264E-2,2.4473466E-2,-2.2811729E-1,-2.243293E-3,2.5112998E-1,-3.6662096E-1,3.0011266E-1,2.9439665E-3,-2.9438739E-3,8.335623E-3,3.8946215E-2,-1.8926978E-2,1.8912392E-2,3.429875E-2,-6.6966476E-4],"categories":[],"categories_nodes":[],"categories_segments":[],"categories_sizes":[],"default_left":[0,0,0,0,0,0,0,0,0,0,0,0,0,0,0],"id":66,"left_children":[1,3,5,7,9,11,13,-1,-1,-1,-1,-1,-1,-1,-1],"loss_changes":[8.737965E0,1.4806662E1,1.075919E1,1.1794232E1,7.0799255E0,1.0750516E1,5.7464085E0,0E0,0E0,0E0,0E0,0E0,0E0,0E0,0E0],"parents":[2147483647,0,0,1,1,2,2,3,3,4,4,5,5,6,6],"right_children":[2,4,6,8,10,12,14,-1,-1,-1,-1,-1,-1,-1,-1],"split_conditions":[7E0,2.18E1,9.5E0,2E0,6.9E0,1.14E1,1.025E1,2.9439665E-3,-2.9438739E-3,8.335623E-3,3.8946215E-2,-1.8926978E-2,1.8912392E-2,3.429875E-2,-6.6966476E-4],"split_indices":[10,4,11,10,11,8,10,0,0,0,0,0,0,0,0],"split_type":[0,0,0,0,0,0,0,0,0,0,0,0,0,0,0],"sum_hessian":[2.5674473E3,2.4235537E3,1.4389354E2,2.1670046E3,2.5654913E2,1.1500949E2,2.8884048E1,1.0471553E3,1.1198492E3,2.4438646E2,1.2162696E1,1.0289281E2,1.211669E1,1.034078E1,1.8543268E1],"tree_param":{"num_deleted":"0","num_feature":"17","num_nodes":"15","size_leaf_vector":"1"}},{"base_weights":[5.941918E-3,-2.393845E-2,1.3086818E-1,2.8349044E-2,-1.4194298E-1,8.3572733E-1,1.0104067E-1,-1.2993993E-3,1.2565201E-2,-2.3375008E-2,-9.415632E-4,3.822532E-2,-3.8022446E-4,1.2240807E-2,1.7322841E-3],"categories":[],"categories_nodes":[],"categories_segments":[],"categories_sizes":[],"default_left":[0,0,0,0,0,0,0,0,0,0,0,0,0,0,0],"id":67,"left_children":[1,3,5,7,9,11,13,-1,-1,-1,-1,-1,-1,-1,-1],"loss_changes":[9.682825E0,1.2887129E1,9.979169E0,2.525597E1,3.337016E1,2.4964027E0,5.5339813E0,0E0,0E0,0E0,0E0,0E0,0E0,0E0,0E0],"parents":[2147483647,0,0,1,1,2,2,3,3,4,4,5,5,6,6],"right_children":[2,4,6,8,10,12,14,-1,-1,-1,-1,-1,-1,-1,-1],"split_conditions":[3.322167E1,3E0,3.8243437E-1,2.3E0,3.1111112E0,1.24E2,3.4E0,-1.2993993E-3,1.2565201E-2,-2.3375008E-2,-9.415632E-4,3.822532E-2,-3.8022446E-4,1.2240807E-2,1.7322841E-3],"split_indices":[14,10,16,11,11,2,10,0,0,0,0,0,0,0,0],"split_type":[0,0,0,0,0,0,0,0,0,0,0,0,0,0,0],"sum_hessian":[2.5777358E3,2.077688E3,5.0004794E2,1.4373971E3,6.4029083E2,1.8436003E1,4.8161194E2,1.184761E3,2.5263606E2,1.330123E2,5.0727856E2,1.649506E1,1.9409429E0,1.0249137E2,3.7912057E2],"tree_param":{"num_deleted":"0","num_feature":"17","num_nodes":"15","size_leaf_vector":"1"}},{"base_weights":[2.232491E-2,-1.1222362E-1,4.8617706E-2,9.8214656E-2,-1.938534E-1,1.1820445E0,4.4991147E-2,2.8523803E-2,2.2277844E-4,-1.8692514E-2,-5.667744E-3,5.8307284E-3,6.196082E-2,-5.4382063E-3,2.7444968E-3],"categories":[],"categories_nodes":[],"categories_segments":[],"categories_sizes":[],"default_left":[0,0,0,0,0,0,0,0,0,0,0,0,0,0,0],"id":68,"left_children":[1,3,5,7,9,11,13,-1,-1,-1,-1,-1,-1,-1,-1],"loss_changes":[9.086799E0,7.253971E0,8.20589E0,6.259359E0,3.94285E0,1.3696613E0,9.259666E0,0E0,0E0,0E0,0E0,0E0,0E0,0E0,0E0],"parents":[2147483647,0,0,1,1,2,2,3,3,4,4,5,5,6,6],"right_children":[2,4,6,8,10,12,14,-1,-1,-1,-1,-1,-1,-1,-1],"split_conditions":[1.8386667E1,2E0,3E0,5.899384E-1,1.088E2,1.0009751E0,7E0,2.8523803E-2,2.2277844E-4,-1.8692514E-2,-5.667744E-3,5.8307284E-3,6.196082E-2,-5.4382063E-3,2.7444968E-3],"split_indices":[13,7,4,12,2,12,4,0,0,0,0,0,0,0,0],"split_type":[0,0,0,0,0,0,0,0,0,0,0,0,0,0,0],"sum_hessian":[2.5747637E3,4.17231E2,2.1575327E3,1.1484969E2,3.023813E2,5.320723E0,2.152212E3,1.3349715E1,1.0149998E2,4.5108467E1,2.5727283E2,2.1534343E0,3.1672888E0,2.4661113E2,1.9056008E3],"tree_param":{"num_deleted":"0","num_feature":"17","num_nodes":"15","size_leaf_vector":"1"}},{"base_weights":[-4.6612266E-3,-2.718787E-2,1.8756552E-1,-8.681612E-4,-2.1359943E-1,2.8993636E-1,-3.3048522E-1,-1.3968755E-3,1.7550223E-2,-1.6226735E-2,3.5926016E-4,4.5780443E-2,9.674499E-3,-2.2525355E-2,9.4289305E-3],"categories":[],"categories_nodes":[],"categories_segments":[],"categories_sizes":[],"default_left":[0,0,0,0,0,0,0,0,0,0,0,0,0,0,0],"id":69,"left_children":[1,3,5,7,9,11,13,-1,-1,-1,-1,-1,-1,-1,-1],"loss_changes":[1.0976823E1,1.1116987E1,1.4165328E1,3.002071E1,1.2262084E1,8.093351E0,6.0785213E0,0E0,0E0,0E0,0E0,0E0,0E0,0E0,0E0],"parents":[2147483647,0,0,1,1,2,2,3,3,4,4,5,5,6,6],"right_children":[2,4,6,8,10,12,14,-1,-1,-1,-1,-1,-1,-1,-1],"split_conditions":[2.3086657E1,5E0,3.77E1,4.2E0,5.9E0,2.7439446E0,5.1785713E-1,-1.3968755E-3,1.7550223E-2,-1.6226735E-2,3.5926016E-4,4.5780443E-2,9.674499E-3,-2.2525355E-2,9.4289305E-3],"split_indices":[5,10,13,11,11,9,15,0,0,0,0,0,0,0,0],"split_type":[0,0,0,0,0,0,0,0,0,0,0,0,0,0,0],"sum_hessian":[2.5509617E3,2.2865232E3,2.6443854E2,2.0069169E3,2.7960614E2,2.2200471E2,4.243382E1,1.8645989E3,1.4231802E2,1.504663E2,1.2913986E2,9.789077E0,2.1221564E2,3.065791E1,1.177591E1],"tree_param":{"num_deleted":"0","num_feature":"17","num_nodes":"15","size_leaf_vector":"1"}},{"base_weights":[1.2667957E-2,5.847398E-2,-5.2848533E-2,3.1309567E-2,4.6281776E-1,-5.4807603E-1,-2.2409314E-2,2.962365E-3,-3.5140708E-3,2.8362863E-2,1.0966599E-3,-4.6769734E-2,-1.52054895E-2,-5.56917E-3,1.4499568E-3],"categories":[],"categories_nodes":[],"categories_segments":[],"categories_sizes":[],"default_left":[0,0,0,0,0,0,0,0,0,0,0,0,0,0,0],"id":70,"left_children":[1,3,5,7,9,11,13,-1,-1,-1,-1,-1,-1,-1,-1],"loss_changes":[7.721011E0,1.6411385E1,1.5590061E1,7.2999697E0,9.7930565E0,5.001562E0,6.9036274E0,0E0,0E0,0E0,0E0,0E0,0E0,0E0,0E0],"parents":[2147483647,0,0,1,1,2,2,3,3,4,4,5,5,6,6],"right_children":[2,4,6,8,10,12,14,-1,-1,-1,-1,-1,-1,-1,-1],"split_conditions":[3E0,2.7708871E0,2.8510988E0,2E0,1.176E2,3.7947333E0,1.128E2,2.962365E-3,-3.5140708E-3,2.8362863E-2,1.0966599E-3,-4.6769734E-2,-1.52054895E-2,-5.56917E-3,1.4499568E-3],"split_indices":[10,12,12,10,2,6,2,0,0,0,0,0,0,0,0],"split_type":[0,0,0,0,0,0,0,0,0,0,0,0,0,0,0],"sum_hessian":[2.5696384E3,1.5168351E3,1.0528033E3,1.4235925E3,9.324258E1,5.895106E1,9.938523E2,1.0504331E3,3.7315933E2,5.824513E1,3.4997448E1,1.0444155E1,4.850691E1,3.3424783E2,6.5960443E2],"tree_param":{"num_deleted":"0","num_feature":"17","num_nodes":"15","size_leaf_vector":"1"}},{"base_weights":[4.86801E-3,-3.424583E-1,1.576758E-2,-5.707756E-1,1.1015601E-1,1.6993724E-1,-6.7646485E-3,-7.233034E-3,-3.1684723E-2,2.745007E-2,-4.4199238E-3,-3.651044E-3,1.016594E-2,-2.923401E-3,3.700702E-3],"categories":[],"categories_nodes":[],"categories_segments":[],"categories_sizes":[],"default_left":[0,0,0,0,0,0,0,0,0,0,0,0,0,0,0],"id":71,"left_children":[1,3,5,7,9,11,13,-1,-1,-1,-1,-1,-1,-1,-1],"loss_changes":[9.49999E0,8.178806E0,8.681814E0,3.8462677E0,3.656026E0,7.1685905E0,1.4275869E1,0E0,0E0,0E0,0E0,0E0,0E0,0E0,0E0],"parents":[2147483647,0,0,1,1,2,2,3,3,4,4,5,5,6,6],"right_children":[2,4,6,8,10,12,14,-1,-1,-1,-1,-1,-1,-1,-1],"split_conditions":[1.04E2,1.575E1,1E0,1.022E2,3.1E0,4.3536302E-1,3.3E0,-7.233034E-3,-3.1684723E-2,2.745007E-2,-4.4199238E-3,-3.651044E-3,1.016594E-2,-2.923401E-3,3.700702E-3],"split_indices":[2,3,10,2,11,12,11,0,0,0,0,0,0,0,0],"split_type":[0,0,0,0,0,0,0,0,0,0,0,0,0,0,0],"sum_hessian":[2.5496558E3,7.51873E1,2.4744685E3,5.0517956E1,2.466935E1,3.174386E2,2.15703E3,1.9929184E1,3.0588772E1,6.811683E0,1.7857666E1,7.630076E1,2.4113785E2,1.2961401E3,8.6088983E2],"tree_param":{"num_deleted":"0","num_feature":"17","num_nodes":"15","size_leaf_vector":"1"}},{"base_weights":[2.202909E-3,-6.402742E-2,4.608402E-2,-3.331933E-2,-4.8004165E-1,3.8549528E-1,2.394453E-2,-2.1919499E-3,1.7302109E-2,1.0814129E-2,-3.0717732E-2,-4.539704E-3,1.7840786E-2,-2.2575997E-3,4.0730573E-3],"categories":[],"categories_nodes":[],"categories_segments":[],"categories_sizes":[],"default_left":[0,0,0,0,0,0,0,0,0,0,0,0,0,0,0],"id":72,"left_children":[1,3,5,7,9,11,13,-1,-1,-1,-1,-1,-1,-1,-1],"loss_changes":[7.516074E0,1.2852196E1,1.1523115E1,9.513146E0,1.5580415E1,3.116416E0,9.267573E0,0E0,0E0,0E0,0E0,0E0,0E0,0E0,0E0],"parents":[2147483647,0,0,1,1,2,2,3,3,4,4,5,5,6,6],"right_children":[2,4,6,8,10,12,14,-1,-1,-1,-1,-1,-1,-1,-1],"split_conditions":[1.9E0,2.0442522E0,1.7618911E0,3.2326668E1,2.7E0,1.75E0,1.153E2,-2.1919499E-3,1.7302109E-2,1.0814129E-2,-3.0717732E-2,-4.539704E-3,1.7840786E-2,-2.2575997E-3,4.0730573E-3],"split_indices":[11,12,12,14,8,7,2,0,0,0,0,0,0,0,0],"split_type":[0,0,0,0,0,0,0,0,0,0,0,0,0,0,0],"sum_hessian":[2.5870469E3,1.0262701E3,1.5607767E3,9.579258E2,6.83444E1,9.311061E1,1.4676661E3,9.174834E2,4.044241E1,1.8567421E1,4.9776974E1,9.236676E0,8.387393E1,7.197686E2,7.478976E2],"tree_param":{"num_deleted":"0","num_feature":"17","num_nodes":"15","size_leaf_vector":"1"}},{"base_weights":[-1.3723928E-2,1.4140773E-1,-3.6528092E-2,1.0431916E-1,5.315635E-1,-3.6847344E-1,-7.710091E-3,-2.1793764E-2,5.1983655E-3,3.0687392E-2,-7.725922E-3,-2.1905866E-2,-5.839246E-3,4.8447424E-3,-1.5502077E-3],"categories":[],"categories_nodes":[],"categories_segments":[],"categories_sizes":[],"default_left":[0,0,0,0,0,0,0,0,0,0,0,0,0,0,0],"id":73,"left_children":[1,3,5,7,9,11,13,-1,-1,-1,-1,-1,-1,-1,-1],"loss_changes":[8.949894E0,4.3030357E0,2.1054068E1,4.8963475E0,5.034335E0,6.623354E0,8.188815E0,0E0,0E0,0E0,0E0,0E0,0E0,0E0,0E0],"parents":[2147483647,0,0,1,1,2,2,3,3,4,4,5,5,6,6],"right_children":[2,4,6,8,10,12,14,-1,-1,-1,-1,-1,-1,-1,-1],"split_conditions":[1E0,2.8516666E1,1.1250315E0,1.04E2,9.666667E0,1.1666666E0,1.6666666E0,-2.1793764E-2,5.1983655E-3,3.0687392E-2,-7.725922E-3,-2.1905866E-2,-5.839246E-3,4.8447424E-3,-1.5502077E-3],"split_indices":[10,13,12,2,7,11,10,0,0,0,0,0,0,0,0],"split_type":[0,0,0,0,0,0,0,0,0,0,0,0,0,0,0],"sum_hessian":[2.5419536E3,3.2226196E2,2.2196917E3,2.967041E2,2.5557852E1,1.7491293E2,2.0447786E3,9.813405E0,2.868907E2,1.9720346E1,5.8375053E0,9.439758E1,8.051535E1,3.93588E2,1.6511906E3],"tree_param":{"num_deleted":"0","num_feature":"17","num_nodes":"15","size_leaf_vector":"1"}},{"base_weights":[1.3533725E-2,4.449369E-2,-1.2915778E-1,2.7560737E-2,7.669425E-1,-8.800188E-1,-7.087773E-2,-3.8804393E-4,6.0274936E-3,-6.953295E-3,3.579761E-2,-3.8018778E-2,-0E0,-3.0618783E-2,-1.3812982E-3],"categories":[],"categories_nodes":[],"categories_segments":[],"categories_sizes":[],"default_left":[0,0,0,0,0,0,0,0,0,0,0,0,0,0,0],"id":74,"left_children":[1,3,5,7,9,11,13,-1,-1,-1,-1,-1,-1,-1,-1],"loss_changes":[1.1324703E1,2.54773E1,1.9410433E1,9.602385E0,6.377493E0,2.1371326E0,1.0302323E1,0E0,0E0,0E0,0E0,0E0,0E0,0E0,0E0],"parents":[2147483647,0,0,1,1,2,2,3,3,4,4,5,5,6,6],"right_children":[2,4,6,8,10,12,14,-1,-1,-1,-1,-1,-1,-1,-1],"split_conditions":[5E0,5.1E0,4.5E0,3.1E0,1.0814286E2,4E0,8.5E0,-3.8804393E-4,6.0274936E-3,-6.953295E-3,3.579761E-2,-3.8018778E-2,-0E0,-3.0618783E-2,-1.3812982E-3],"split_indices":[10,11,11,11,2,1,4,0,0,0,0,0,0,0,0],"split_type":[0,0,0,0,0,0,0,0,0,0,0,0,0,0,0],"sum_hessian":[2.5704915E3,2.1156768E3,4.5481488E2,2.068996E3,4.6680565E1,3.104398E1,4.237709E2,1.5868367E3,4.821594E2,5.1611233E0,4.151944E1,2.8682808E1,2.3611705E0,1.9215292E1,4.0455563E2],"tree_param":{"num_deleted":"0","num_feature":"17","num_nodes":"15","size_leaf_vector":"1"}},{"base_weights":[8.392037E-3,-1.12266675E-1,4.027448E-2,-3.7957504E-1,-6.799039E-2,-2.8553763E-1,5.1860146E-2,1.1878466E-2,-1.768944E-2,5.324753E-3,-4.9829907E-3,-1.8051116E-3,-2.5935847E-2,3.1879772E-3,-2.9354685E-3],"categories":[],"categories_nodes":[],"categories_segments":[],"categories_sizes":[],"default_left":[0,0,0,0,0,0,0,0,0,0,0,0,0,0,0],"id":75,"left_children":[1,3,5,7,9,11,13,-1,-1,-1,-1,-1,-1,-1,-1],"loss_changes":[9.832035E0,6.056858E0,7.57047E0,3.4033966E0,5.2848487E0,5.618558E0,6.915596E0,0E0,0E0,0E0,0E0,0E0,0E0,0E0,0E0],"parents":[2147483647,0,0,1,1,2,2,3,3,4,4,5,5,6,6],"right_children":[2,4,6,8,10,12,14,-1,-1,-1,-1,-1,-1,-1,-1],"split_conditions":[1.102E2,1.7833334E1,2.6785713E-1,1.2455556E1,4.0952381E-1,2.4E-1,5E0,1.1878466E-2,-1.768944E-2,5.324753E-3,-4.9829907E-3,-1.8051116E-3,-2.5935847E-2,3.1879772E-3,-2.9354685E-3],"split_indices":[2,13,15,13,16,15,10,0,0,0,0,0,0,0,0],"split_type":[0,0,0,0,0,0,0,0,0,0,0,0,0,0,0],"sum_hessian":[2.562771E3,5.3181494E2,2.0309562E3,7.281045E1,4.590045E2,6.738735E1,1.9635687E3,5.2474017E0,6.756304E1,9.8829254E1,3.6017523E2,4.2163467E1,2.5223885E1,1.6084799E3,3.5508896E2],"tree_param":{"num_deleted":"0","num_feature":"17","num_nodes":"15","size_leaf_vector":"1"}},{"base_weights":[-3.7991814E-4,6.9254786E-2,-4.8817247E-2,-2.662614E-3,3.4651232E-1,-2.9430097E-1,1.6156869E-2,-6.3335625E-3,3.8296564E-3,1.0182641E-2,2.5508558E-2,-0E0,-1.535129E-2,1.1384141E-2,-1.3576862E-3],"categories":[],"categories_nodes":[],"categories_segments":[],"categories_sizes":[],"default_left":[0,0,0,0,0,0,0,0,0,0,0,0,0,0,0],"id":76,"left_children":[1,3,5,7,9,11,13,-1,-1,-1,-1,-1,-1,-1,-1],"loss_changes":[8.620415E0,2.1018633E1,2.4280212E1,1.2819533E1,5.1747665E0,8.447271E0,1.6286167E1,0E0,0E0,0E0,0E0,0E0,0E0,0E0,0E0],"parents":[2147483647,0,0,1,1,2,2,3,3,4,4,5,5,6,6],"right_children":[2,4,6,8,10,12,14,-1,-1,-1,-1,-1,-1,-1,-1],"split_conditions":[2E0,1.6666666E0,2.4444444E0,1.9461111E1,1.202E2,2.6666667E0,3E0,-6.3335625E-3,3.8296564E-3,1.0182641E-2,2.5508558E-2,-0E0,-1.535129E-2,1.1384141E-2,-1.3576862E-3],"split_indices":[10,11,11,13,2,8,10,0,0,0,0,0,0,0,0],"split_type":[0,0,0,0,0,0,0,0,0,0,0,0,0,0,0],"sum_hessian":[2.55661E3,1.0444153E3,1.5121948E3,8.287342E2,2.1568103E2,3.1727786E2,1.194917E3,3.2263788E2,5.0609634E2,1.672215E2,4.8459538E1,7.4946915E1,2.4233095E2,1.8854382E2,1.00637317E3],"tree_param":{"num_deleted":"0","num_feature":"17","num_nodes":"15","size_leaf_vector":"1"}},{"base_weights":[8.778377E-3,-5.569352E-2,7.3670685E-2,-2.5032488E-1,-3.2009717E-2,3.465907E-2,2.4272351E-1,-0E0,-1.5210826E-2,-1.0534861E-2,-4.604402E-4,3.6100885E-3,-4.247028E-3,2.1397723E-2,2.1449619E-4],"categories":[],"categories_nodes":[],"categories_segments":[],"categories_sizes":[],"default_left":[0,0,0,0,0,0,0,0,0,0,0,0,0,0,0],"id":77,"left_children":[1,3,5,7,9,11,13,-1,-1,-1,-1,-1,-1,-1,-1],"loss_changes":[1.0730696E1,5.7595963E0,8.301207E0,4.529475E0,5.3034315E0,8.225849E0,1.6279396E1,0E0,0E0,0E0,0E0,0E0,0E0,0E0,0E0],"parents":[2147483647,0,0,1,1,2,2,3,3,4,4,5,5,6,6],"right_children":[2,4,6,8,10,12,14,-1,-1,-1,-1,-1,-1,-1,-1],"split_conditions":[1E0,1.079E2,1.96E1,2.3553333E1,3.5285714E-1,5.3E0,3.4423332E1,-0E0,-1.5210826E-2,-1.0534861E-2,-4.604402E-4,3.6100885E-3,-4.247028E-3,2.1397723E-2,2.1449619E-4],"split_indices":[0,2,3,13,16,8,13,0,0,0,0,0,0,0,0],"split_type":[0,0,0,0,0,0,0,0,0,0,0,0,0,0,0],"sum_hessian":[2.5605818E3,1.2806902E3,1.2798915E3,1.355347E2,1.1451555E3,1.043363E3,2.3652847E2,4.651987E1,8.9014824E1,8.984793E1,1.0553076E3,7.504376E2,2.9292538E2,1.0421246E2,1.3231601E2],"tree_param":{"num_deleted":"0","num_feature":"17","num_nodes":"15","size_leaf_vector":"1"}},{"base_weights":[-8.812701E-3,-1.4080095E-1,1.5889311E-2,-2.2167425E-1,1.6277203E-1,9.110808E-2,-3.6684085E-2,2.9469084E-2,-9.777289E-3,-6.7399E-3,1.7345874E-2,9.040773E-4,1.4111776E-2,-8.366354E-3,3.1057952E-3],"categories":[],"categories_nodes":[],"categories_segments":[],"categories_sizes":[],"default_left":[0,0,0,0,0,0,0,0,0,0,0,0,0,0,0],"id":78,"left_children":[1,3,5,7,9,11,13,-1,-1,-1,-1,-1,-1,-1,-1],"loss_changes":[8.37623E0,1.0015873E1,8.514007E0,7.158437E0,7.83787E0,1.5739334E1,2.5031519E1,0E0,0E0,0E0,0E0,0E0,0E0,0E0,0E0],"parents":[2147483647,0,0,1,1,2,2,3,3,4,4,5,5,6,6],"right_children":[2,4,6,8,10,12,14,-1,-1,-1,-1,-1,-1,-1,-1],"split_conditions":[1.091E2,1.86E1,2E0,2.8277674E-1,1E0,1.6666666E0,3.2222223E0,2.9469084E-2,-9.777289E-3,-6.7399E-3,1.7345874E-2,9.040773E-4,1.4111776E-2,-8.366354E-3,3.1057952E-3],"split_indices":[2,3,10,16,0,11,11,0,0,0,0,0,0,0,0],"split_type":[0,0,0,0,0,0,0,0,0,0,0,0,0,0,0],"sum_hessian":[2.5482468E3,4.0409326E2,2.1441536E3,3.2060962E2,8.348365E1,8.856584E2,1.2584951E3,6.3134584E0,3.1429617E2,3.6970573E1,4.6513077E1,7.049173E2,1.8074109E2,5.0266544E2,7.5582965E2],"tree_param":{"num_deleted":"0","num_feature":"17","num_nodes":"15","size_leaf_vector":"1"}},{"base_weights":[1.2521957E-2,-2.2189954E-2,1.1765627E-1,-3.6106753E-1,-7.2701327E-3,1.5335682E-1,-2.0491648E-1,-2.5613738E-2,-2.6916133E-3,1.4504974E-3,-4.891699E-3,6.572105E-3,-2.7530294E-2,1.1209611E-2,-1.920974E-2],"categories":[],"categories_nodes":[],"categories_segments":[],"categories_sizes":[],"default_left":[0,0,0,0,0,0,0,0,0,0,0,0,0,0,0],"id":79,"left_children":[1,3,5,7,9,11,13,-1,-1,-1,-1,-1,-1,-1,-1],"loss_changes":[9.376899E0,9.515033E0,7.356575E0,6.1539326E0,9.303518E0,5.371767E0,8.661967E0,0E0,0E0,0E0,0E0,0E0,0E0,0E0,0E0],"parents":[2147483647,0,0,1,1,2,2,3,3,4,4,5,5,6,6],"right_children":[2,4,6,8,10,12,14,-1,-1,-1,-1,-1,-1,-1,-1],"split_conditions":[1.198E2,2.5033312E0,8.569977E0,1.7616667E1,3.9071739E0,8.02381E-1,5.1261854E0,-2.5613738E-2,-2.6916133E-3,1.4504974E-3,-4.891699E-3,6.572105E-3,-2.7530294E-2,1.1209611E-2,-1.920974E-2],"split_indices":[2,6,9,13,12,15,6,0,0,0,0,0,0,0,0],"split_type":[0,0,0,0,0,0,0,0,0,0,0,0,0,0,0],"sum_hessian":[2.554577E3,1.9175854E3,6.369916E2,7.8401085E1,1.8391843E3,5.75416E2,6.1575577E1,3.8554417E1,3.984667E1,1.3318337E3,5.0735062E2,5.6922705E2,6.1889415E0,2.167423E1,3.990135E1],"tree_param":{"num_deleted":"0","num_feature":"17","num_nodes":"15","size_leaf_vector":"1"}},{"base_weights":[-9.901957E-4,-5.1048663E-2,4.7622535E-2,-9.545169E-2,6.58194E-2,9.374389E-2,-9.598318E-2,-7.2796573E-4,-9.757232E-3,-3.8541844E-3,9.7545255E-3,2.7191106E-3,1.9624934E-2,-8.705978E-5,-1.1454715E-2],"categories":[],"categories_nodes":[],"categories_segments":[],"categories_sizes":[],"default_left":[0,0,0,0,0,0,0,0,0,0,0,0,0,0,0],"id":80,"left_children":[1,3,5,7,9,11,13,-1,-1,-1,-1,-1,-1,-1,-1],"loss_changes":[6.3099594E0,6.675091E0,8.685883E0,1.0598255E1,1.0268749E1,9.824659E0,5.5260835E0,0E0,0E0,0E0,0E0,0E0,0E0,0E0,0E0],"parents":[2147483647,0,0,1,1,2,2,3,3,4,4,5,5,6,6],"right_children":[2,4,6,8,10,12,14,-1,-1,-1,-1,-1,-1,-1,-1],"split_conditions":[1E0,1.194E2,5.4380953E-1,3.4E0,1.18E1,6.7E0,1.192E2,-7.2796573E-4,-9.757232E-3,-3.8541844E-3,9.7545255E-3,2.7191106E-3,1.9624934E-2,-8.705978E-5,-1.1454715E-2],"split_indices":[0,2,15,10,3,11,2,0,0,0,0,0,0,0,0],"split_type":[0,0,0,0,0,0,0,0,0,0,0,0,0,0,0],"sum_hessian":[2.5901123E3,1.2810865E3,1.3090256E3,9.31586E2,