{"learner":{"attributes":{"best_iteration":"245","best_score":"0.6163694074449141"},"feature_names":["is_home","days_rest","opp_pts_allowed_L10","pts_L5","pts_L10","pts_ema_L5","pts_std_L10","reb_L5","reb_L10","reb_ema_L5","ast_L5","ast_L10","ast_ema_L5","min_L5","min_L10","fg_pct_L5","fg_pct_L10"],"feature_types":["int","float","float","float","float","float","float","float","float","float","float","float","float","float","float","float","float"],"gradient_booster":{"model":{"cats":{"enc":[],"feature_segments":[],"sorted_idx":[]},"gbtree_model_param":{"num_parallel_tree":"1","num_trees":"247"},"iteration_indptr":[0,1,2,3,4,5,6,7,8,9,10,11,12,13,14,15,16,17,18,19,20,21,22,23,24,25,26,27,28,29,30,31,32,33,34,35,36,37,38,39,40,41,42,43,44,45,46,47,48,49,50,51,52,53,54,55,56,57,58,59,60,61,62,63,64,65,66,67,68,69,70,71,72,73,74,75,76,77,78,79,80,81,82,83,84,85,86,87,88,89,90,91,92,93,94,95,96,97,98,99,100,101,102,103,104,105,106,107,108,109,110,111,112,113,114,115,116,117,118,119,120,121,122,123,124,125,126,127,128,129,130,131,132,133,134,135,136,137,138,139,140,141,142,143,144,145,146,147,148,149,150,151,152,153,154,155,156,157,158,159,160,161,162,163,164,165,166,167,168,169,170,171,172,173,174,175,176,177,178,179,180,181,182,183,184,185,186,187,188,189,190,191,192,193,194,195,196,197,198,199,200,201,202,203,204,205,206,207,208,209,210,211,212,213,214,215,216,217,218,219,220,221,222,223,224,225,226,227,228,229,230,231,232,233,234,235,236,237,238,239,240,241,242,243,244,245,246,247],"tree_info":[0,0,0,0,0,0,0,0,0,0,0,0,0,0,0,0,0,0,0,0,0,0,0,0,0,0,0,0,0,0,0,0,0,0,0,0,0,0,0,0,0,0,0,0,0,0,0,0,0,0,0,0,0,0,0,0,0,0,0,0,0,0,0,0,0,0,0,0,0,0,0,0,0,0,0,0,0,0,0,0,0,0,0,0,0,0,0,0,0,0,0,0,0,0,0,0,0,0,0,0,0,0,0,0,0,0,0,0,0,0,0,0,0,0,0,0,0,0,0,0,0,0,0,0,0,0,0,0,0,0,0,0,0,0,0,0,0,0,0,0,0,0,0,0,0,0,0,0,0,0,0,0,0,0,0,0,0,0,0,0,0,0,0,0,0,0,0,0,0,0,0,0,0,0,0,0,0,0,0,0,0,0,0,0,0,0,0,0,0,0,0,0,0,0,0,0,0,0,0,0,0,0,0,0,0,0,0,0,0,0,0,0,0,0,0,0,0,0,0,0,0,0,0,0,0,0,0,0,0,0,0,0,0,0,0,0,0,0,0,0,0,0,0,0,0,0,0],"trees":[{"base_weights":[-1.4090844E-4,3.1757617E-1,-2.045507E-1,2.188579E-1,5.620195E-1,-2.9606447E-1,-4.0842593E-2,6.174895E-1,1.3661163E-1,1.149646E0,4.4966933E-1,-1.4472009E-1,-4.987368E-1,4.1019138E-2,-3.3374012E-1,4.2433047E-1,1.0698112E0,6.0978436E-1,9.191599E-2,1.274071E0,2.9941633E-1,3.4999585E-1,9.3001014E-1,-1.0389808E-1,-7.111526E-1,1.8647718E-1,-5.919174E-1,1.5681887E-1,-2.3392536E-1,-5.542729E-1,-1.0464069E-1,1.6392076E-2,4.6306634E-3,1.8914994E-2,5.397368E-3,-1.4665521E-3,1.0871902E-2,-7.441836E-4,4.3953294E-3,8.091099E-3,2.1464534E-2,1.4476785E-2,-2.2013257E-3,6.3382E-3,-3.4023812E-3,1.5549051E-2,1.8189158E-3,-2.943903E-3,1.9979295E-3,-1.9862482E-2,-7.36015E-3,8.53716E-3,-8.8638783E-4,-8.042375E-3,-1.2627038E-2,-1.777799E-4,4.63887E-3,7.455499E-4,-6.348971E-3,-2.4272369E-3,-9.989652E-3,8.132745E-3,-3.7824295E-3],"categories":[],"categories_nodes":[],"categories_segments":[],"categories_sizes":[],"default_left":[0,0,0,0,0,0,0,0,0,0,0,0,0,0,0,0,0,0,0,0,0,0,0,0,0,0,0,0,0,0,0,0,0,0,0,0,0,0,0,0,0,0,0,0,0,0,0,0,0,0,0,0,0,0,0,0,0,0,0,0,0,0,0],"id":0,"left_children":[1,3,5,7,9,11,13,15,17,19,21,23,25,27,29,31,33,35,37,39,41,43,45,47,49,51,53,55,57,59,61,-1,-1,-1,-1,-1,-1,-1,-1,-1,-1,-1,-1,-1,-1,-1,-1,-1,-1,-1,-1,-1,-1,-1,-1,-1,-1,-1,-1,-1,-1,-1,-1],"loss_changes":[2.1072717E2,3.003682E1,2.9382263E1,2.9200024E1,2.2528748E1,3.833322E1,1.7272501E1,1.21140175E1,1.5462273E1,4.7059174E0,1.3613579E1,1.6231236E1,3.4739853E1,1.7663784E1,7.4804935E0,7.1981354E0,5.090946E0,6.080271E0,2.0310785E1,4.316231E0,3.3528273E0,1.1789913E1,4.093521E0,1.5472059E1,4.7413197E0,6.5296726E0,4.803879E0,1.0572782E1,9.299759E0,3.0621185E0,7.7570333E0,0E0,0E0,0E0,0E0,0E0,0E0,0E0,0E0,0E0,0E0,0E0,0E0,0E0,0E0,0E0,0E0,0E0,0E0,0E0,0E0,0E0,0E0,0E0,0E0,0E0,0E0,0E0,0E0,0E0,0E0,0E0,0E0],"parents":[2147483647,0,0,1,1,2,2,3,3,4,4,5,5,6,6,7,7,8,8,9,9,10,10,11,11,12,12,13,13,14,14,15,15,16,16,17,17,18,18,19,19,20,20,21,21,22,22,23,23,24,24,25,25,26,26,27,27,28,28,29,29,30,30],"right_children":[2,4,6,8,10,12,14,16,18,20,22,24,26,28,30,32,34,36,38,40,42,44,46,48,50,52,54,56,58,60,62,-1,-1,-1,-1,-1,-1,-1,-1,-1,-1,-1,-1,-1,-1,-1,-1,-1,-1,-1,-1,-1,-1,-1,-1,-1,-1,-1,-1,-1,-1,-1,-1],"split_conditions":[4.4120878E-1,2.9875E1,5.7E0,2.907143E-1,3.5E-1,5.212721E-1,2.3E1,2.2133333E1,4E0,3.4756668E1,1.219E2,2.64E1,6E0,6.111111E-1,2.5444445E1,2E0,3E0,1.9663842E0,9.375E0,2E0,3.3473304E-1,3.695E1,9.191784E0,3.8395061E0,2.52E1,4.8E0,6.522619E-1,1.147E2,1.1E1,6.542513E0,2.64E1,1.6392076E-2,4.6306634E-3,1.8914994E-2,5.397368E-3,-1.4665521E-3,1.0871902E-2,-7.441836E-4,4.3953294E-3,8.091099E-3,2.1464534E-2,1.4476785E-2,-2.2013257E-3,6.3382E-3,-3.4023812E-3,1.5549051E-2,1.8189158E-3,-2.943903E-3,1.9979295E-3,-1.9862482E-2,-7.36015E-3,8.53716E-3,-8.8638783E-4,-8.042375E-3,-1.2627038E-2,-1.777799E-4,4.63887E-3,7.455499E-4,-6.348971E-3,-2.4272369E-3,-9.989652E-3,8.132745E-3,-3.7824295E-3],"split_indices":[15,14,8,15,15,15,3,14,3,13,2,3,3,15,4,3,1,6,4,10,15,13,6,12,4,3,15,2,3,9,3,0,0,0,0,0,0,0,0,0,0,0,0,0,0,0,0,0,0,0,0,0,0,0,0,0,0,0,0,0,0,0,0],"split_type":[0,0,0,0,0,0,0,0,0,0,0,0,0,0,0,0,0,0,0,0,0,0,0,0,0,0,0,0,0,0,0,0,0,0,0,0,0,0,0,0,0,0,0,0,0,0,0,0,0,0,0,0,0,0,0,0,0,0,0,0,0,0,0],"sum_hessian":[3.2443276E3,1.2687356E3,1.975592E3,9.0666315E2,3.620725E2,1.26429E3,7.1130206E2,1.5288054E2,7.537826E2,5.6064434E1,3.0600806E2,7.263678E2,5.379222E2,5.547168E2,1.5658524E2,1.0916511E2,4.371544E1,6.297987E1,6.9080273E2,4.7914097E1,8.150336E0,2.5562418E2,5.0383896E1,6.7944165E2,4.6926178E1,6.3473827E1,4.7444833E2,3.9220404E2,1.6251276E2,7.779866E1,7.878658E1,1.3583893E1,9.5581215E1,3.2601345E1,1.1114095E1,8.644296E0,5.433557E1,4.062819E2,2.845208E2,1.0620134E1,3.729396E1,3.4577184E0,4.692618E0,2.2648055E2,2.9143625E1,4.29745E1,7.409396E0,4.882792E2,1.9116243E2,1.0126175E1,3.6800003E1,2.5191948E1,3.828188E1,4.0356512E2,7.0883224E1,1.8696376E2,2.0524028E2,6.495571E1,9.755705E1,2.000537E1,5.7793293E1,1.3583893E1,6.520269E1],"tree_param":{"num_deleted":"0","num_feature":"17","num_nodes":"63","size_leaf_vector":"1"}},{"base_weights":[3.751017E-4,2.9123428E-1,-2.0217925E-1,1.9224814E-1,5.2975535E-1,-2.731914E-1,1.9804224E-2,6.1887527E-1,1.10412136E-1,1.1312652E0,4.296363E-1,-1.4832865E-1,-4.2005512E-1,3.825269E-1,-8.241918E-2,4.4725963E-1,1.0616719E0,5.8107126E-1,6.903268E-2,5.537048E-1,1.2398717E0,5.082117E-1,2.1060152E-2,-5.9607904E-2,-5.1246977E-1,1.7393775E-1,-4.9334496E-1,-1.7227521E-2,5.978014E-1,1.3088019E-1,-3.0620736E-1,8.628045E-3,5.726223E-4,-0E0,1.7197007E-2,9.681103E-3,-2.3375975E-3,-1.8052976E-3,3.3567399E-3,-2.8406675E-3,1.6882565E-2,1.9994812E-2,7.4084722E-3,5.730772E-3,1.1492108E-2,-1.0714158E-2,4.404908E-3,-1.5186347E-3,7.5985445E-3,-1.1238311E-2,-3.3499477E-3,5.086716E-3,-1.0110642E-2,-8.362626E-3,-2.944316E-3,8.375809E-3,-4.913362E-3,-1.0196877E-3,1.1009311E-2,-1.06063355E-2,3.2260732E-3,-7.8838635E-3,1.0451499E-3],"categories":[],"categories_nodes":[],"categories_segments":[],"categories_sizes":[],"default_left":[0,0,0,0,0,0,0,0,0,0,0,0,0,0,0,0,0,0,0,0,0,0,0,0,0,0,0,0,0,0,0,0,0,0,0,0,0,0,0,0,0,0,0,0,0,0,0,0,0,0,0,0,0,0,0,0,0,0,0,0,0,0,0],"id":1,"left_children":[1,3,5,7,9,11,13,15,17,19,21,23,25,27,29,31,33,35,37,39,41,43,45,47,49,51,53,55,57,59,61,-1,-1,-1,-1,-1,-1,-1,-1,-1,-1,-1,-1,-1,-1,-1,-1,-1,-1,-1,-1,-1,-1,-1,-1,-1,-1,-1,-1,-1,-1,-1,-1],"loss_changes":[1.9164728E2,3.1007019E1,3.0365517E1,3.2557533E1,2.2083878E1,2.6242409E1,1.7377834E1,1.0144173E1,1.50757475E1,1.7200775E0,1.0441494E1,2.5104895E1,2.922921E1,9.269952E0,1.734171E1,5.7315865E0,3.971756E0,3.7810822E0,2.2203306E1,5.53985E0,1.8832626E0,8.130264E0,1.1479542E1,1.5432702E1,1.0030228E1,1.0509874E1,1.1881256E1,6.561174E0,7.0911236E0,1.331265E1,1.5450455E1,0E0,0E0,0E0,0E0,0E0,0E0,0E0,0E0,0E0,0E0,0E0,0E0,0E0,0E0,0E0,0E0,0E0,0E0,0E0,0E0,0E0,0E0,0E0,0E0,0E0,0E0,0E0,0E0,0E0,0E0,0E0,0E0],"parents":[2147483647,0,0,1,1,2,2,3,3,4,4,5,5,6,6,7,7,8,8,9,9,10,10,11,11,12,12,13,13,14,14,15,15,16,16,17,17,18,18,19,19,20,20,21,21,22,22,23,23,24,24,25,25,26,26,27,27,28,28,29,29,30,30],"right_children":[2,4,6,8,10,12,14,16,18,20,22,24,26,28,30,32,34,36,38,40,42,44,46,48,50,52,54,56,58,60,62,-1,-1,-1,-1,-1,-1,-1,-1,-1,-1,-1,-1,-1,-1,-1,-1,-1,-1,-1,-1,-1,-1,-1,-1,-1,-1,-1,-1,-1,-1,-1,-1],"split_conditions":[4.4597068E-1,2.9951666E1,6.9E0,2.907143E-1,3.5E-1,5.212721E-1,1.12E1,2.2231667E1,4E0,2E0,3.621E1,2.14E1,6E0,8.3E0,5.5333334E-1,5E0,1.3879195E0,4.694007E0,2.2421667E1,4.3333335E0,3.4756668E1,4.9510217E0,3.8E0,1.94E1,5.6E0,6.017164E0,5.7E0,6.5555553E0,9E-1,1.096408E0,3.3E0,8.628045E-3,5.726223E-4,-0E0,1.7197007E-2,9.681103E-3,-2.3375975E-3,-1.8052976E-3,3.3567399E-3,-2.8406675E-3,1.6882565E-2,1.9994812E-2,7.4084722E-3,5.730772E-3,1.1492108E-2,-1.0714158E-2,4.404908E-3,-1.5186347E-3,7.5985445E-3,-1.1238311E-2,-3.3499477E-3,5.086716E-3,-1.0110642E-2,-8.362626E-3,-2.944316E-3,8.375809E-3,-4.913362E-3,-1.0196877E-3,1.1009311E-2,-1.06063355E-2,3.2260732E-3,-7.8838635E-3,1.0451499E-3],"split_indices":[15,14,8,15,15,15,3,14,3,10,13,3,3,4,15,3,9,5,14,8,13,12,7,4,10,5,8,4,11,12,11,0,0,0,0,0,0,0,0,0,0,0,0,0,0,0,0,0,0,0,0,0,0,0,0,0,0,0,0,0,0,0,0],"split_type":[0,0,0,0,0,0,0,0,0,0,0,0,0,0,0,0,0,0,0,0,0,0,0,0,0,0,0,0,0,0,0,0,0,0,0,0,0,0,0,0,0,0,0,0,0,0,0,0,0,0,0,0,0,0,0,0,0,0,0,0,0,0,0],"sum_hessian":[3.2504587E3,1.3355374E3,1.9149215E3,9.467265E2,3.8881085E2,1.4528787E3,4.6204272E2,1.5030031E2,7.964262E2,5.3442703E1,3.3536816E2,7.884589E2,6.644198E2,1.0251358E2,3.5952914E2,1.1047219E2,3.9828117E1,6.2299034E1,7.341272E2,1.0134247E1,4.3308456E1,2.7979465E2,5.5573513E1,6.361282E2,1.5233073E2,7.189366E1,5.925261E2,3.507836E1,6.743522E1,1.827642E2,1.7676495E2,8.1560616E1,2.891157E1,3.7103431E0,3.6117775E1,5.7600945E1,4.6980915E0,3.3020782E2,4.0391934E2,4.2020497E0,5.932197E0,3.6387653E1,6.9208035E0,1.9550957E2,8.4285065E1,1.4079216E1,4.14943E1,5.9339557E2,4.2732647E1,7.999035E1,7.234039E1,6.102636E1,1.0867301E1,4.7472504E2,1.1780109E2,1.1363847E1,2.3714516E1,1.136192E1,5.60733E1,1.5809915E1,1.6695428E2,1.11343666E2,6.542128E1],"tree_param":{"num_deleted":"0","num_feature":"17","num_nodes":"63","size_leaf_vector":"1"}},{"base_weights":[8.8781575E-3,2.8847978E-1,-1.9954222E-1,5.601409E-1,2.0145226E-1,-9.0267494E-2,-3.1873274E-1,3.0492774E-1,9.285113E-1,-3.8086833E-3,3.009089E-1,-4.1346874E-2,-5.286267E-1,1.4712614E-1,-3.6261734E-1,5.3805834E-1,-1.6516662E-1,-0E0,1.0133592E0,7.371545E-1,-9.0267114E-2,2.0558707E-1,5.833195E-1,-8.853536E-2,2.4121304E-1,-6.578114E-1,6.474452E-2,2.741856E-1,-3.3448157E-1,-5.969157E-1,-2.2810991E-1,1.7261658E-2,6.2201624E-3,-3.0791452E-5,-1.1675608E-2,9.718225E-3,-6.21526E-3,1.1074336E-2,1.766754E-2,-0E0,1.3166197E-2,-7.8026038E-3,-1.1171855E-4,3.5912471E-3,-3.259096E-3,5.9810043E-3,1.2038513E-2,-5.874133E-3,-8.7283936E-4,-4.0349863E-3,4.780508E-3,-1.0717001E-2,7.4748797E-3,9.591393E-3,-4.6987804E-3,6.278445E-3,-5.4965303E-3,3.8560024E-3,-1.1207767E-2,-7.1224277E-3,-1.5038054E-2,1.2517767E-3,-5.062501E-3],"categories":[],"categories_nodes":[],"categories_segments":[],"categories_sizes":[],"default_left":[0,0,0,0,0,0,0,0,0,0,0,0,0,0,0,0,0,0,0,0,0,0,0,0,0,0,0,0,0,0,0,0,0,0,0,0,0,0,0,0,0,0,0,0,0,0,0,0,0,0,0,0,0,0,0,0,0,0,0,0,0,0,0],"id":2,"left_children":[1,3,5,7,9,11,13,15,17,19,21,23,25,27,29,31,33,35,37,39,41,43,45,47,49,51,53,55,57,59,61,-1,-1,-1,-1,-1,-1,-1,-1,-1,-1,-1,-1,-1,-1,-1,-1,-1,-1,-1,-1,-1,-1,-1,-1,-1,-1,-1,-1,-1,-1,-1,-1],"loss_changes":[1.894741E2,3.2272575E1,2.3952194E1,3.0473228E1,2.1736774E1,2.0518854E1,1.8312813E1,2.222721E1,1.0917046E1,2.1612236E1,1.8593903E1,1.16384535E1,7.81003E0,4.6593404E0,2.495697E1,8.590603E0,6.1933303E0,3.431849E0,4.0073624E0,4.1855545E0,1.0800455E1,8.47151E0,6.289814E0,6.580592E0,5.296395E0,6.552784E0,4.165545E0,6.07945E0,4.256119E0,1.2932922E1,1.8634111E1,0E0,0E0,0E0,0E0,0E0,0E0,0E0,0E0,0E0,0E0,0E0,0E0,0E0,0E0,0E0,0E0,0E0,0E0,0E0,0E0,0E0,0E0,0E0,0E0,0E0,0E0,0E0,0E0,0E0,0E0,0E0,0E0],"parents":[2147483647,0,0,1,1,2,2,3,3,4,4,5,5,6,6,7,7,8,8,9,9,10,10,11,11,12,12,13,13,14,14,15,15,16,16,17,17,18,18,19,19,20,20,21,21,22,22,23,23,24,24,25,25,26,26,27,27,28,28,29,29,30,30],"right_children":[2,4,6,8,10,12,14,16,18,20,22,24,26,28,30,32,34,36,38,40,42,44,46,48,50,52,54,56,58,60,62,-1,-1,-1,-1,-1,-1,-1,-1,-1,-1,-1,-1,-1,-1,-1,-1,-1,-1,-1,-1,-1,-1,-1,-1,-1,-1,-1,-1,-1,-1,-1,-1],"split_conditions":[4.5E-1,3.3473304E-1,5.295238E-1,2.2316668E1,2.2977777E1,2.58E1,6E0,5.25E0,1E0,4E0,1.196E2,7.3333335E0,5.126488E-1,6.017164E0,2.3863333E1,7.5E-1,3.2761905E-1,2.8055555E-1,8.9E0,1.9663842E0,3.1001792E0,3.663E1,3.8395061E0,1.725E1,2.3943333E1,1.05E1,3.546E1,2.5169096E0,5.6083465E-1,1.2E1,1.2333333E1,1.7261658E-2,6.2201624E-3,-3.0791452E-5,-1.1675608E-2,9.718225E-3,-6.21526E-3,1.1074336E-2,1.766754E-2,-0E0,1.3166197E-2,-7.8026038E-3,-1.1171855E-4,3.5912471E-3,-3.259096E-3,5.9810043E-3,1.2038513E-2,-5.874133E-3,-8.7283936E-4,-4.0349863E-3,4.780508E-3,-1.0717001E-2,7.4748797E-3,9.591393E-3,-4.6987804E-3,6.278445E-3,-5.4965303E-3,3.8560024E-3,-1.1207767E-2,-7.1224277E-3,-1.5038054E-2,1.2517767E-3,-5.062501E-3],"split_indices":[15,15,15,14,14,3,3,3,10,3,2,7,16,5,14,11,15,15,4,6,6,13,12,14,13,7,13,12,16,3,3,0,0,0,0,0,0,0,0,0,0,0,0,0,0,0,0,0,0,0,0,0,0,0,0,0,0,0,0,0,0,0,0],"split_type":[0,0,0,0,0,0,0,0,0,0,0,0,0,0,0,0,0,0,0,0,0,0,0,0,0,0,0,0,0,0,0,0,0,0,0,0,0,0,0,0,0,0,0,0,0,0,0,0,0,0,0,0,0,0,0,0,0,0,0,0,0,0,0],"sum_hessian":[3.2488984E3,1.3887097E3,1.8601888E3,3.3413516E2,1.0545745E3,9.739843E2,8.862045E2,1.9924103E2,1.3489412E2,3.4232388E2,7.122506E2,8.7827454E2,9.570974E1,7.487477E1,8.113298E2,1.3403322E2,6.520782E1,1.1134586E1,1.2375954E2,3.4391262E1,3.0793262E2,5.352041E2,1.7704654E2,7.5499414E2,1.232804E2,7.942292E1,1.6286821E1,6.056414E1,1.4310636E1,2.9319647E2,5.181333E2,1.9292614E1,1.147406E2,5.310837E1,1.2099442E1,3.9651234E0,7.169463E0,5.2951054E1,7.080849E1,5.6855736E0,2.870569E1,4.7160828E1,2.607718E2,4.9421088E2,4.099321E1,1.0210949E2,7.493705E1,6.3444153E1,6.9155E2,1.5565573E1,1.0771483E2,7.596575E1,3.4571638E0,6.907205E0,9.379616E0,5.0181416E1,1.0382723E1,5.428167E0,8.882469E0,2.3204353E2,6.115293E1,1.3673056E2,3.814027E2],"tree_param":{"num_deleted":"0","num_feature":"17","num_nodes":"63","size_leaf_vector":"1"}},{"base_weights":[1.6130184E-4,2.8759772E-1,-2.0200369E-1,5.076013E-1,1.9255623E-1,-2.753634E-1,3.16863E-2,2.8682125E-1,7.796493E-1,-3.242225E-2,3.0019256E-1,-1.5618521E-1,-4.4263077E-1,3.4826347E-1,-5.960771E-2,5.203196E-1,-3.0424431E-2,1.0890017E0,6.344376E-1,1.2550473E-1,-3.1116894E-1,2.568006E-1,6.0713387E-1,-7.6742314E-2,-4.809392E-1,4.6942607E-1,-4.8962712E-1,-5.8797677E-3,5.338681E-1,1.7398769E-1,-3.067836E-1,1.5409173E-2,6.116406E-3,-2.376077E-3,1.0718638E-2,3.9487076E-4,1.716557E-2,6.0148183E-3,1.4714084E-2,7.896414E-3,4.118173E-4,-1.1939594E-2,-2.2231224E-3,4.2678104E-3,-7.311445E-3,1.1740546E-2,5.6267146E-4,-1.657945E-3,6.5690456E-3,-1.0525218E-2,-3.1849167E-3,1.1951244E-2,-8.28614E-3,-8.119093E-3,-3.2485558E-3,-6.9797174E-3,5.8339583E-3,9.311174E-3,-9.849592E-4,3.993308E-3,-1.1693066E-2,-7.273596E-3,4.1124242E-4],"categories":[],"categories_nodes":[],"categories_segments":[],"categories_sizes":[],"default_left":[0,0,0,0,0,0,0,0,0,0,0,0,0,0,0,0,0,0,0,0,0,0,0,0,0,0,0,0,0,0,0,0,0,0,0,0,0,0,0,0,0,0,0,0,0,0,0,0,0,0,0,0,0,0,0,0,0,0,0,0,0,0,0],"id":3,"left_children":[1,3,5,7,9,11,13,15,17,19,21,23,25,27,29,31,33,35,37,39,41,43,45,47,49,51,53,55,57,59,61,-1,-1,-1,-1,-1,-1,-1,-1,-1,-1,-1,-1,-1,-1,-1,-1,-1,-1,-1,-1,-1,-1,-1,-1,-1,-1,-1,-1,-1,-1,-1,-1],"loss_changes":[1.8889037E2,2.7558395E1,3.284761E1,2.332788E1,2.2972847E1,2.852948E1,1.3325571E1,1.6980509E1,6.3868866E0,1.350285E1,7.830002E0,2.1593115E1,2.5989151E1,7.134926E0,2.042213E1,6.032192E0,9.025171E0,3.271553E0,9.022263E0,7.3014913E0,8.172305E0,1.3219498E1,7.542885E0,1.2407015E1,9.408524E0,1.06483555E1,8.492264E0,6.720023E0,4.3225975E0,1.6400873E1,1.0941175E1,0E0,0E0,0E0,0E0,0E0,0E0,0E0,0E0,0E0,0E0,0E0,0E0,0E0,0E0,0E0,0E0,0E0,0E0,0E0,0E0,0E0,0E0,0E0,0E0,0E0,0E0,0E0,0E0,0E0,0E0,0E0,0E0],"parents":[2147483647,0,0,1,1,2,2,3,3,4,4,5,5,6,6,7,7,8,8,9,9,10,10,11,11,12,12,13,13,14,14,15,15,16,16,17,17,18,18,19,19,20,20,21,21,22,22,23,23,24,24,25,25,26,26,27,27,28,28,29,29,30,30],"right_children":[2,4,6,8,10,12,14,16,18,20,22,24,26,28,30,32,34,36,38,40,42,44,46,48,50,52,54,56,58,60,62,-1,-1,-1,-1,-1,-1,-1,-1,-1,-1,-1,-1,-1,-1,-1,-1,-1,-1,-1,-1,-1,-1,-1,-1,-1,-1,-1,-1,-1,-1,-1,-1],"split_conditions":[4.4597068E-1,3.4782913E-1,6.9E0,2.2316668E1,2.2977777E1,5.295238E-1,1.12E1,5E0,2.956624E-1,7.5E0,6.4E0,2.14E1,4.8E0,8.3E0,5.5333334E-1,7.5E-1,4.053786E0,1.3879195E0,2.9718334E1,4E0,7.5E0,2.46E1,3.6366665E1,1.9555555E1,5.6E0,6.7E-1,5.8E0,1E0,3E0,9.191784E0,3.5E0,1.5409173E-2,6.116406E-3,-2.376077E-3,1.0718638E-2,3.9487076E-4,1.716557E-2,6.0148183E-3,1.4714084E-2,7.896414E-3,4.118173E-4,-1.1939594E-2,-2.2231224E-3,4.2678104E-3,-7.311445E-3,1.1740546E-2,5.6267146E-4,-1.657945E-3,6.5690456E-3,-1.0525218E-2,-3.1849167E-3,1.1951244E-2,-8.28614E-3,-8.119093E-3,-3.2485558E-3,-6.9797174E-3,5.8339583E-3,9.311174E-3,-9.849592E-4,3.993308E-3,-1.1693066E-2,-7.273596E-3,4.1124242E-4],"split_indices":[15,15,8,14,14,15,3,3,15,3,11,3,3,4,15,11,9,9,14,3,4,3,13,4,10,15,8,0,11,6,11,0,0,0,0,0,0,0,0,0,0,0,0,0,0,0,0,0,0,0,0,0,0,0,0,0,0,0,0,0,0,0,0],"split_type":[0,0,0,0,0,0,0,0,0,0,0,0,0,0,0,0,0,0,0,0,0,0,0,0,0,0,0,0,0,0,0,0,0,0,0,0,0,0,0,0,0,0,0,0,0,0,0,0,0,0,0,0,0,0,0,0,0,0,0,0,0,0,0],"sum_hessian":[3.248116E3,1.3423887E3,1.9057272E3,4.019211E2,9.404676E2,1.4524125E3,4.5331467E2,2.240388E2,1.7788231E2,3.02574E2,6.378936E2,8.5123596E2,6.011766E2,1.0256766E2,3.50747E2,1.2994397E2,9.409483E1,5.3824493E1,1.24057816E2,1.9193515E2,1.1063885E2,5.6195166E2,7.594193E1,6.862824E2,1.6495357E2,2.845122E1,5.7272534E2,3.4328484E1,6.8239174E1,1.7910132E2,1.716457E2,2.0069557E1,1.0987441E2,8.150001E1,1.259483E1,3.962786E0,4.9861706E1,7.792564E1,4.613217E1,3.5173157E1,1.56762E2,2.543007E1,8.520877E1,5.406859E2,2.1265776E1,5.6187584E1,1.975435E1,6.4451306E2,4.176934E1,8.651123E1,7.8442345E1,2.2019367E1,6.4318533E0,4.681125E2,1.04612854E2,1.6545557E1,1.7782925E1,5.9828747E1,8.410429E0,1.6403665E2,1.5064665E1,1.1168335E2,5.9962357E1],"tree_param":{"num_deleted":"0","num_feature":"17","num_nodes":"63","size_leaf_vector":"1"}},{"base_weights":[8.349202E-3,2.9511982E-1,-1.7353258E-1,4.4756088E-1,1.6093235E-1,-2.6471353E-1,-9.098547E-3,2.2573118E-1,6.507591E-1,4.141857E-3,3.2050988E-1,-1.400642E-1,-4.577122E-1,7.480375E-2,-2.5328463E-1,5.008219E-1,-7.02543E-2,8.8484925E-1,4.561179E-1,-1.3601631E-1,1.4551687E-1,1.5160307E-1,5.009269E-1,-6.274152E-2,-4.8980457E-1,2.2511934E-1,-5.589106E-1,-0E0,6.59723E-1,-4.8553246E-1,-7.721947E-2,5.9646047E-3,1.5842775E-2,-1.7023192E-3,1.3261279E-2,5.76963E-4,1.4118845E-2,2.8630572E-3,9.64259E-3,3.4477147E-3,-4.2155897E-3,6.7195236E-3,4.341423E-4,5.9660412E-3,-9.136666E-5,5.0204103E-3,1.1350302E-2,-3.0545546E-3,1.9556985E-3,-1.2396995E-2,-3.1439536E-3,7.711303E-3,-0E0,-7.41955E-3,-1.2402375E-2,2.9078994E-3,-2.4473097E-3,1.2782409E-2,-0E0,-8.038717E-3,3.917605E-3,-2.5791775E-3,7.7740643E-3],"categories":[],"categories_nodes":[],"categories_segments":[],"categories_sizes":[],"default_left":[0,0,0,0,0,0,0,0,0,0,0,0,0,0,0,0,0,0,0,0,0,0,0,0,0,0,0,0,0,0,0,0,0,0,0,0,0,0,0,0,0,0,0,0,0,0,0,0,0,0,0,0,0,0,0,0,0,0,0,0,0,0,0],"id":4,"left_children":[1,3,5,7,9,11,13,15,17,19,21,23,25,27,29,31,33,35,37,39,41,43,45,47,49,51,53,55,57,59,61,-1,-1,-1,-1,-1,-1,-1,-1,-1,-1,-1,-1,-1,-1,-1,-1,-1,-1,-1,-1,-1,-1,-1,-1,-1,-1,-1,-1,-1,-1,-1,-1],"loss_changes":[1.6894571E2,2.5282959E1,2.9504269E1,2.5745842E1,1.6613722E1,3.0141968E1,1.4665862E1,2.334199E1,1.2679977E1,6.7975745E0,9.614063E0,2.0588234E1,3.461228E1,2.3304033E1,7.1152496E0,6.9733925E0,5.4360533E0,7.189636E0,8.021725E0,9.392748E0,5.87061E0,7.1542926E0,5.879753E0,1.7884632E1,1.2559895E1,4.4912796E0,5.810196E0,1.516807E1,7.9998837E0,3.61347E0,6.082601E0,0E0,0E0,0E0,0E0,0E0,0E0,0E0,0E0,0E0,0E0,0E0,0E0,0E0,0E0,0E0,0E0,0E0,0E0,0E0,0E0,0E0,0E0,0E0,0E0,0E0,0E0,0E0,0E0,0E0,0E0,0E0,0E0],"parents":[2147483647,0,0,1,1,2,2,3,3,4,4,5,5,6,6,7,7,8,8,9,9,10,10,11,11,12,12,13,13,14,14,15,15,16,16,17,17,18,18,19,19,20,20,21,21,22,22,23,23,24,24,25,25,26,26,27,27,28,28,29,29,30,30],"right_children":[2,4,6,8,10,12,14,16,18,20,22,24,26,28,30,32,34,36,38,40,42,44,46,48,50,52,54,56,58,60,62,-1,-1,-1,-1,-1,-1,-1,-1,-1,-1,-1,-1,-1,-1,-1,-1,-1,-1,-1,-1,-1,-1,-1,-1,-1,-1,-1,-1,-1,-1,-1,-1],"split_conditions":[4.4027779E-1,3.75E-1,5.7E0,2.2316668E1,1.153E2,5.2791196E-1,2.2E1,5E0,3.3473304E-1,2.5714285E0,2.7822222E1,2.12E1,6E0,1.92E1,7.6E0,6.3E0,5.8E0,1E0,5.801341E0,1.0122392E0,3.968254E-1,7E0,1.214E2,2.5396698E0,5.25E0,4.8E0,6.522619E-1,1.175E1,3.6016666E1,8E0,1.223E2,5.9646047E-3,1.5842775E-2,-1.7023192E-3,1.3261279E-2,5.76963E-4,1.4118845E-2,2.8630572E-3,9.64259E-3,3.4477147E-3,-4.2155897E-3,6.7195236E-3,4.341423E-4,5.9660412E-3,-9.136666E-5,5.0204103E-3,1.1350302E-2,-3.0545546E-3,1.9556985E-3,-1.2396995E-2,-3.1439536E-3,7.711303E-3,-0E0,-7.41955E-3,-1.2402375E-2,2.9078994E-3,-2.4473097E-3,1.2782409E-2,-0E0,-8.038717E-3,3.917605E-3,-2.5791775E-3,7.7740643E-3],"split_indices":[15,15,8,14,2,15,3,3,15,11,14,3,3,4,8,4,7,10,6,12,15,3,2,12,10,3,15,3,14,11,2,0,0,0,0,0,0,0,0,0,0,0,0,0,0,0,0,0,0,0,0,0,0,0,0,0,0,0,0,0,0,0,0],"split_type":[0,0,0,0,0,0,0,0,0,0,0,0,0,0,0,0,0,0,0,0,0,0,0,0,0,0,0,0,0,0,0,0,0,0,0,0,0,0,0,0,0,0,0,0,0,0,0,0,0,0,0,0,0,0,0,0,0,0,0,0,0,0,0],"sum_hessian":[3.2360786E3,1.2570995E3,1.9789792E3,5.8543787E2,6.716616E2,1.2702307E3,7.087486E2,2.8217383E2,3.0326404E2,3.4122272E2,3.304389E2,7.746047E2,4.9562598E2,5.2592645E2,1.8282211E2,1.4710565E2,1.3506818E2,1.3494902E2,1.68315E2,1.6907164E2,1.7215108E2,1.7323419E2,1.5720471E2,6.3660345E2,1.380012E2,6.3029514E1,4.3259647E2,4.66373E2,5.9553467E1,7.667588E1,1.0614623E2,1.27547226E2,1.955843E1,1.3037408E2,4.694084E0,1.0898013E1,1.2405102E2,7.373743E1,9.4577576E1,4.7191525E1,1.2188011E2,4.501166E1,1.2713942E2,6.794724E1,1.0528696E2,1.0022249E2,5.698223E1,3.6844095E2,2.6816254E2,5.958666E1,7.841454E1,2.7731022E1,3.5298492E1,3.6177347E2,7.082299E1,2.1197835E2,2.5439464E2,4.5220272E1,1.4333195E1,7.2233955E1,4.44192E0,9.281778E1,1.3328453E1],"tree_param":{"num_deleted":"0","num_feature":"17","num_nodes":"63","size_leaf_vector":"1"}},{"base_weights":[5.143584E-3,2.8248736E-1,-1.902139E-1,9.696397E-2,3.9060727E-1,-2.7620333E-1,-3.7227932E-2,3.694375E-1,-1.3183543E-1,8.298767E-1,2.8928402E-1,-1.2490915E-1,-4.6634096E-1,4.38378E-2,-3.1621048E-1,7.826188E-2,4.534894E-1,-2.1310724E-1,3.0211484E-1,6.861559E-1,1.14501E0,2.013134E-1,5.588624E-1,-1.1936936E-2,-2.7937156E-1,1.1569352E-1,-5.471959E-1,-3.7353538E-2,2.8836554E-1,-6.7842084E-1,-1.510702E-1,1.6225934E-2,-1.4013934E-3,8.823485E-3,2.4927E-3,-4.218142E-3,2.746399E-3,9.071662E-3,-3.6854236E-3,1.2726586E-2,2.4864182E-3,1.0441651E-2,2.2099696E-2,1.2197719E-3,5.159431E-3,-8.1712415E-4,9.47458E-3,-1.766706E-3,4.738318E-3,-9.192854E-3,-2.076507E-3,5.2058944E-3,-1.5560235E-3,-1.5897462E-2,-7.542209E-3,1.7124345E-3,-5.280753E-3,1.01521835E-2,1.4575652E-3,-1.416478E-2,-6.2219927E-4,-1.1509718E-2,-5.806726E-4],"categories":[],"categories_nodes":[],"categories_segments":[],"categories_sizes":[],"default_left":[0,0,0,0,0,0,0,0,0,0,0,0,0,0,0,0,0,0,0,0,0,0,0,0,0,0,0,0,0,0,0,0,0,0,0,0,0,0,0,0,0,0,0,0,0,0,0,0,0,0,0,0,0,0,0,0,0,0,0,0,0,0,0],"id":5,"left_children":[1,3,5,7,9,11,13,15,17,19,21,23,25,27,29,31,33,35,37,39,41,43,45,47,49,51,53,55,57,59,61,-1,-1,-1,-1,-1,-1,-1,-1,-1,-1,-1,-1,-1,-1,-1,-1,-1,-1,-1,-1,-1,-1,-1,-1,-1,-1,-1,-1,-1,-1,-1,-1],"loss_changes":[1.7645738E2,2.6673218E1,2.490104E1,3.130709E1,3.686049E1,3.4645714E1,1.580095E1,5.2419777E0,9.534519E0,5.3506393E0,1.5830635E1,1.1708036E1,2.5648201E1,1.0769026E1,8.797929E0,1.0223039E1,6.574188E0,6.6653624E0,7.489813E0,9.226463E0,4.924637E0,8.876896E0,8.7444725E0,1.4044395E1,1.3008877E1,3.5856004E0,8.018295E0,1.9693356E1,9.636685E0,7.7866E0,7.1726713E0,0E0,0E0,0E0,0E0,0E0,0E0,0E0,0E0,0E0,0E0,0E0,0E0,0E0,0E0,0E0,0E0,0E0,0E0,0E0,0E0,0E0,0E0,0E0,0E0,0E0,0E0,0E0,0E0,0E0,0E0,0E0,0E0],"parents":[2147483647,0,0,1,1,2,2,3,3,4,4,5,5,6,6,7,7,8,8,9,9,10,10,11,11,12,12,13,13,14,14,15,15,16,16,17,17,18,18,19,19,20,20,21,21,22,22,23,23,24,24,25,25,26,26,27,27,28,28,29,29,30,30],"right_children":[2,4,6,8,10,12,14,16,18,20,22,24,26,28,30,32,34,36,38,40,42,44,46,48,50,52,54,56,58,60,62,-1,-1,-1,-1,-1,-1,-1,-1,-1,-1,-1,-1,-1,-1,-1,-1,-1,-1,-1,-1,-1,-1,-1,-1,-1,-1,-1,-1,-1,-1,-1,-1],"split_conditions":[4.4666666E-1,2.2316668E1,5.7E0,5.25E0,3.4047619E-1,5.212721E-1,2.3E1,1.5483334E1,3.0864198E0,2.9718334E1,1.197E2,1.42E1,6E0,1.68E1,2.3875E1,4.943093E-1,3.4E0,4.8E0,3.2E0,3E0,1.152E2,3.0616667E1,8.5E0,1.1111111E1,3E0,6.016667E-1,4.3095237E-1,1.3333333E1,1.9E1,1.188E2,3.3487878E0,1.6225934E-2,-1.4013934E-3,8.823485E-3,2.4927E-3,-4.218142E-3,2.746399E-3,9.071662E-3,-3.6854236E-3,1.2726586E-2,2.4864182E-3,1.0441651E-2,2.2099696E-2,1.2197719E-3,5.159431E-3,-8.1712415E-4,9.47458E-3,-1.766706E-3,4.738318E-3,-9.192854E-3,-2.076507E-3,5.2058944E-3,-1.5560235E-3,-1.5897462E-2,-7.542209E-3,1.7124345E-3,-5.280753E-3,1.01521835E-2,1.4575652E-3,-1.416478E-2,-6.2219927E-4,-1.1509718E-2,-5.806726E-4],"split_indices":[15,14,8,3,15,15,3,14,12,14,2,3,3,4,4,12,8,7,7,1,2,14,4,4,11,15,16,3,3,2,12,0,0,0,0,0,0,0,0,0,0,0,0,0,0,0,0,0,0,0,0,0,0,0,0,0,0,0,0,0,0,0,0],"split_type":[0,0,0,0,0,0,0,0,0,0,0,0,0,0,0,0,0,0,0,0,0,0,0,0,0,0,0,0,0,0,0,0,0,0,0,0,0,0,0,0,0,0,0,0,0,0,0,0,0,0,0,0,0,0,0,0,0,0,0,0,0,0,0],"sum_hessian":[3.2541865E3,1.3461113E3,1.9080752E3,4.983693E2,8.47742E2,1.2184087E3,6.896665E2,2.2854749E2,2.698218E2,1.5667245E2,6.910696E2,6.811035E2,5.373051E2,5.3309186E2,1.5657462E2,5.3244057E1,1.7530344E2,2.288384E2,4.0983395E1,1.10667885E2,4.6004578E1,5.2384766E2,1.6722192E2,3.962718E2,2.8483176E2,6.452369E1,4.7278143E2,3.9871277E2,1.3437912E2,4.7066803E1,1.09507805E2,7.685748E0,4.555831E1,1.14894E2,6.040943E1,1.9550229E2,3.3336117E1,2.690903E1,1.4074365E1,8.164621E1,2.9021675E1,2.2127039E1,2.3877539E1,2.9267065E2,2.3117697E2,1.8558018E1,1.4866391E2,3.012552E2,9.5016594E1,8.039028E1,2.0444148E2,3.239329E1,3.2130398E1,2.926048E1,4.4352094E2,2.6849948E2,1.3021329E2,4.1738422E1,9.264069E1,3.1786055E1,1.5280749E1,1.5039559E1,9.446825E1],"tree_param":{"num_deleted":"0","num_feature":"17","num_nodes":"63","size_leaf_vector":"1"}},{"base_weights":[-3.1371017E-3,2.8074992E-1,-1.8320413E-1,4.1945142E-1,1.4726536E-1,-2.795783E-1,-9.043105E-3,2.9014117E-1,6.435765E-1,-7.5277925E-2,2.5943303E-1,3.2677174E-1,-3.123367E-1,1.0717179E-1,-1.5883008E-1,5.062192E-1,4.324686E-2,9.2120445E-1,4.867069E-1,1.1597084E-1,-3.0729222E-1,8.7744325E-1,1.9838227E-1,-0E0,7.240111E-1,-1.8630573E-1,-5.127027E-1,2.0884933E-1,-1.8347172E-1,2.0202987E-1,-3.4064582E-1,3.775791E-3,8.862518E-3,-1.4254996E-3,6.3381693E-3,-4.756084E-3,1.5149689E-2,5.7433173E-3,1.5227668E-2,3.7809781E-4,1.0711805E-2,-5.545619E-3,6.093838E-3,1.5543682E-2,-0E0,7.7326625E-4,5.9046205E-3,-6.440073E-3,5.4962696E-3,1.6325513E-2,1.5646672E-3,-1.8211963E-3,-6.8257707E-3,-1.5822649E-2,-6.98559E-3,-6.2389886E-3,4.0998976E-3,-8.881734E-3,1.959766E-3,-3.036931E-3,6.5829516E-3,-7.4628755E-3,2.351686E-3],"categories":[],"categories_nodes":[],"categories_segments":[],"categories_sizes":[],"default_left":[0,0,0,0,0,0,0,0,0,0,0,0,0,0,0,0,0,0,0,0,0,0,0,0,0,0,0,0,0,0,0,0,0,0,0,0,0,0,0,0,0,0,0,0,0,0,0,0,0,0,0,0,0,0,0,0,0,0,0,0,0,0,0],"id":6,"left_children":[1,3,5,7,9,11,13,15,17,19,21,23,25,27,29,31,33,35,37,39,41,43,45,47,49,51,53,55,57,59,61,-1,-1,-1,-1,-1,-1,-1,-1,-1,-1,-1,-1,-1,-1,-1,-1,-1,-1,-1,-1,-1,-1,-1,-1,-1,-1,-1,-1,-1,-1,-1,-1],"loss_changes":[1.651049E2,2.277922E1,3.3019012E1,1.6978554E1,1.6156036E1,2.5318962E1,1.2370036E1,2.0488266E1,8.387604E0,9.63578E0,1.535437E1,8.153099E0,2.996772E1,1.1768309E1,2.0614475E1,4.128956E0,1.0158102E1,1.0501617E1,6.5220947E0,5.8852735E0,4.8385553E0,5.309374E0,1.1177136E1,6.007212E0,5.844701E0,1.2526045E1,9.198769E0,1.2668379E1,1.3712243E1,1.0471808E1,1.7320507E1,0E0,0E0,0E0,0E0,0E0,0E0,0E0,0E0,0E0,0E0,0E0,0E0,0E0,0E0,0E0,0E0,0E0,0E0,0E0,0E0,0E0,0E0,0E0,0E0,0E0,0E0,0E0,0E0,0E0,0E0,0E0,0E0],"parents":[2147483647,0,0,1,1,2,2,3,3,4,4,5,5,6,6,7,7,8,8,9,9,10,10,11,11,12,12,13,13,14,14,15,15,16,16,17,17,18,18,19,19,20,20,21,21,22,22,23,23,24,24,25,25,26,26,27,27,28,28,29,29,30,30],"right_children":[2,4,6,8,10,12,14,16,18,20,22,24,26,28,30,32,34,36,38,40,42,44,46,48,50,52,54,56,58,60,62,-1,-1,-1,-1,-1,-1,-1,-1,-1,-1,-1,-1,-1,-1,-1,-1,-1,-1,-1,-1,-1,-1,-1,-1,-1,-1,-1,-1,-1,-1,-1,-1],"split_conditions":[4.4027779E-1,3.7779036E-1,5.7E0,9.5E0,9.1E0,4.8E0,5.586508E-1,5.25E0,3.3473304E-1,7E0,9.2E0,3.4444444E0,5.2791196E-1,2.3E1,1.125E1,3.0331502E0,2.4285715E0,1.0235474E0,1.92E1,5.064258E0,2.967E1,6.1E0,1.68E1,3.844133E0,4.8037534E0,2.14E1,4.3988705E-1,3.3482997E0,2.5E1,6.8E0,4.6E0,3.775791E-3,8.862518E-3,-1.4254996E-3,6.3381693E-3,-4.756084E-3,1.5149689E-2,5.7433173E-3,1.5227668E-2,3.7809781E-4,1.0711805E-2,-5.545619E-3,6.093838E-3,1.5543682E-2,-0E0,7.7326625E-4,5.9046205E-3,-6.440073E-3,5.4962696E-3,1.6325513E-2,1.5646672E-3,-1.8211963E-3,-6.8257707E-3,-1.5822649E-2,-6.98559E-3,-6.2389886E-3,4.0998976E-3,-8.881734E-3,1.959766E-3,-3.036931E-3,6.5829516E-3,-7.4628755E-3,2.351686E-3],"split_indices":[15,15,8,4,4,3,15,3,15,3,3,8,15,3,3,6,11,12,4,9,13,8,4,5,9,3,16,6,4,8,11,0,0,0,0,0,0,0,0,0,0,0,0,0,0,0,0,0,0,0,0,0,0,0,0,0,0,0,0,0,0,0,0],"split_type":[0,0,0,0,0,0,0,0,0,0,0,0,0,0,0,0,0,0,0,0,0,0,0,0,0,0,0,0,0,0,0,0,0,0,0,0,0,0,0,0,0,0,0,0,0,0,0,0,0,0,0,0,0,0,0,0,0,0,0,0,0,0,0],"sum_hessian":[3.2295376E3,1.2518727E3,1.9776649E3,6.107687E2,6.41104E2,1.2704695E3,7.0719543E2,3.9024228E2,2.205264E2,2.1300186E2,4.281021E2,6.375992E1,1.2067095E3,3.959218E2,3.1127362E2,2.0628865E2,1.8395361E2,7.679361E1,1.4373279E2,1.1544281E2,9.755905E1,3.662272E1,3.914794E2,3.582457E1,2.7935347E1,7.436441E2,4.6306546E2,2.9511435E2,1.0080747E2,1.0307053E2,2.0820308E2,5.801184E1,1.4827681E2,1.3418964E2,4.9763985E1,5.206412E0,7.15872E1,1.2364305E2,2.0089745E1,1.02094154E2,1.3348655E1,9.037818E1,7.180873E0,3.018979E1,6.4329276E0,2.2873521E2,1.6274417E2,1.6054928E1,1.9769642E1,1.6315199E1,1.1620148E1,6.0705743E2,1.3658664E2,2.9455343E1,4.336101E2,2.7426912E1,2.6768744E2,4.407478E1,5.6732693E1,3.752349E1,6.554705E1,1.5788211E2,5.032096E1],"tree_param":{"num_deleted":"0","num_feature":"17","num_nodes":"63","size_leaf_vector":"1"}},{"base_weights":[1.3722576E-3,2.7454558E-1,-1.9266735E-1,4.2162088E-1,1.5924972E-1,-2.853967E-1,-4.093545E-2,3.339688E-1,7.9234266E-1,6.771895E-2,4.6800202E-1,2.490556E-1,-3.247911E-1,8.82639E-2,-1.9489715E-1,5.747408E-1,1.8709637E-1,1.061658E0,3.8992944E-1,-1.9807147E-2,2.7469555E-1,-9.852864E-4,6.4856076E-1,1.6277499E-3,7.468402E-1,-1.8600237E-1,-4.9440134E-1,-9.0913735E-3,3.1092155E-1,4.352303E-2,-3.702523E-1,6.971401E-3,1.5105634E-2,-1.151009E-3,6.0691447E-3,1.6766554E-2,-0E0,-3.044308E-4,1.392687E-2,2.5269874E-5,-1.1853414E-2,4.90692E-3,-1.1571904E-2,2.7026956E-3,-1.15773985E-2,2.653142E-3,1.1096763E-2,-9.08159E-3,3.173834E-3,-8.9589106E-5,1.3373788E-2,-1.7964991E-3,-6.9874143E-3,-1.0426724E-2,-6.15019E-3,-3.47925E-3,2.708308E-3,-8.921596E-3,5.9829727E-3,-4.3222457E-3,4.9659177E-3,-8.526358E-3,-8.8527455E-4],"categories":[],"categories_nodes":[],"categories_segments":[],"categories_sizes":[],"default_left":[0,0,0,0,0,0,0,0,0,0,0,0,0,0,0,0,0,0,0,0,0,0,0,0,0,0,0,0,0,0,0,0,0,0,0,0,0,0,0,0,0,0,0,0,0,0,0,0,0,0,0,0,0,0,0,0,0,0,0,0,0,0,0],"id":7,"left_children":[1,3,5,7,9,11,13,15,17,19,21,23,25,27,29,31,33,35,37,39,41,43,45,47,49,51,53,55,57,59,61,-1,-1,-1,-1,-1,-1,-1,-1,-1,-1,-1,-1,-1,-1,-1,-1,-1,-1,-1,-1,-1,-1,-1,-1,-1,-1,-1,-1,-1,-1,-1,-1],"loss_changes":[1.7245753E2,2.250351E1,2.6518211E1,1.8285324E1,2.1155329E1,2.4885803E1,1.4490766E1,1.6433983E1,1.0789383E1,1.0857054E1,1.5019367E1,9.380377E0,2.5323784E1,8.696404E0,1.4146254E1,7.018009E0,1.8019133E1,4.656212E0,1.116143E1,7.454304E0,1.0525171E1,7.3274274E0,5.2302933E0,7.0506043E0,3.6071453E0,1.079521E1,7.2055283E0,1.1837151E1,1.0367501E1,1.3826557E1,1.1908455E1,0E0,0E0,0E0,0E0,0E0,0E0,0E0,0E0,0E0,0E0,0E0,0E0,0E0,0E0,0E0,0E0,0E0,0E0,0E0,0E0,0E0,0E0,0E0,0E0,0E0,0E0,0E0,0E0,0E0,0E0,0E0,0E0],"parents":[2147483647,0,0,1,1,2,2,3,3,4,4,5,5,6,6,7,7,8,8,9,9,10,10,11,11,12,12,13,13,14,14,15,15,16,16,17,17,18,18,19,19,20,20,21,21,22,22,23,23,24,24,25,25,26,26,27,27,28,28,29,29,30,30],"right_children":[2,4,6,8,10,12,14,16,18,20,22,24,26,28,30,32,34,36,38,40,42,44,46,48,50,52,54,56,58,60,62,-1,-1,-1,-1,-1,-1,-1,-1,-1,-1,-1,-1,-1,-1,-1,-1,-1,-1,-1,-1,-1,-1,-1,-1,-1,-1,-1,-1,-1,-1,-1,-1],"split_conditions":[4.4666666E-1,3.75E-1,5.582886E0,2.9875E1,1.2E2,5.2E0,5.5333334E-1,5E0,1.46E1,3.1081667E1,2.2133333E1,1.876875E1,5.212721E-1,5.211676E-1,1.24E1,6.3E0,2.2316668E1,3.5823334E1,1.92E1,5.33124E-1,1.1235361E1,8.8E0,4.5961943E0,4.770362E-1,2.2236106E0,2.14E1,4.9136305E-1,1.1444444E2,3.3482997E0,2.4076666E1,3.5555556E0,6.971401E-3,1.5105634E-2,-1.151009E-3,6.0691447E-3,1.6766554E-2,-0E0,-3.044308E-4,1.392687E-2,2.5269874E-5,-1.1853414E-2,4.90692E-3,-1.1571904E-2,2.7026956E-3,-1.15773985E-2,2.653142E-3,1.1096763E-2,-9.08159E-3,3.173834E-3,-8.9589106E-5,1.3373788E-2,-1.7964991E-3,-6.9874143E-3,-1.0426724E-2,-6.15019E-3,-3.47925E-3,2.708308E-3,-8.921596E-3,5.9829727E-3,-4.3222457E-3,4.9659177E-3,-8.526358E-3,-8.8527455E-4],"split_indices":[15,15,9,14,2,3,15,3,3,14,14,14,15,16,3,4,14,14,4,16,6,3,6,15,6,3,16,2,6,14,11,0,0,0,0,0,0,0,0,0,0,0,0,0,0,0,0,0,0,0,0,0,0,0,0,0,0,0,0,0,0,0,0],"split_type":[0,0,0,0,0,0,0,0,0,0,0,0,0,0,0,0,0,0,0,0,0,0,0,0,0,0,0,0,0,0,0,0,0,0,0,0,0,0,0,0,0,0,0,0,0,0,0,0,0,0,0,0,0,0,0,0,0,0,0,0,0,0,0],"sum_hessian":[3.251002E3,1.351433E3,1.8995688E3,5.9052295E2,7.6091003E2,1.1759664E3,7.236024E2,4.8017908E2,1.1034386E2,5.892445E2,1.7166554E2,7.932721E1,1.0966392E3,3.9133884E2,3.322636E2,1.7942743E2,3.0075165E2,6.439596E1,4.59479E1,4.1241452E2,1.7682999E2,4.6936314E1,1.2472924E2,5.436485E1,2.496236E1,6.06089E2,4.9055023E2,2.7077673E2,1.205621E2,1.3949445E2,1.9276915E2,1.478851E2,3.154233E1,1.3628612E2,1.6446553E2,6.0175453E1,4.220504E0,2.606792E1,1.9879978E1,4.0128738E2,1.1127138E1,1.6890761E2,7.922378E0,3.7808403E1,9.127907E0,2.3534561E1,1.0119468E2,1.2823847E1,4.1541004E1,3.70405E0,2.125831E1,4.969255E2,1.0916346E2,1.3056918E2,3.5998105E2,1.2587792E2,1.4489882E2,1.0120652E1,1.1044145E2,6.3871E1,7.562345E1,1.1436475E2,7.8404396E1],"tree_param":{"num_deleted":"0","num_feature":"17","num_nodes":"63","size_leaf_vector":"1"}},{"base_weights":[-5.576581E-3,2.424774E-1,-1.8242352E-1,3.989124E-1,1.2132625E-1,-2.548053E-1,-5.4561507E-2,2.0291647E-1,5.754029E-1,7.870266E-3,3.1152022E-1,6.335678E-2,-2.9857814E-1,7.167678E-2,-2.0275323E-1,4.358391E-1,3.389674E-2,7.8688616E-1,4.0214774E-1,-8.7650344E-2,1.9878596E-1,-5.5013496E-1,3.5047334E-1,-3.9797297E-1,1.2376447E-1,-1.2242888E-1,-3.842868E-1,1.1598442E-1,-5.304401E-1,4.029253E-2,-3.0452225E-1,1.4791435E-2,4.6875016E-3,-8.755006E-3,1.6894325E-3,-4.553204E-3,1.2302934E-2,2.3872557E-3,8.944392E-3,-7.1411685E-4,-7.527544E-3,4.603638E-3,-6.0314056E-3,-1.5773376E-2,-0E0,4.4488492E-3,1.33373095E-2,-1.1889213E-2,2.7584746E-3,-6.1709946E-4,4.7277315E-3,5.6477236E-3,-2.5944882E-3,-8.7685995E-3,-4.641655E-3,-2.333528E-3,3.0024578E-3,-1.3783609E-2,-0E0,-2.6576794E-3,8.75014E-3,-1.2035707E-2,-3.1227835E-3],"categories":[],"categories_nodes":[],"categories_segments":[],"categories_sizes":[],"default_left":[0,0,0,0,0,0,0,0,0,0,0,0,0,0,0,0,0,0,0,0,0,0,0,0,0,0,0,0,0,0,0,0,0,0,0,0,0,0,0,0,0,0,0,0,0,0,0,0,0,0,0,0,0,0,0,0,0,0,0,0,0,0,0],"id":8,"left_children":[1,3,5,7,9,11,13,15,17,19,21,23,25,27,29,31,33,35,37,39,41,43,45,47,49,51,53,55,57,59,61,-1,-1,-1,-1,-1,-1,-1,-1,-1,-1,-1,-1,-1,-1,-1,-1,-1,-1,-1,-1,-1,-1,-1,-1,-1,-1,-1,-1,-1,-1,-1,-1],"loss_changes":[1.4302638E2,2.5324219E1,1.7424294E1,1.978685E1,1.6354164E1,1.706285E1,1.3058815E1,1.07890215E1,1.027092E1,8.905011E0,9.571484E0,3.9175162E0,1.5767868E1,9.714453E0,8.127127E0,6.7652607E0,8.055408E0,7.0586395E0,7.8163853E0,4.940427E0,1.1155306E1,3.9987404E0,6.5545883E0,4.247895E0,4.4100056E0,9.3060465E0,9.817772E0,8.322399E0,5.2389607E0,1.16726885E1,1.0082066E1,0E0,0E0,0E0,0E0,0E0,0E0,0E0,0E0,0E0,0E0,0E0,0E0,0E0,0E0,0E0,0E0,0E0,0E0,0E0,0E0,0E0,0E0,0E0,0E0,0E0,0E0,0E0,0E0,0E0,0E0,0E0,0E0],"parents":[2147483647,0,0,1,1,2,2,3,3,4,4,5,5,6,6,7,7,8,8,9,9,10,10,11,11,12,12,13,13,14,14,15,15,16,16,17,17,18,18,19,19,20,20,21,21,22,22,23,23,24,24,25,25,26,26,27,27,28,28,29,29,30,30],"right_children":[2,4,6,8,10,12,14,16,18,20,22,24,26,28,30,32,34,36,38,40,42,44,46,48,50,52,54,56,58,60,62,-1,-1,-1,-1,-1,-1,-1,-1,-1,-1,-1,-1,-1,-1,-1,-1,-1,-1,-1,-1,-1,-1,-1,-1,-1,-1,-1,-1,-1,-1,-1,-1],"split_conditions":[4.4666666E-1,3.75E-1,5.6666665E0,2.2316668E1,1.173E2,5.962963E0,5.5333334E-1,4.5344954E0,3.3473304E-1,3.0616667E1,6E-1,6.25E-1,4.8675212E-1,9.303417E0,1.0700988E1,7.5E-1,3.0331502E0,6.666667E-1,6.022181E0,7.7287345E0,3.695E1,4.0095237E-1,6.7E0,1.172E2,5.0068027E-1,7.125E0,4.7311836E-1,1.1111111E1,5.4E0,9.6E0,2.546E1,1.4791435E-2,4.6875016E-3,-8.755006E-3,1.6894325E-3,-4.553204E-3,1.2302934E-2,2.3872557E-3,8.944392E-3,-7.1411685E-4,-7.527544E-3,4.603638E-3,-6.0314056E-3,-1.5773376E-2,-0E0,4.4488492E-3,1.33373095E-2,-1.1889213E-2,2.7584746E-3,-6.1709946E-4,4.7277315E-3,5.6477236E-3,-2.5944882E-3,-8.7685995E-3,-4.641655E-3,-2.333528E-3,3.0024578E-3,-1.3783609E-2,-0E0,-2.6576794E-3,8.75014E-3,-1.2035707E-2,-3.1227835E-3],"split_indices":[15,15,7,14,2,5,15,5,15,14,10,11,15,6,5,11,6,10,6,6,13,15,11,2,16,4,16,4,10,4,14,0,0,0,0,0,0,0,0,0,0,0,0,0,0,0,0,0,0,0,0,0,0,0,0,0,0,0,0,0,0,0,0],"split_type":[0,0,0,0,0,0,0,0,0,0,0,0,0,0,0,0,0,0,0,0,0,0,0,0,0,0,0,0,0,0,0,0,0,0,0,0,0,0,0,0,0,0,0,0,0,0,0,0,0,0,0,0,0,0,0,0,0,0,0,0,0,0,0],"sum_hessian":[3.2597654E3,1.3551027E3,1.9046627E3,5.8834186E2,7.667608E2,1.2124829E3,6.921799E2,2.812743E2,3.0706754E2,4.8288922E2,2.8387158E2,1.4481538E2,1.0676675E3,3.716373E2,3.205426E2,1.1616726E2,1.6510706E2,1.3538692E2,1.7168063E2,3.1987775E2,1.6301147E2,1.112939E1,2.727422E2,1.5037673E1,1.2977771E2,3.5252713E2,7.151403E2,3.4773508E2,2.390222E1,9.287001E1,2.276726E2,1.839379E1,9.777347E1,1.730401E1,1.4780304E2,4.467669E0,1.3091925E2,8.032449E1,9.135613E1,2.9463733E2,2.5240417E1,1.3878621E2,2.4225267E1,5.9366775E0,5.192712E0,2.5213347E2,2.0608723E1,9.367082E0,5.670591E0,6.882342E1,6.0954292E1,3.1806221E1,3.2072092E2,1.7817787E2,5.3696246E2,8.177911E1,2.6595596E2,1.3299135E1,1.0603085E1,6.590525E1,2.6964756E1,3.3456295E1,1.9421631E2],"tree_param":{"num_deleted":"0","num_feature":"17","num_nodes":"63","size_leaf_vector":"1"}},{"base_weights":[9.79153E-4,2.7043116E-1,-1.6999452E-1,4.2398804E-1,1.3575728E-1,-2.490771E-1,-3.240055E-2,2.152705E-1,6.143405E-1,-5.8770995E-3,3.0545723E-1,1.5575698E-1,-2.9254726E-1,-4.2181835E-1,2.6212197E-2,4.378354E-1,-1.20106876E-1,1.0628611E0,5.165544E-1,-1.3597064E-1,1.6073519E-1,1.23193406E-1,4.5942155E-1,-1.0021742E-1,3.6043125E-1,-1.6095996E-1,-4.7025457E-1,1.0471975E-2,-6.4407116E-1,2.698375E-1,-8.2031116E-2,1.3918211E-2,5.0376635E-3,-6.36558E-3,1.1076943E-3,1.8189812E-2,6.667476E-3,5.292735E-3,1.0810675E-2,3.5200128E-3,-3.507125E-3,1.34860985E-2,4.6905866E-4,2.8242192E-3,-7.234863E-3,4.1093477E-3,1.0830991E-2,-3.726542E-3,7.027697E-3,1.0826605E-2,1.3625622E-3,-5.047323E-4,-4.499433E-3,-1.3942368E-2,-6.466684E-3,1.1299731E-2,-2.4117131E-3,-1.4016919E-2,-5.332418E-3,-0E0,6.382769E-3,1.1166949E-3,-5.123341E-3],"categories":[],"categories_nodes":[],"categories_segments":[],"categories_sizes":[],"default_left":[0,0,0,0,0,0,0,0,0,0,0,0,0,0,0,0,0,0,0,0,0,0,0,0,0,0,0,0,0,0,0,0,0,0,0,0,0,0,0,0,0,0,0,0,0,0,0,0,0,0,0,0,0,0,0,0,0,0,0,0,0,0,0],"id":9,"left_children":[1,3,5,7,9,11,13,15,17,19,21,23,25,27,29,31,33,35,37,39,41,43,45,47,49,51,53,55,57,59,61,-1,-1,-1,-1,-1,-1,-1,-1,-1,-1,-1,-1,-1,-1,-1,-1,-1,-1,-1,-1,-1,-1,-1,-1,-1,-1,-1,-1,-1,-1,-1,-1],"loss_changes":[1.4941919E2,2.5651848E1,2.1378574E1,2.2650803E1,1.6409597E1,2.2217415E1,1.686257E1,2.1321741E1,1.1918976E1,7.9423914E0,8.252029E0,6.5241604E0,2.6086731E1,9.697243E0,1.6787725E1,7.3180923E0,7.0184507E0,3.8242493E0,7.6828003E0,7.891097E0,1.4740904E1,5.8428817E0,7.37249E0,4.5472817E0,6.2508917E0,1.165658E1,6.4114227E0,4.72967E0,4.4633656E0,8.485615E0,1.8303715E1,0E0,0E0,0E0,0E0,0E0,0E0,0E0,0E0,0E0,0E0,0E0,0E0,0E0,0E0,0E0,0E0,0E0,0E0,0E0,0E0,0E0,0E0,0E0,0E0,0E0,0E0,0E0,0E0,0E0,0E0,0E0,0E0],"parents":[2147483647,0,0,1,1,2,2,3,3,4,4,5,5,6,6,7,7,8,8,9,9,10,10,11,11,12,12,13,13,14,14,15,15,16,16,17,17,18,18,19,19,20,20,21,21,22,22,23,23,24,24,25,25,26,26,27,27,28,28,29,29,30,30],"right_children":[2,4,6,8,10,12,14,16,18,20,22,24,26,28,30,32,34,36,38,40,42,44,46,48,50,52,54,56,58,60,62,-1,-1,-1,-1,-1,-1,-1,-1,-1,-1,-1,-1,-1,-1,-1,-1,-1,-1,-1,-1,-1,-1,-1,-1,-1,-1,-1,-1,-1,-1,-1,-1],"split_conditions":[4.4027779E-1,3.75E-1,5.6908092E0,2.2316668E1,1.158E2,5.75E0,2.2133333E1,5.4E0,2.956624E-1,2.877E1,2.6505E1,1.694074E1,5.212721E-1,7.4E0,1.3333333E1,2.6243386E0,2.2489288E0,3E0,2.9718334E1,5.5E0,1.12E1,4E0,1.214E2,6.1851853E-1,4.75E0,1.42E1,4.3095237E-1,6.666667E-1,1.2537825E0,1.124E2,5.586508E-1,1.3918211E-2,5.0376635E-3,-6.36558E-3,1.1076943E-3,1.8189812E-2,6.667476E-3,5.292735E-3,1.0810675E-2,3.5200128E-3,-3.507125E-3,1.34860985E-2,4.6905866E-4,2.8242192E-3,-7.234863E-3,4.1093477E-3,1.0830991E-2,-3.726542E-3,7.027697E-3,1.0826605E-2,1.3625622E-3,-5.047323E-4,-4.499433E-3,-1.3942368E-2,-6.466684E-3,1.1299731E-2,-2.4117131E-3,-1.4016919E-2,-5.332418E-3,-0E0,6.382769E-3,1.1166949E-3,-5.123341E-3],"split_indices":[15,15,9,14,2,3,14,3,15,14,14,14,15,3,3,5,9,1,14,3,3,1,2,16,3,3,16,12,12,2,15,0,0,0,0,0,0,0,0,0,0,0,0,0,0,0,0,0,0,0,0,0,0,0,0,0,0,0,0,0,0,0,0],"split_type":[0,0,0,0,0,0,0,0,0,0,0,0,0,0,0,0,0,0,0,0,0,0,0,0,0,0,0,0,0,0,0,0,0,0,0,0,0,0,0,0,0,0,0,0,0,0,0,0,0,0,0,0,0,0,0,0,0,0,0,0,0,0,0],"sum_hessian":[3.240436E3,1.2592333E3,1.9812028E3,5.8536554E2,6.7386774E2,1.2547343E3,7.2646857E2,2.816043E2,3.037612E2,3.656356E2,3.0823215E2,1.2003636E2,1.1346979E3,9.586152E1,6.3060706E2,1.7028798E2,1.1131634E2,5.1845417E1,2.5191577E2,2.0757224E2,1.5806335E2,1.436911E2,1.6454106E2,5.2106373E1,6.7929985E1,6.548682E2,4.7982968E2,3.1810892E1,6.405063E1,1.9547385E2,4.351332E2,2.5599115E1,1.4468887E2,4.3919727E1,6.739661E1,3.9397186E1,1.2448231E1,1.4717676E2,1.0473902E2,4.2531734E1,1.650405E2,2.1799809E1,1.3626355E2,1.3083311E2,1.2857985E1,1.0091517E2,6.3625896E1,4.246951E1,9.636866E0,2.6974663E1,4.0955322E1,3.49701E2,3.051672E2,2.9317022E1,4.5051266E2,6.166908E0,2.5643984E1,2.906415E1,3.4986477E1,7.361635E1,1.218575E2,2.7135336E2,1.6377985E2],"tree_param":{"num_deleted":"0","num_feature":"17","num_nodes":"63","size_leaf_vector":"1"}},{"base_weights":[2.9011793E-3,2.691891E-1,-1.6675523E-1,8.342288E-2,3.8384342E-1,-2.2710153E-1,6.591011E-2,3.655645E-1,-1.9408226E-1,8.32774E-1,2.8648287E-1,-1.06305666E-1,-3.7722647E-1,2.565233E-1,-1.02739505E-1,9.3013173E-1,3.1069234E-1,-4.41132E-1,-6.213721E-3,-3.4337891E-3,8.729264E-1,2.1561916E-1,6.8658453E-1,-3.125573E-2,-4.3043423E-1,4.0801483E-1,-4.1497603E-1,3.39365E-1,-7.805837E-1,5.1760656E-1,-3.0950752E-1,-0E0,1.6687844E-2,-8.341729E-3,5.2035153E-3,-8.393243E-3,3.9417455E-3,3.3910968E-3,-2.986073E-3,1.4224019E-3,1.3753165E-2,1.8922787E-3,5.627814E-3,-8.701106E-3,1.1562659E-2,-1.2582106E-3,1.0151885E-2,-8.488096E-3,2.4428352E-4,1.0878647E-2,-5.1325364E-3,-7.199558E-3,-2.7908892E-3,-8.99428E-3,5.966139E-3,-4.8994436E-3,-1.8747048E-2,1.5046844E-2,2.9529913E-3,-7.327309E-3,2.4287961E-3],"categories":[],"categories_nodes":[],"categories_segments":[],"categories_sizes":[],"default_left":[0,0,0,0,0,0,0,0,0,0,0,0,0,0,0,0,0,0,0,0,0,0,0,0,0,0,0,0,0,0,0,0,0,0,0,0,0,0,0,0,0,0,0,0,0,0,0,0,0,0,0,0,0,0,0,0,0,0,0,0,0],"id":10,"left_children":[1,3,5,7,9,11,13,15,17,19,21,23,25,27,29,31,33,35,37,-1,39,41,43,45,47,49,51,53,55,57,59,-1,-1,-1,-1,-1,-1,-1,-1,-1,-1,-1,-1,-1,-1,-1,-1,-1,-1,-1,-1,-1,-1,-1,-1,-1,-1,-1,-1,-1,-1],"loss_changes":[1.4585541E2,2.6454163E1,2.7770954E1,3.7979984E1,3.2975403E1,2.80635E1,1.3108276E1,6.442425E0,1.0979991E1,6.4054184E0,1.743169E1,2.0890236E1,2.0756836E1,1.6386131E1,2.7324764E1,3.0033436E0,7.8913174E0,9.492769E0,6.460253E0,0E0,4.9962463E0,7.5141945E0,1.180378E1,2.698331E1,1.0707115E1,8.207985E0,1.0211273E1,1.078602E1,1.6700497E0,7.43237E0,1.440498E1,0E0,0E0,0E0,0E0,0E0,0E0,0E0,0E0,0E0,0E0,0E0,0E0,0E0,0E0,0E0,0E0,0E0,0E0,0E0,0E0,0E0,0E0,0E0,0E0,0E0,0E0,0E0,0E0,0E0,0E0],"parents":[2147483647,0,0,1,1,2,2,3,3,4,4,5,5,6,6,7,7,8,8,9,9,10,10,11,11,12,12,13,13,14,14,15,15,16,16,17,17,18,18,20,20,21,21,22,22,23,23,24,24,25,25,26,26,27,27,28,28,29,29,30,30],"right_children":[2,4,6,8,10,12,14,16,18,20,22,24,26,28,30,32,34,36,38,-1,40,42,44,46,48,50,52,54,56,58,60,-1,-1,-1,-1,-1,-1,-1,-1,-1,-1,-1,-1,-1,-1,-1,-1,-1,-1,-1,-1,-1,-1,-1,-1,-1,-1,-1,-1,-1,-1],"split_conditions":[4.4027779E-1,2.2316668E1,7.4E0,5.5E0,3.3473304E-1,5.212721E-1,5.5333334E-1,2E0,4.5080175E0,6E-1,1.219E2,2.14E1,4.8E0,9.191784E0,1.12E1,1.5183333E1,1.8559215E0,4.8E0,7.5E0,-3.4337891E-3,1.8888888E0,3.157E1,6.6162763E0,1.9555555E1,6.8600984E0,6.230159E-1,5.7E0,3.2366943E0,1.184E2,6.111111E-1,4.6E0,-0E0,1.6687844E-2,-8.341729E-3,5.2035153E-3,-8.393243E-3,3.9417455E-3,3.3910968E-3,-2.986073E-3,1.4224019E-3,1.3753165E-2,1.8922787E-3,5.627814E-3,-8.701106E-3,1.1562659E-2,-1.2582106E-3,1.0151885E-2,-8.488096E-3,2.4428352E-4,1.0878647E-2,-5.1325364E-3,-7.199558E-3,-2.7908892E-3,-8.99428E-3,5.966139E-3,-4.8994436E-3,-1.8747048E-2,1.5046844E-2,2.9529913E-3,-7.327309E-3,2.4287961E-3],"split_indices":[15,14,8,3,15,15,15,3,6,10,2,3,3,6,3,14,6,7,3,0,8,14,5,4,12,16,8,6,2,15,11,0,0,0,0,0,0,0,0,0,0,0,0,0,0,0,0,0,0,0,0,0,0,0,0,0,0,0,0,0,0],"split_type":[0,0,0,0,0,0,0,0,0,0,0,0,0,0,0,0,0,0,0,0,0,0,0,0,0,0,0,0,0,0,0,0,0,0,0,0,0,0,0,0,0,0,0,0,0,0,0,0,0,0,0,0,0,0,0,0,0,0,0,0,0],"sum_hessian":[3.2255193E3,1.256581E3,1.9689381E3,4.822189E2,7.743622E2,1.565648E3,4.0329022E2,2.4014493E2,2.4207397E2,1.3580138E2,6.385608E2,8.7067236E2,6.949756E2,1.9092705E2,2.1236316E2,1.9155296E1,2.2098964E2,1.0264006E2,1.3943393E2,4.219496E0,1.3158188E2,5.4484534E2,9.371542E1,7.092706E2,1.614017E2,3.075109E1,6.642245E2,1.7785486E2,1.307219E1,5.2021866E1,1.603413E2,3.9791517E0,1.5176144E1,8.681255E0,2.1230838E2,8.806716E1,1.4572895E1,6.1719257E1,7.771466E1,9.714247E0,1.2186764E2,3.5850766E2,1.8633769E2,5.700876E0,8.801455E1,6.612955E2,4.7975155E1,1.232751E2,3.8126606E1,2.207444E1,8.676649E0,5.0265897E2,1.6156552E2,1.01261635E1,1.677287E2,8.138521E0,4.933669E0,1.8832235E1,3.3189632E1,1.1620916E2,4.413213E1],"tree_param":{"num_deleted":"0","num_feature":"17","num_nodes":"61","size_leaf_vector":"1"}},{"base_weights":[-4.8981537E-3,2.498139E-1,-1.6645966E-1,4.4954687E-1,1.548417E-1,-2.3035043E-1,4.1399065E-2,2.3672129E-1,7.013004E-1,7.150947E-2,4.0410352E-1,-1.0128377E-1,-3.9714408E-1,3.3956927E-1,-7.053668E-2,4.7420493E-1,-6.625111E-2,-3.449925E-3,7.375988E-1,-8.679898E-3,2.2618032E-1,-5.1596127E-3,5.905693E-1,-2.1548366E-2,-4.438716E-1,1.4549764E-1,-4.6397692E-1,4.3716604E-1,-1.8736035E-1,1.2012269E-1,-2.903237E-1,7.780486E-3,-4.806706E-3,-3.3695824E-3,9.878544E-3,1.580604E-2,8.840895E-3,7.1399086E-3,-5.635577E-4,1.2013354E-2,2.0019063E-3,4.818541E-3,-6.536838E-3,-2.4793718E-3,9.556217E-3,-2.0508978E-3,2.8004448E-3,-8.422906E-3,6.442782E-4,8.612795E-3,-7.0269954E-5,-1.6344076E-2,-6.329194E-3,-1.5442303E-3,8.55272E-3,6.686938E-4,-1.4926332E-2,-1.0830637E-2,2.8179444E-3,-7.1339393E-3,2.765119E-3],"categories":[],"categories_nodes":[],"categories_segments":[],"categories_sizes":[],"default_left":[0,0,0,0,0,0,0,0,0,0,0,0,0,0,0,0,0,0,0,0,0,0,0,0,0,0,0,0,0,0,0,0,0,0,0,0,0,0,0,0,0,0,0,0,0,0,0,0,0,0,0,0,0,0,0,0,0,0,0,0,0],"id":11,"left_children":[1,3,5,7,9,11,13,15,17,19,21,23,25,27,29,31,33,-1,35,37,39,41,43,45,47,49,51,53,55,57,59,-1,-1,-1,-1,-1,-1,-1,-1,-1,-1,-1,-1,-1,-1,-1,-1,-1,-1,-1,-1,-1,-1,-1,-1,-1,-1,-1,-1,-1,-1],"loss_changes":[1.3322383E2,2.3371536E1,2.6467201E1,2.0806847E1,1.741438E1,3.235794E1,1.5696618E1,1.6143332E1,6.641075E0,8.117542E0,1.655243E1,2.3179333E1,2.4207481E1,6.8318834E0,1.4250296E1,5.3575134E0,1.1220266E1,0E0,6.6202316E0,5.802853E0,1.1142685E1,9.699949E0,6.4680595E0,1.7222742E1,1.013946E1,5.0870605E0,1.2457779E1,8.683529E0,4.39117E0,1.0466366E1,1.47042465E1,0E0,0E0,0E0,0E0,0E0,0E0,0E0,0E0,0E0,0E0,0E0,0E0,0E0,0E0,0E0,0E0,0E0,0E0,0E0,0E0,0E0,0E0,0E0,0E0,0E0,0E0,0E0,0E0,0E0,0E0],"parents":[2147483647,0,0,1,1,2,2,3,3,4,4,5,5,6,6,7,7,8,8,9,9,10,10,11,11,12,12,13,13,14,14,15,15,16,16,18,18,19,19,20,20,21,21,22,22,23,23,24,24,25,25,26,26,27,27,28,28,29,29,30,30],"right_children":[2,4,6,8,10,12,14,16,18,20,22,24,26,28,30,32,34,-1,36,38,40,42,44,46,48,50,52,54,56,58,60,-1,-1,-1,-1,-1,-1,-1,-1,-1,-1,-1,-1,-1,-1,-1,-1,-1,-1,-1,-1,-1,-1,-1,-1,-1,-1,-1,-1,-1,-1],"split_conditions":[4.4027779E-1,3.4782913E-1,6.9E0,2.2231667E1,1.197E2,5.212721E-1,1.175E1,5E0,1.3879195E0,2.9951666E1,2.2133333E1,2.14E1,6E0,3E0,5.5333334E-1,4.9472775E0,3.9150078E0,-3.449925E-3,2.956624E-1,3.8E0,1.12E1,7E0,6.6162763E0,3E0,1.212E2,2.4948125E0,4.3095237E-1,9E-1,6.111111E-1,1.096408E0,4.6650186E0,7.780486E-3,-4.806706E-3,-3.3695824E-3,9.878544E-3,1.580604E-2,8.840895E-3,7.1399086E-3,-5.635577E-4,1.2013354E-2,2.0019063E-3,4.818541E-3,-6.536838E-3,-2.4793718E-3,9.556217E-3,-2.0508978E-3,2.8004448E-3,-8.422906E-3,6.442782E-4,8.612795E-3,-7.0269954E-5,-1.6344076E-2,-6.329194E-3,-1.5442303E-3,8.55272E-3,6.686938E-4,-1.4926332E-2,-1.0830637E-2,2.8179444E-3,-7.1339393E-3,2.765119E-3],"split_indices":[15,15,8,14,2,15,3,3,9,14,14,3,3,11,15,9,9,0,15,3,3,3,5,11,2,9,16,11,15,12,12,0,0,0,0,0,0,0,0,0,0,0,0,0,0,0,0,0,0,0,0,0,0,0,0,0,0,0,0,0,0],"split_type":[0,0,0,0,0,0,0,0,0,0,0,0,0,0,0,0,0,0,0,0,0,0,0,0,0,0,0,0,0,0,0,0,0,0,0,0,0,0,0,0,0,0,0,0,0,0,0,0,0,0,0,0,0,0,0,0,0,0,0,0,0],"sum_hessian":[3.237162E3,1.2546759E3,1.9824861E3,4.0122855E2,8.534473E2,1.5186968E3,4.6378934E2,2.1961356E2,1.8161499E2,6.422883E2,2.1115897E2,8.5904834E2,6.5964844E2,1.2773876E2,3.360506E2,1.2406488E2,9.554867E1,5.9734063E0,1.7564159E2,4.207153E2,2.2157304E2,6.524248E1,1.4591649E2,6.990427E2,1.600056E2,7.117785E1,5.884706E2,1.0891913E2,1.8819635E1,1.7856238E2,1.574882E2,1.1760485E2,6.460031E0,7.9474976E1,1.6073694E1,4.966247E1,1.2597911E2,2.1854002E1,3.988613E2,2.8066622E1,1.9350642E2,3.638707E1,2.8855406E1,8.915908E0,1.3700058E2,4.516468E2,2.4739595E2,1.2833028E2,3.167532E1,1.8780556E1,5.2397293E1,2.9722683E1,5.587479E2,2.15109E1,8.7408226E1,1.461203E1,4.2076054E0,1.2344948E1,1.6621744E2,1.1335916E2,4.4129044E1],"tree_param":{"num_deleted":"0","num_feature":"17","num_nodes":"61","size_leaf_vector":"1"}},{"base_weights":[-1.4015012E-3,2.4755813E-1,-1.6168137E-1,6.502152E-2,3.566427E-1,-2.4211492E-1,-1.782724E-2,4.1065893E-1,-1.6264068E-1,7.5126827E-1,2.730215E-1,3.4356278E-1,-2.7402344E-1,5.8578286E-2,-2.899341E-1,3.5294157E-1,1.019365E0,-7.2620577E-1,-9.636061E-2,-2.547044E-3,7.975553E-1,2.039361E-1,6.4238983E-1,-1.7716819E-1,5.986551E-1,-1.4343826E-1,-4.531137E-1,1.6636267E-1,-1.8524812E-1,-6.491765E-1,-1.2570973E-1,7.4461913E-3,8.877627E-4,2.3709638E-2,1.04623465E-2,-0E0,-1.3729441E-2,-9.592538E-3,-4.6747344E-4,-1.6170017E-4,1.238594E-2,1.4869771E-3,4.984572E-3,-5.5850474E-3,1.0985216E-2,-1.0192966E-2,5.663223E-3,3.4864505E-3,1.7105175E-2,-1.8578704E-3,-1.7264666E-2,-4.946893E-3,-8.879615E-3,1.3930376E-3,6.3837133E-3,-8.692263E-3,-1.1375374E-3,-1.2781562E-2,-2.5283543E-3,-1.0108297E-2,-3.134437E-4],"categories":[],"categories_nodes":[],"categories_segments":[],"categories_sizes":[],"default_left":[0,0,0,0,0,0,0,0,0,0,0,0,0,0,0,0,0,0,0,0,0,0,0,0,0,0,0,0,0,0,0,0,0,0,0,0,0,0,0,0,0,0,0,0,0,0,0,0,0,0,0,0,0,0,0,0,0,0,0,0,0],"id":12,"left_children":[1,3,5,7,9,11,13,15,17,19,21,23,25,27,29,31,33,35,37,-1,39,41,43,45,47,49,51,53,55,57,59,-1,-1,-1,-1,-1,-1,-1,-1,-1,-1,-1,-1,-1,-1,-1,-1,-1,-1,-1,-1,-1,-1,-1,-1,-1,-1,-1,-1,-1,-1],"loss_changes":[1.2940903E2,2.498108E1,2.268496E1,3.7814327E1,2.5318619E1,2.364872E1,1.4966827E1,5.554905E0,1.0156084E1,6.3498077E0,1.6095905E1,8.933811E0,2.7633354E1,1.4590663E1,8.764798E0,7.370487E0,4.126978E-1,4.576124E0,8.80495E0,0E0,4.64167E0,7.3170185E0,1.073172E1,6.4019814E0,7.860758E0,1.1882626E1,8.029236E0,7.0349627E0,6.88024E0,4.1504154E0,5.9773664E0,0E0,0E0,0E0,0E0,0E0,0E0,0E0,0E0,0E0,0E0,0E0,0E0,0E0,0E0,0E0,0E0,0E0,0E0,0E0,0E0,0E0,0E0,0E0,0E0,0E0,0E0,0E0,0E0,0E0,0E0],"parents":[2147483647,0,0,1,1,2,2,3,3,4,4,5,5,6,6,7,7,8,8,9,9,10,10,11,11,12,12,13,13,14,14,15,15,16,16,17,17,18,18,20,20,21,21,22,22,23,23,24,24,25,25,26,26,27,27,28,28,29,29,30,30],"right_children":[2,4,6,8,10,12,14,16,18,20,22,24,26,28,30,32,34,36,38,-1,40,42,44,46,48,50,52,54,56,58,60,-1,-1,-1,-1,-1,-1,-1,-1,-1,-1,-1,-1,-1,-1,-1,-1,-1,-1,-1,-1,-1,-1,-1,-1,-1,-1,-1,-1,-1,-1],"split_conditions":[4.4027779E-1,2.2231667E1,5.6666665E0,4.8E0,3.3473304E-1,4.8E0,2.3E1,6.857143E0,3E0,1.3879195E0,1.215E2,4.770362E-1,5.212721E-1,6.0833335E-1,2.3875E1,3.2222223E0,1.1E2,1.5845834E1,1.4424856E0,-2.547044E-3,7.360552E-1,3.0616667E1,7.625E0,1.7864584E1,1.6570833E1,9E0,1.2E1,1.92E1,2.2045238E1,1.188E2,3.3799725E0,7.4461913E-3,8.877627E-4,2.3709638E-2,1.04623465E-2,-0E0,-1.3729441E-2,-9.592538E-3,-4.6747344E-4,-1.6170017E-4,1.238594E-2,1.4869771E-3,4.984572E-3,-5.5850474E-3,1.0985216E-2,-1.0192966E-2,5.663223E-3,3.4864505E-3,1.7105175E-2,-1.8578704E-3,-1.7264666E-2,-4.946893E-3,-8.879615E-3,1.3930376E-3,6.3837133E-3,-8.692263E-3,-1.1375374E-3,-1.2781562E-2,-2.5283543E-3,-1.0108297E-2,-3.134437E-4],"split_indices":[15,14,8,3,15,3,3,4,6,9,2,15,15,15,4,8,2,14,9,0,12,14,4,14,13,1,3,4,14,2,12,0,0,0,0,0,0,0,0,0,0,0,0,0,0,0,0,0,0,0,0,0,0,0,0,0,0,0,0,0,0],"split_type":[0,0,0,0,0,0,0,0,0,0,0,0,0,0,0,0,0,0,0,0,0,0,0,0,0,0,0,0,0,0,0,0,0,0,0,0,0,0,0,0,0,0,0,0,0,0,0,0,0,0,0,0,0,0,0,0,0,0,0,0,0],"sum_hessian":[3.2429355E3,1.2683665E3,1.9745692E3,4.771154E2,7.9125104E2,1.2632434E3,7.113258E2,1.9034889E2,2.8676648E2,1.3593764E2,6.553134E2,6.3838448E1,1.1994049E3,5.539949E2,1.5733095E2,1.7593025E2,1.4418643E1,2.8354845E1,2.5841165E2,5.7257185E0,1.3021191E2,5.545256E2,1.0078784E2,2.023511E1,4.360334E1,6.9651154E2,5.028934E2,3.8617343E2,1.6782146E2,4.7420567E1,1.09910385E2,1.145888E2,6.1341446E1,3.2269034E0,1.1191739E1,5.9227347E0,2.243211E1,2.5409231E1,2.3300241E2,5.217739E0,1.2499418E2,3.148944E2,2.3963116E2,8.182295E0,9.260555E1,1.1086882E1,9.148228E0,2.7735662E1,1.5867677E1,6.859232E2,1.0588341E1,2.811395E2,2.217539E2,3.060358E2,8.013763E1,3.3698368E1,1.3412308E2,3.1418615E1,1.6001951E1,1.57336235E1,9.417676E1],"tree_param":{"num_deleted":"0","num_feature":"17","num_nodes":"61","size_leaf_vector":"1"}},{"base_weights":[-3.922263E-3,2.3851784E-1,-1.596183E-1,5.1223714E-2,3.4960938E-1,-2.383377E-1,-1.5410281E-2,3.132071E-1,-1.8716498E-1,7.35175E-1,2.673867E-1,-1.2533724E-1,-3.866803E-1,1.1522733E-1,-1.7706385E-1,1.0905884E-2,4.0410343E-1,-5.629035E-1,-1.147442E-1,-1.4396325E-1,8.0228037E-1,1.9315058E-1,6.251751E-1,-5.946241E-2,-4.3363592E-1,5.000154E-1,-4.3548948E-1,2.1988837E-1,-1.9432162E-1,9.258432E-2,-3.623279E-1,1.5690804E-2,-2.1359206E-3,8.367776E-3,1.097201E-3,-1.0375328E-2,-1.3489868E-3,-5.385458E-3,4.3682405E-5,-1.0855828E-2,5.073718E-3,1.4077655E-2,5.5845478E-3,4.6092407E-3,1.2795791E-3,6.256671E-3,1.6829547E-2,-2.0249044E-3,2.6721747E-3,-8.557289E-3,1.4161522E-3,-0E0,1.5676778E-2,-6.8160337E-3,3.0257946E-3,-4.5152237E-3,4.6187355E-3,-8.193535E-3,9.549318E-4,-6.2483116E-3,4.8126723E-3,-7.6141204E-3,1.1547721E-3],"categories":[],"categories_nodes":[],"categories_segments":[],"categories_sizes":[],"default_left":[0,0,0,0,0,0,0,0,0,0,0,0,0,0,0,0,0,0,0,0,0,0,0,0,0,0,0,0,0,0,0,0,0,0,0,0,0,0,0,0,0,0,0,0,0,0,0,0,0,0,0,0,0,0,0,0,0,0,0,0,0,0,0],"id":13,"left_children":[1,3,5,7,9,11,13,15,17,19,21,23,25,27,29,31,33,35,37,39,41,43,45,47,49,51,53,55,57,59,61,-1,-1,-1,-1,-1,-1,-1,-1,-1,-1,-1,-1,-1,-1,-1,-1,-1,-1,-1,-1,-1,-1,-1,-1,-1,-1,-1,-1,-1,-1,-1,-1],"loss_changes":[1.2256128E2,2.6124481E1,2.2305855E1,2.9815731E1,2.4376099E1,2.104927E1,1.4895883E1,5.9955254E0,6.264433E0,8.6393585E0,1.6831684E1,1.4463432E1,2.390982E1,1.2583975E1,1.6015266E1,9.676177E0,8.777353E0,1.937973E0,6.3963413E0,3.2323804E0,6.988022E0,6.6139584E0,1.0138031E1,1.1167973E1,1.0001253E1,8.534046E0,8.4952545E0,1.4123652E1,9.315926E0,1.5358129E1,1.2957666E1,0E0,0E0,0E0,0E0,0E0,0E0,0E0,0E0,0E0,0E0,0E0,0E0,0E0,0E0,0E0,0E0,0E0,0E0,0E0,0E0,0E0,0E0,0E0,0E0,0E0,0E0,0E0,0E0,0E0,0E0,0E0,0E0],"parents":[2147483647,0,0,1,1,2,2,3,3,4,4,5,5,6,6,7,7,8,8,9,9,10,10,11,11,12,12,13,13,14,14,15,15,16,16,17,17,18,18,19,19,20,20,21,21,22,22,23,23,24,24,25,25,26,26,27,27,28,28,29,29,30,30],"right_children":[2,4,6,8,10,12,14,16,18,20,22,24,26,28,30,32,34,36,38,40,42,44,46,48,50,52,54,56,58,60,62,-1,-1,-1,-1,-1,-1,-1,-1,-1,-1,-1,-1,-1,-1,-1,-1,-1,-1,-1,-1,-1,-1,-1,-1,-1,-1,-1,-1,-1,-1,-1,-1],"split_conditions":[4.4027779E-1,2.2231667E1,5.7934594E0,5.25E0,3.3473304E-1,5.212721E-1,5.5333334E-1,1.5483334E1,1.6393603E0,1.8888888E0,1.214E2,2.14E1,4.8E0,2.3086657E1,1.24E1,4.632801E-1,3.4E0,3E0,6.5460906E0,1.183E2,3E0,3.968254E-1,1.8222221E1,3.8395061E0,1.212E2,1.662037E1,6.285714E0,8.5E0,2.475E1,6.8E0,4.9E0,1.5690804E-2,-2.1359206E-3,8.367776E-3,1.097201E-3,-1.0375328E-2,-1.3489868E-3,-5.385458E-3,4.3682405E-5,-1.0855828E-2,5.073718E-3,1.4077655E-2,5.5845478E-3,4.6092407E-3,1.2795791E-3,6.256671E-3,1.6829547E-2,-2.0249044E-3,2.6721747E-3,-8.557289E-3,1.4161522E-3,-0E0,1.5676778E-2,-6.8160337E-3,3.0257946E-3,-4.5152237E-3,4.6187355E-3,-8.193535E-3,9.549318E-4,-6.2483116E-3,4.8126723E-3,-7.6141204E-3,1.1547721E-3],"split_indices":[15,14,9,3,15,15,15,14,9,8,2,3,3,5,3,12,8,1,5,2,1,15,4,12,2,14,8,4,4,8,11,0,0,0,0,0,0,0,0,0,0,0,0,0,0,0,0,0,0,0,0,0,0,0,0,0,0,0,0,0,0,0,0],"split_type":[0,0,0,0,0,0,0,0,0,0,0,0,0,0,0,0,0,0,0,0,0,0,0,0,0,0,0,0,0,0,0,0,0,0,0,0,0,0,0,0,0,0,0,0,0,0,0,0,0,0,0,0,0,0,0,0,0,0,0,0,0,0,0],"sum_hessian":[3.2467363E3,1.2678973E3,1.978839E3,4.7462552E2,7.932718E2,1.2768623E3,7.019767E2,2.2729796E2,2.4732756E2,1.3699039E2,6.562814E2,7.280342E2,5.4882806E2,3.861465E2,3.1583014E2,5.4382973E1,1.72915E2,3.7694088E1,2.0963348E2,8.971359E0,1.2801903E2,5.4597504E2,1.1030634E2,6.0233344E2,1.2570075E2,2.7577679E1,5.212504E2,2.902989E2,9.584763E1,1.2735947E2,1.8847069E2,6.9725275E0,4.7410442E1,1.14566124E2,5.8348866E1,2.7837046E1,9.857042E0,6.855472E1,1.4107877E2,4.483633E0,4.4877257E0,9.3102875E1,3.4916157E1,2.5569095E2,2.9028412E2,8.088145E1,2.9424898E1,4.5788324E2,1.4445018E2,9.969616E1,2.6004593E1,1.4398502E1,1.3179175E1,5.0303055E2,1.8219852E1,4.1981277E1,2.4831761E2,4.0838688E1,5.5008945E1,3.856881E1,8.879066E1,1.4115166E2,4.7319027E1],"tree_param":{"num_deleted":"0","num_feature":"17","num_nodes":"63","size_leaf_vector":"1"}},{"base_weights":[-4.7617666E-3,2.4752626E-1,-1.6673565E-1,7.838129E-2,3.4508654E-1,-2.2651021E-1,2.4052693E-2,3.2887042E-1,-1.0216745E-1,7.2841054E-1,2.6025662E-1,-1.113867E-1,-3.7528145E-1,3.239498E-1,-6.4991966E-2,-2.893642E-1,3.8053954E-1,-7.535405E-1,-4.113613E-2,8.6546355E-1,2.983537E-1,2.0099196E-1,6.14317E-1,-4.408721E-2,-4.0341368E-1,9.9854626E-2,-4.35086E-1,1.0496528E-1,6.8621325E-1,1.6659488E-1,-3.210456E-1,1.6054618E-3,-1.3428949E-2,1.4875325E-2,4.4283485E-3,-1.8213551E-2,-3.6206981E-3,-2.9620994E-3,2.1433497E-3,7.393276E-3,1.5180648E-2,-3.14794E-4,2.0185843E-2,3.277045E-3,-6.8344977E-3,-2.9272882E-3,1.1153106E-2,-2.578169E-3,2.86801E-3,-7.924402E-3,2.1529421E-3,2.9522725E-3,-8.916573E-3,-8.374418E-3,-5.073791E-3,-3.4901926E-3,5.6727845E-3,1.5529841E-2,1.5624708E-3,3.6141975E-3,-8.52374E-3,-7.525676E-3,3.2004967E-4],"categories":[],"categories_nodes":[],"categories_segments":[],"categories_sizes":[],"default_left":[0,0,0,0,0,0,0,0,0,0,0,0,0,0,0,0,0,0,0,0,0,0,0,0,0,0,0,0,0,0,0,0,0,0,0,0,0,0,0,0,0,0,0,0,0,0,0,0,0,0,0,0,0,0,0,0,0,0,0,0,0,0,0],"id":14,"left_children":[1,3,5,7,9,11,13,15,17,19,21,23,25,27,29,31,33,35,37,39,41,43,45,47,49,51,53,55,57,59,61,-1,-1,-1,-1,-1,-1,-1,-1,-1,-1,-1,-1,-1,-1,-1,-1,-1,-1,-1,-1,-1,-1,-1,-1,-1,-1,-1,-1,-1,-1,-1,-1],"loss_changes":[1.3249036E2,2.0607994E1,2.267937E1,2.1280283E1,2.5253113E1,2.548011E1,1.2726453E1,6.441309E0,1.02100115E1,7.4974213E0,1.3189941E1,1.6473972E1,1.886287E1,8.107284E0,2.1556242E1,4.1942215E0,8.252411E0,4.20409E0,7.405833E0,4.8858414E0,1.3451809E1,7.530607E0,1.0884769E1,2.1533567E1,1.1723862E1,4.9041924E0,6.298645E0,6.8074512E0,7.5755825E0,1.0743477E1,1.1418991E1,0E0,0E0,0E0,0E0,0E0,0E0,0E0,0E0,0E0,0E0,0E0,0E0,0E0,0E0,0E0,0E0,0E0,0E0,0E0,0E0,0E0,0E0,0E0,0E0,0E0,0E0,0E0,0E0,0E0,0E0,0E0,0E0],"parents":[2147483647,0,0,1,1,2,2,3,3,4,4,5,5,6,6,7,7,8,8,9,9,10,10,11,11,12,12,13,13,14,14,15,15,16,16,17,17,18,18,19,19,20,20,21,21,22,22,23,23,24,24,25,25,26,26,27,27,28,28,29,29,30,30],"right_children":[2,4,6,8,10,12,14,16,18,20,22,24,26,28,30,32,34,36,38,40,42,44,46,48,50,52,54,56,58,60,62,-1,-1,-1,-1,-1,-1,-1,-1,-1,-1,-1,-1,-1,-1,-1,-1,-1,-1,-1,-1,-1,-1,-1,-1,-1,-1,-1,-1,-1,-1,-1,-1],"split_conditions":[4.4027779E-1,2.2045238E1,6.9E0,5E0,3.3473304E-1,5.212721E-1,1.12E1,1.8559215E0,1.069E2,3E0,1.219E2,2.14E1,6E0,1.177E2,5.5333334E-1,2.3033574E0,2.6243386E0,6.8E0,4.794673E0,1.126E2,4.2007575E0,3.8203335E1,8.6E0,3E0,1.212E2,7.1E0,2.2531666E1,2.4293333E1,1.935492E0,9.191784E0,3.5E0,1.6054618E-3,-1.3428949E-2,1.4875325E-2,4.4283485E-3,-1.8213551E-2,-3.6206981E-3,-2.9620994E-3,2.1433497E-3,7.393276E-3,1.5180648E-2,-3.14794E-4,2.0185843E-2,3.277045E-3,-6.8344977E-3,-2.9272882E-3,1.1153106E-2,-2.578169E-3,2.86801E-3,-7.924402E-3,2.1529421E-3,2.9522725E-3,-8.916573E-3,-8.374418E-3,-5.073791E-3,-3.4901926E-3,5.6727845E-3,1.5529841E-2,1.5624708E-3,3.6141975E-3,-8.52374E-3,-7.525676E-3,3.2004967E-4],"split_indices":[15,14,8,3,15,15,3,6,2,1,2,3,3,2,15,5,5,3,6,2,12,13,4,11,2,4,14,13,12,6,11,0,0,0,0,0,0,0,0,0,0,0,0,0,0,0,0,0,0,0,0,0,0,0,0,0,0,0,0,0,0,0,0],"split_type":[0,0,0,0,0,0,0,0,0,0,0,0,0,0,0,0,0,0,0,0,0,0,0,0,0,0,0,0,0,0,0,0,0,0,0,0,0,0,0,0,0,0,0,0,0,0,0,0,0,0,0,0,0,0,0,0,0,0,0,0,0,0,0],"sum_hessian":[3.2419658E3,1.2658743E3,1.9760917E3,4.6597583E2,7.998984E2,1.5071394E3,4.689522E2,1.9641794E2,2.695579E2,1.4251727E2,6.573811E2,8.5284875E2,6.5429065E2,1.08561165E2,3.6039105E2,1.3916255E1,1.8250168E2,2.1446978E1,2.4811092E2,1.063529E2,3.6164375E1,5.6570605E2,9.167506E1,6.9562366E2,1.5722513E2,7.188438E1,5.8240625E2,6.9383E1,3.9178158E1,1.8805328E2,1.7233777E2,8.20957E0,5.7066846E0,1.9185347E1,1.6331633E2,9.869035E0,1.1577943E1,1.3560896E2,1.12501945E2,3.444908E1,7.190382E1,2.7922016E1,8.242358E0,5.5034467E2,1.53613825E1,1.2652525E1,7.902253E1,4.5160797E2,2.4401567E2,1.2777046E2,2.9454674E1,6.424343E1,7.6409483E0,2.3723636E2,3.4516992E2,3.0192808E1,3.9190197E1,2.3062763E1,1.6115393E1,1.7153519E2,1.6518087E1,1.12454025E2,5.988374E1],"tree_param":{"num_deleted":"0","num_feature":"17","num_nodes":"63","size_leaf_vector":"1"}},{"base_weights":[-3.8557635E-5,2.349433E-1,-1.6530666E-1,3.7614286E-1,1.2189635E-1,8.6400114E-2,-2.0414115E-1,2.4639913E-1,5.690763E-1,1.0391623E-2,2.9685014E-1,3.2906112E-1,-0E0,-2.938225E-1,-6.716146E-2,4.3999717E-1,-3.4957824E-3,6.3865745E-1,1.5773188E-1,-1.8359974E-1,1.1525581E-1,3.0104326E-2,4.0739575E-1,-1.2632778E-2,6.64338E-1,-3.2329824E-2,1.4400358E-2,-1.5621896E-1,-4.5351833E-1,-9.4665104E-4,-3.1698993E-1,7.4538873E-3,-1.4455563E-3,-4.550377E-3,1.9575174E-3,5.955854E-3,1.2971246E-2,-5.246884E-3,1.132246E-2,1.9430211E-3,-5.1026656E-3,1.0707719E-2,7.978317E-4,1.9811902E-3,-1.2068215E-2,7.165852E-3,1.2135898E-3,-7.654585E-3,5.97068E-3,1.9659504E-2,2.0316644E-3,-1.2153292E-3,9.589217E-3,-1.1890101E-3,-6.6431663E-3,-7.1811667E-3,2.236716E-3,-1.9886377E-3,3.954192E-3,-9.41226E-3,-8.670217E-4],"categories":[],"categories_nodes":[],"categories_segments":[],"categories_sizes":[],"default_left":[0,0,0,0,0,0,0,0,0,0,0,0,0,0,0,0,0,0,0,0,0,0,0,0,0,0,0,0,0,0,0,0,0,0,0,0,0,0,0,0,0,0,0,0,0,0,0,0,0,0,0,0,0,0,0,0,0,0,0,0,0],"id":15,"left_children":[1,3,5,7,9,11,13,15,17,19,21,23,25,27,29,31,33,35,37,39,41,43,45,47,49,51,-1,53,55,57,59,-1,-1,-1,-1,-1,-1,-1,-1,-1,-1,-1,-1,-1,-1,-1,-1,-1,-1,-1,-1,-1,-1,-1,-1,-1,-1,-1,-1,-1,-1],"loss_changes":[1.2583898E2,2.0982727E1,1.8707275E1,1.41736145E1,1.4354498E1,5.189519E0,2.0052559E1,1.7554766E1,6.1428986E0,9.303662E0,8.205009E0,7.914761E0,6.264882E0,2.1430923E1,1.0674158E1,7.1932297E0,6.537218E0,1.01048355E1,1.1775833E1,8.231722E0,1.0675493E1,7.260342E0,4.6288223E0,6.974914E0,1.0786063E1,5.8496656E0,0E0,1.1577026E1,8.956657E0,1.8613426E1,1.0698894E1,0E0,0E0,0E0,0E0,0E0,0E0,0E0,0E0,0E0,0E0,0E0,0E0,0E0,0E0,0E0,0E0,0E0,0E0,0E0,0E0,0E0,0E0,0E0,0E0,0E0,0E0,0E0,0E0,0E0,0E0],"parents":[2147483647,0,0,1,1,2,2,3,3,4,4,5,5,6,6,7,7,8,8,9,9,10,10,11,11,12,12,13,13,14,14,15,15,16,16,17,17,18,18,19,19,20,20,21,21,22,22,23,23,24,24,25,25,27,27,28,28,29,29,30,30],"right_children":[2,4,6,8,10,12,14,16,18,20,22,24,26,28,30,32,34,36,38,40,42,44,46,48,50,52,-1,54,56,58,60,-1,-1,-1,-1,-1,-1,-1,-1,-1,-1,-1,-1,-1,-1,-1,-1,-1,-1,-1,-1,-1,-1,-1,-1,-1,-1,-1,-1,-1,-1],"split_conditions":[4.449074E-1,3.75E-1,7E0,8.9E0,1.17E2,4.75E0,5.6908092E0,5.25E0,1.64E1,9.3E0,1.6688046E0,3.4444444E0,6.3385944E0,5.1666665E-1,2.38E1,4.4733515E-1,2.4E0,3.6E0,1.92E1,5.6E0,9.2E0,4E0,4.3376625E-1,3.844133E0,4.8037534E0,7.547701E0,1.4400358E-2,2.14E1,6.125E0,1.62E1,2.5444445E1,7.4538873E-3,-1.4455563E-3,-4.550377E-3,1.9575174E-3,5.955854E-3,1.2971246E-2,-5.246884E-3,1.132246E-2,1.9430211E-3,-5.1026656E-3,1.0707719E-2,7.978317E-4,1.9811902E-3,-1.2068215E-2,7.165852E-3,1.2135898E-3,-7.654585E-3,5.97068E-3,1.9659504E-2,2.0316644E-3,-1.2153292E-3,9.589217E-3,-1.1890101E-3,-6.6431663E-3,-7.1811667E-3,2.236716E-3,-1.9886377E-3,3.954192E-3,-9.41226E-3,-8.670217E-4],"split_indices":[15,15,3,4,2,3,9,3,3,4,12,8,6,15,3,16,7,7,4,3,3,1,15,5,9,9,0,3,8,4,4,0,0,0,0,0,0,0,0,0,0,0,0,0,0,0,0,0,0,0,0,0,0,0,0,0,0,0,0,0,0],"split_type":[0,0,0,0,0,0,0,0,0,0,0,0,0,0,0,0,0,0,0,0,0,0,0,0,0,0,0,0,0,0,0,0,0,0,0,0,0,0,0,0,0,0,0,0,0,0,0,0,0,0,0,0,0,0,0,0,0,0,0,0,0],"sum_hessian":[3.2399832E3,1.3360841E3,1.903899E3,5.9074445E2,7.4533966E2,2.5213486E2,1.6517642E3,3.5625113E2,2.3449329E2,4.579592E2,2.8738043E2,6.45996E1,1.8753526E2,9.948492E2,6.569149E2,2.018651E2,1.5438605E2,1.9886491E2,3.562838E1,1.5833197E2,2.9962726E2,8.6195786E1,2.0118465E2,3.1403553E1,3.319605E1,1.8187193E2,5.6633325E0,5.373676E2,4.574816E2,5.2192914E2,1.3498578E2,1.817211E2,2.0143988E1,4.8837105E1,1.05548935E2,1.01956474E2,9.690844E1,1.891822E1,1.6710157E1,5.2253128E1,1.0607884E2,2.5771435E1,2.738558E2,7.802729E1,8.16849E0,1.6101357E2,4.0171085E1,1.4810098E1,1.6593454E1,1.3648679E1,1.9547369E1,1.709827E2,1.0889239E1,4.2908298E2,1.0828461E2,4.360835E2,2.1398129E1,3.503699E2,1.7155925E2,5.884955E1,7.613624E1],"tree_param":{"num_deleted":"0","num_feature":"17","num_nodes":"61","size_leaf_vector":"1"}},{"base_weights":[-9.233738E-3,2.2048137E-1,-1.7021708E-1,5.7766363E-2,3.1466788E-1,3.3031407E-1,-1.9062924E-1,3.2477584E-1,-1.6891046E-1,7.3809165E-1,2.3122069E-1,1.6856062E-3,8.126763E-1,-2.770776E-1,-4.5356058E-2,-0E0,4.2402384E-1,-1.9719808E-1,7.4709004E-1,-4.9838494E-3,7.813316E-1,1.7964227E-1,5.230309E-1,-3.334142E-1,3.336759E-1,1.0193992E0,-6.3115214E-3,-1.4988853E-1,-4.656578E-1,3.0491473E-2,-2.9602957E-1,1.6417092E-2,-2.9051662E-3,1.6205156E-2,5.3771837E-3,-3.5223644E-3,5.1781894E-3,1.8329509E-2,-0E0,2.4903794E-3,1.2548728E-2,1.956196E-2,2.4362411E-3,-4.4901418E-3,9.633582E-3,-8.528053E-3,2.3806707E-3,9.476498E-3,-5.889494E-3,1.81945E-2,-4.351803E-4,-1.7916663E-3,-7.705134E-3,1.058561E-3,-7.6078624E-3,2.038778E-3,-1.1181484E-3,-1.0308763E-2,-2.5350873E-3],"categories":[],"categories_nodes":[],"categories_segments":[],"categories_sizes":[],"default_left":[0,0,0,0,0,0,0,0,0,0,0,0,0,0,0,0,0,0,0,0,0,0,0,0,0,0,0,0,0,0,0,0,0,0,0,0,0,0,0,0,0,0,0,0,0,0,0,0,0,0,0,0,0,0,0,0,0,0,0],"id":16,"left_children":[1,3,5,7,9,11,13,15,17,19,21,23,25,27,29,31,33,35,37,-1,39,41,43,45,47,49,-1,51,53,55,57,-1,-1,-1,-1,-1,-1,-1,-1,-1,-1,-1,-1,-1,-1,-1,-1,-1,-1,-1,-1,-1,-1,-1,-1,-1,-1,-1,-1],"loss_changes":[1.19470085E2,2.0126968E1,1.9386639E1,2.9860647E1,2.891166E1,1.11328535E1,2.2750122E1,7.3105316E0,6.617638E0,6.8348694E0,1.0067768E1,5.1251793E0,8.142225E0,2.697985E1,1.3220707E1,1.1908048E1,5.8587723E0,5.7259836E0,2.3130207E0,0E0,4.5801544E0,9.267178E0,1.1263758E1,2.9688492E0,5.7478333E0,6.399605E0,0E0,6.8864527E0,1.2133438E1,6.015148E0,7.410774E0,0E0,0E0,0E0,0E0,0E0,0E0,0E0,0E0,0E0,0E0,0E0,0E0,0E0,0E0,0E0,0E0,0E0,0E0,0E0,0E0,0E0,0E0,0E0,0E0,0E0,0E0,0E0,0E0],"parents":[2147483647,0,0,1,1,2,2,3,3,4,4,5,5,6,6,7,7,8,8,9,9,10,10,11,11,12,12,13,13,14,14,15,15,16,16,17,17,18,18,20,20,21,21,22,22,23,23,24,24,25,25,27,27,28,28,29,29,30,30],"right_children":[2,4,6,8,10,12,14,16,18,20,22,24,26,28,30,32,34,36,38,-1,40,42,44,46,48,50,-1,52,54,56,58,-1,-1,-1,-1,-1,-1,-1,-1,-1,-1,-1,-1,-1,-1,-1,-1,-1,-1,-1,-1,-1,-1,-1,-1,-1,-1,-1,-1],"split_conditions":[4.4597068E-1,2.2316668E1,4.8E0,5.25E0,3.3473304E-1,3.4086723E0,5.7E0,1.5483334E1,4.4319603E-1,6E-1,1.219E2,5.049603E-1,6.1333334E-1,5.295238E-1,3.4756668E1,4.943093E-1,2E0,5.6908092E0,7.8E0,-4.9838494E-3,2.1E0,1.9916666E1,8.6E0,1.9791666E1,6.230159E-1,1.23E2,-6.3115214E-3,2.64E1,6E0,5.586508E-1,3.4642593E1,1.6417092E-2,-2.9051662E-3,1.6205156E-2,5.3771837E-3,-3.5223644E-3,5.1781894E-3,1.8329509E-2,-0E0,2.4903794E-3,1.2548728E-2,1.956196E-2,2.4362411E-3,-4.4901418E-3,9.633582E-3,-8.528053E-3,2.3806707E-3,9.476498E-3,-5.889494E-3,1.81945E-2,-4.351803E-4,-1.7916663E-3,-7.705134E-3,1.058561E-3,-7.6078624E-3,2.038778E-3,-1.1181484E-3,-1.0308763E-2,-2.5350873E-3],"split_indices":[15,14,3,3,15,6,8,14,15,10,2,15,15,15,13,12,3,9,3,0,8,13,4,14,16,2,0,3,3,15,14,0,0,0,0,0,0,0,0,0,0,0,0,0,0,0,0,0,0,0,0,0,0,0,0,0,0,0,0],"split_type":[0,0,0,0,0,0,0,0,0,0,0,0,0,0,0,0,0,0,0,0,0,0,0,0,0,0,0,0,0,0,0,0,0,0,0,0,0,0,0,0,0,0,0,0,0,0,0,0,0,0,0,0,0,0,0,0,0,0,0],"sum_hessian":[3.2299834E3,1.3291146E3,1.9008687E3,4.9024838E2,8.388663E2,7.279038E1,1.8280782E3,2.2625383E2,2.6399457E2,1.3584781E2,7.0301843E2,4.4544445E1,2.8245934E1,1.1428599E3,6.852185E2,5.3174294E1,1.7307953E2,2.5734915E2,6.6454277E0,4.477871E0,1.3136993E2,6.0034656E2,1.0267192E2,2.1199635E1,2.3344812E1,2.4768509E1,3.477426E0,6.8538556E2,4.5747427E2,5.245868E2,1.6063168E2,7.4749193E0,4.5699375E1,1.2472223E1,1.6060732E2,2.4104857E2,1.630058E1,3.4477088E0,3.1977189E0,1.3970785E1,1.17399155E2,6.4466257E0,5.938999E2,1.2902396E1,8.976952E1,1.5014397E1,6.1852365E0,1.7144608E1,6.200204E0,2.1055471E1,3.7130373E0,6.383029E2,4.708263E1,3.6411705E1,4.2106256E2,2.6375775E2,2.6082904E2,3.615412E1,1.2447756E2],"tree_param":{"num_deleted":"0","num_feature":"17","num_nodes":"59","size_leaf_vector":"1"}},{"base_weights":[4.8659435E-3,2.3066682E-1,-1.5613574E-1,3.6604556E-1,1.2484064E-1,-2.3461984E-1,-1.29229855E-2,2.7780247E-1,7.26566E-1,4.6625316E-2,3.7743375E-1,2.4448104E-1,-2.6922014E-1,1.2893935E-1,-1.7178363E-1,5.533818E-1,2.032779E-1,9.261157E-1,2.8985178E-1,-2.8100666E-2,2.1084957E-1,-3.7619898E-1,4.5350793E-1,6.700862E-2,1.064195E0,-1.5605119E-1,-4.051265E-1,2.2295491E-1,-1.5091981E-1,1.6424607E-1,-3.0863267E-1,-7.2060195E-3,9.048415E-3,-2.549465E-3,4.4710035E-3,1.4635939E-2,-0E0,-3.468255E-3,1.2569162E-2,2.1395914E-3,-1.723058E-3,4.948657E-3,-6.2871985E-3,-9.372178E-3,5.1400983E-3,5.137478E-3,1.4043192E-2,-3.40414E-4,1.3573531E-2,1.7297427E-3,1.9914443E-2,-5.65498E-4,-4.3782583E-3,-6.407472E-3,4.5879595E-3,-7.035732E-3,4.159949E-3,-5.867876E-3,1.3038275E-3,-5.3402334E-3,6.7438637E-3,-5.5276337E-3,4.3641827E-3],"categories":[],"categories_nodes":[],"categories_segments":[],"categories_sizes":[],"default_left":[0,0,0,0,0,0,0,0,0,0,0,0,0,0,0,0,0,0,0,0,0,0,0,0,0,0,0,0,0,0,0,0,0,0,0,0,0,0,0,0,0,0,0,0,0,0,0,0,0,0,0,0,0,0,0,0,0,0,0,0,0,0,0],"id":17,"left_children":[1,3,5,7,9,11,13,15,17,19,21,23,25,27,29,31,33,35,37,39,41,43,45,47,49,51,53,55,57,59,61,-1,-1,-1,-1,-1,-1,-1,-1,-1,-1,-1,-1,-1,-1,-1,-1,-1,-1,-1,-1,-1,-1,-1,-1,-1,-1,-1,-1,-1,-1,-1,-1],"loss_changes":[1.1712866E2,1.8877266E1,2.0950806E1,1.7834442E1,1.4671515E1,2.0131721E1,1.5114349E1,9.146046E0,8.882923E0,7.2516274E0,1.032514E1,1.0951883E1,1.6977898E1,9.321345E0,1.4751344E1,6.2007694E0,1.4026275E1,4.456703E0,1.1573017E1,6.0434585E0,1.4498676E1,3.2957933E0,7.4513016E0,5.7736893E0,2.5665083E0,9.986993E0,1.0221359E1,1.0697481E1,5.3318577E0,1.4109481E1,9.001448E0,0E0,0E0,0E0,0E0,0E0,0E0,0E0,0E0,0E0,0E0,0E0,0E0,0E0,0E0,0E0,0E0,0E0,0E0,0E0,0E0,0E0,0E0,0E0,0E0,0E0,0E0,0E0,0E0,0E0,0E0,0E0,0E0],"parents":[2147483647,0,0,1,1,2,2,3,3,4,4,5,5,6,6,7,7,8,8,9,9,10,10,11,11,12,12,13,13,14,14,15,15,16,16,17,17,18,18,19,19,20,20,21,21,22,22,23,23,24,24,25,25,26,26,27,27,28,28,29,29,30,30],"right_children":[2,4,6,8,10,12,14,16,18,20,22,24,26,28,30,32,34,36,38,40,42,44,46,48,50,52,54,56,58,60,62,-1,-1,-1,-1,-1,-1,-1,-1,-1,-1,-1,-1,-1,-1,-1,-1,-1,-1,-1,-1,-1,-1,-1,-1,-1,-1,-1,-1,-1,-1,-1,-1],"split_conditions":[4.4666666E-1,3.75E-1,5.7934594E0,2.9718334E1,1.2E2,5.2E0,5.5333334E-1,3.9506173E0,1.6E1,3.0851852E1,8.0372024E-1,2.0805555E1,5.212721E-1,2.3086657E1,1.0581635E1,8E-1,1.7864584E1,3.5823334E1,1.92E1,2.7901235E0,3.695E1,5.4850535E0,2.0428572E1,2.9511933E0,4.5970884E-1,1.42E1,6.285714E0,3.2366943E0,2.5444445E1,6.8E0,7.6452637E0,-7.2060195E-3,9.048415E-3,-2.549465E-3,4.4710035E-3,1.4635939E-2,-0E0,-3.468255E-3,1.2569162E-2,2.1395914E-3,-1.723058E-3,4.948657E-3,-6.2871985E-3,-9.372178E-3,5.1400983E-3,5.137478E-3,1.4043192E-2,-3.40414E-4,1.3573531E-2,1.7297427E-3,1.9914443E-2,-5.65498E-4,-4.3782583E-3,-6.407472E-3,4.5879595E-3,-7.035732E-3,4.159949E-3,-5.867876E-3,1.3038275E-3,-5.3402334E-3,6.7438637E-3,-5.5276337E-3,4.3641827E-3],"split_indices":[15,15,9,14,2,3,15,5,3,14,12,14,15,5,5,7,14,14,4,9,13,9,4,12,16,3,8,6,4,8,12,0,0,0,0,0,0,0,0,0,0,0,0,0,0,0,0,0,0,0,0,0,0,0,0,0,0,0,0,0,0,0,0],"split_type":[0,0,0,0,0,0,0,0,0,0,0,0,0,0,0,0,0,0,0,0,0,0,0,0,0,0,0,0,0,0,0,0,0,0,0,0,0,0,0,0,0,0,0,0,0,0,0,0,0,0,0,0,0,0,0,0,0,0,0,0,0,0,0],"sum_hessian":[3.2190251E3,1.3414094E3,1.8776157E3,5.850332E2,7.563762E2,1.2096866E3,6.67929E2,4.7251547E2,1.12517715E2,5.801801E2,1.7619614E2,7.9911285E1,1.1297754E3,3.507722E2,3.1715686E2,9.769718E1,3.7481827E2,7.5629326E1,3.6888393E1,3.964764E2,1.8370367E2,1.5102012E1,1.6109413E2,6.7013405E1,1.28978815E1,6.1993774E2,5.0983765E2,2.644076E2,8.636459E1,9.037534E1,2.2678152E2,4.238843E0,9.345834E1,7.648861E1,2.9832968E2,7.089372E1,4.7355976E0,1.8669243E1,1.821915E1,1.3150436E2,2.6497205E2,1.5500383E2,2.8699846E1,1.1875803E1,3.2262084E0,1.3466722E2,2.6426912E1,6.0577286E1,6.4361167E0,3.7175837E0,9.180298E0,3.3912778E2,2.8080997E2,4.9210782E2,1.7729832E1,1.898683E1,2.4542075E2,4.3703403E1,4.2661186E1,3.1388075E1,5.898727E1,2.0607777E2,2.0703747E1],"tree_param":{"num_deleted":"0","num_feature":"17","num_nodes":"63","size_leaf_vector":"1"}},{"base_weights":[2.08801E-3,2.4045877E-1,-1.5009221E-1,4.7185996E-1,1.6343844E-1,-2.2020361E-1,-2.5357423E-2,3.3724377E-1,8.5538536E-1,6.1836842E-2,3.731135E-1,-9.807518E-2,-3.699369E-1,4.5364093E-2,-2.7644205E-1,4.108785E-1,-2.5338998E-1,-1.1409E-1,9.615873E-1,5.181016E-1,3.568468E-2,9.013184E-1,2.7257907E-1,-6.267001E-2,-5.6425935E-1,2.4704571E-1,-4.5583E-1,-1.8324966E-2,3.8591993E-1,-8.07264E-1,-1.4462475E-1,3.3530458E-3,8.220222E-3,-0E0,-1.4857343E-2,-8.722844E-3,4.5731068E-3,6.7360983E-3,1.5849479E-2,-1.9599283E-3,1.1087419E-2,-3.6737404E-3,1.5086721E-3,-0E0,1.504464E-2,1.3231318E-3,7.1872873E-3,-6.802806E-3,-3.75273E-4,-4.3491633E-3,-1.6603574E-2,5.2309404E-3,-8.586549E-3,-8.713239E-3,-4.7704717E-3,2.756996E-3,-2.2081912E-3,7.3701343E-3,-4.267649E-3,-0E0,-1.4701395E-2,-9.163599E-3,-3.9489986E-4],"categories":[],"categories_nodes":[],"categories_segments":[],"categories_sizes":[],"default_left":[0,0,0,0,0,0,0,0,0,0,0,0,0,0,0,0,0,0,0,0,0,0,0,0,0,0,0,0,0,0,0,0,0,0,0,0,0,0,0,0,0,0,0,0,0,0,0,0,0,0,0,0,0,0,0,0,0,0,0,0,0,0,0],"id":18,"left_children":[1,3,5,7,9,11,13,15,17,19,21,23,25,27,29,31,33,35,37,39,41,43,45,47,49,51,53,55,57,59,61,-1,-1,-1,-1,-1,-1,-1,-1,-1,-1,-1,-1,-1,-1,-1,-1,-1,-1,-1,-1,-1,-1,-1,-1,-1,-1,-1,-1,-1,-1,-1,-1],"loss_changes":[1.17947426E2,2.2129875E1,1.716951E1,1.5229874E1,2.003759E1,2.2809143E1,1.2895978E1,1.0402716E1,8.85442E0,7.3367805E0,1.5483124E1,1.1127539E1,3.0203545E1,1.2352342E1,1.0475007E1,4.991047E0,4.363388E0,1.919145E0,2.6436462E0,5.5148363E0,1.1438035E1,5.419731E0,9.808344E0,9.348298E0,6.0766735E0,6.040391E0,8.088333E0,1.2551226E1,6.9908447E0,4.668705E0,6.8342924E0,0E0,0E0,0E0,0E0,0E0,0E0,0E0,0E0,0E0,0E0,0E0,0E0,0E0,0E0,0E0,0E0,0E0,0E0,0E0,0E0,0E0,0E0,0E0,0E0,0E0,0E0,0E0,0E0,0E0,0E0,0E0,0E0],"parents":[2147483647,0,0,1,1,2,2,3,3,4,4,5,5,6,6,7,7,8,8,9,9,10,10,11,11,12,12,13,13,14,14,15,15,16,16,17,17,18,18,19,19,20,20,21,21,22,22,23,23,24,24,25,25,26,26,27,27,28,28,29,29,30,30],"right_children":[2,4,6,8,10,12,14,16,18,20,22,24,26,28,30,32,34,36,38,40,42,44,46,48,50,52,54,56,58,60,62,-1,-1,-1,-1,-1,-1,-1,-1,-1,-1,-1,-1,-1,-1,-1,-1,-1,-1,-1,-1,-1,-1,-1,-1,-1,-1,-1,-1,-1,-1,-1,-1],"split_conditions":[4.4027779E-1,3.3333334E-1,5.7E0,9.222222E0,3.0178333E1,5.1666665E-1,2.3E1,7.25E0,1.0235474E0,3.6E0,1.16E1,2.62E1,6E0,1.92E1,2.29E1,2.7E0,3E0,3E-1,2.4368334E1,2.13809E0,1.8397917E1,8.777778E0,4.623369E0,1.7046667E1,3.6506668E1,7.1E0,2.3863333E1,1.12E1,3.663E1,2.06E1,6.375E0,3.3530458E-3,8.220222E-3,-0E0,-1.4857343E-2,-8.722844E-3,4.5731068E-3,6.7360983E-3,1.5849479E-2,-1.9599283E-3,1.1087419E-2,-3.6737404E-3,1.5086721E-3,-0E0,1.504464E-2,1.3231318E-3,7.1872873E-3,-6.802806E-3,-3.75273E-4,-4.3491633E-3,-1.6603574E-2,5.2309404E-3,-8.586549E-3,-8.713239E-3,-4.7704717E-3,2.756996E-3,-2.2081912E-3,7.3701343E-3,-4.267649E-3,-0E0,-1.4701395E-2,-9.163599E-3,-3.9489986E-4],"split_indices":[15,15,8,4,14,15,3,3,12,3,3,3,3,4,4,8,1,15,14,6,14,4,12,14,14,4,14,3,13,4,8,0,0,0,0,0,0,0,0,0,0,0,0,0,0,0,0,0,0,0,0,0,0,0,0,0,0,0,0,0,0,0,0],"split_type":[0,0,0,0,0,0,0,0,0,0,0,0,0,0,0,0,0,0,0,0,0,0,0,0,0,0,0,0,0,0,0,0,0,0,0,0,0,0,0,0,0,0,0,0,0,0,0,0,0,0,0,0,0,0,0,0,0,0,0,0,0,0,0],"sum_hessian":[3.2483247E3,1.2672064E3,1.9811183E3,3.133854E2,9.5382104E2,1.2645693E3,7.165489E2,2.3427058E2,7.911483E1,6.452281E2,3.08593E2,6.995543E2,5.65015E2,5.57559E2,1.5898991E2,2.0947882E2,2.479177E1,7.205666E0,7.1909164E1,3.28643E1,6.123638E2,4.734747E1,2.612455E2,6.5226483E2,4.7289528E1,6.7953674E1,4.9706134E2,4.6872623E2,8.883275E1,2.9877586E1,1.2911232E2,9.470683E1,1.1477199E2,1.9587067E1,5.204703E0,3.9718695E0,3.2337966E0,1.4433037E1,5.7476128E1,7.952102E0,2.4912197E1,1.1357859E2,4.987852E2,4.981311E0,4.236616E1,1.4255319E2,1.1869231E2,5.388098E1,5.9838385E2,3.338608E1,1.3903443E1,6.130042E1,6.653251E0,2.459668E2,2.5109454E2,1.807876E2,2.8793866E2,7.719595E1,1.1636797E1,5.6367536E0,2.4240833E1,2.3990295E1,1.0512203E2],"tree_param":{"num_deleted":"0","num_feature":"17","num_nodes":"63","size_leaf_vector":"1"}},{"base_weights":[9.756911E-3,2.4138087E-1,-1.3918465E-1,3.7857357E-1,1.08443625E-1,-2.2196464E-1,7.519786E-3,2.382594E-1,5.67273E-1,-2.9759878E-2,2.7518636E-1,4.823711E-2,-2.7484497E-1,2.3093088E-1,-8.5928865E-2,5.6602377E-1,1.1388774E-1,-2.596996E-1,5.939184E-1,-1.4681986E-1,1.1582706E-1,-1.0700874E-1,3.2775953E-1,-1.01867795E-1,2.5733805E-1,-1.557944E-1,-4.7462797E-1,-1.2119566E-1,3.4121013E-1,4.20997E-2,-2.8321245E-1,1.3003384E-2,5.182923E-3,-6.5471847E-3,2.8141763E-3,2.6000869E-3,-1.314161E-2,1.41407065E-2,7.88602E-3,4.9745697E-3,-3.2715024E-3,1.3039894E-2,-1.6616356E-4,1.9575444E-3,-1.354483E-2,-9.122993E-3,5.24244E-3,-0E0,-8.241349E-3,1.5491703E-2,1.3245197E-3,-5.3133196E-3,-1.0800401E-3,-1.0478772E-2,-5.7671806E-3,-6.1448487E-3,1.1615653E-2,7.281273E-3,8.954335E-4,2.0876501E-3,-4.6014455E-3,-5.782826E-3,1.6994998E-3],"categories":[],"categories_nodes":[],"categories_segments":[],"categories_sizes":[],"default_left":[0,0,0,0,0,0,0,0,0,0,0,0,0,0,0,0,0,0,0,0,0,0,0,0,0,0,0,0,0,0,0,0,0,0,0,0,0,0,0,0,0,0,0,0,0,0,0,0,0,0,0,0,0,0,0,0,0,0,0,0,0,0,0],"id":19,"left_children":[1,3,5,7,9,11,13,15,17,19,21,23,25,27,29,31,33,35,37,39,41,43,45,47,49,51,53,55,57,59,61,-1,-1,-1,-1,-1,-1,-1,-1,-1,-1,-1,-1,-1,-1,-1,-1,-1,-1,-1,-1,-1,-1,-1,-1,-1,-1,-1,-1,-1,-1,-1,-1],"loss_changes":[1.1194314E2,2.283284E1,2.4089249E1,1.5865662E1,1.5118241E1,1.8210506E1,1.4917177E1,1.4205111E1,6.12973E0,6.055548E0,6.1223125E0,6.5691724E0,2.4721138E1,8.383823E0,1.2759148E1,5.5477886E0,1.1060179E1,2.7592893E0,4.32708E0,7.0859275E0,1.567135E1,7.3409195E0,6.4804783E0,5.3968773E0,1.0832216E1,1.0914085E1,6.882889E0,1.3197922E1,6.487955E0,1.0424103E1,8.676139E0,0E0,0E0,0E0,0E0,0E0,0E0,0E0,0E0,0E0,0E0,0E0,0E0,0E0,0E0,0E0,0E0,0E0,0E0,0E0,0E0,0E0,0E0,0E0,0E0,0E0,0E0,0E0,0E0,0E0,0E0,0E0,0E0],"parents":[2147483647,0,0,1,1,2,2,3,3,4,4,5,5,6,6,7,7,8,8,9,9,10,10,11,11,12,12,13,13,14,14,15,15,16,16,17,17,18,18,19,19,20,20,21,21,22,22,23,23,24,24,25,25,26,26,27,27,28,28,29,29,30,30],"right_children":[2,4,6,8,10,12,14,16,18,20,22,24,26,28,30,32,34,36,38,40,42,44,46,48,50,52,54,56,58,60,62,-1,-1,-1,-1,-1,-1,-1,-1,-1,-1,-1,-1,-1,-1,-1,-1,-1,-1,-1,-1,-1,-1,-1,-1,-1,-1,-1,-1,-1,-1,-1,-1],"split_conditions":[4.4027779E-1,3.7779036E-1,5.7E0,2.4452381E1,1.158E2,6.6666665E0,1.18E1,3.6666667E0,1E0,2.877E1,2.2222223E0,1.849375E1,5.2791196E-1,3.3208098E0,5.586508E-1,2.1975307E0,3.0331502E0,1.0888889E1,2.956624E-1,4.8E0,1.12E1,2.1E0,2.5033312E0,1.7833334E1,4.5E0,2.4168518E1,4.9136305E-1,1.199E2,6.111111E-1,2.52E1,5.5E0,1.3003384E-2,5.182923E-3,-6.5471847E-3,2.8141763E-3,2.6000869E-3,-1.314161E-2,1.41407065E-2,7.88602E-3,4.9745697E-3,-3.2715024E-3,1.3039894E-2,-1.6616356E-4,1.9575444E-3,-1.354483E-2,-9.122993E-3,5.24244E-3,-0E0,-8.241349E-3,1.5491703E-2,1.3245197E-3,-5.3133196E-3,-1.0800401E-3,-1.0478772E-2,-5.7671806E-3,-6.1448487E-3,1.1615653E-2,7.281273E-3,8.954335E-4,2.0876501E-3,-4.6014455E-3,-5.782826E-3,1.6994998E-3],"split_indices":[15,15,8,14,2,3,3,3,10,14,8,14,15,6,15,9,6,4,15,3,3,8,6,13,3,14,16,2,15,3,10,0,0,0,0,0,0,0,0,0,0,0,0,0,0,0,0,0,0,0,0,0,0,0,0,0,0,0,0,0,0,0,0],"split_type":[0,0,0,0,0,0,0,0,0,0,0,0,0,0,0,0,0,0,0,0,0,0,0,0,0,0,0,0,0,0,0,0,0,0,0,0,0,0,0,0,0,0,0,0,0,0,0,0,0,0,0,0,0,0,0,0,0,0,0,0,0,0,0],"sum_hessian":[3.2414617E3,1.270118E3,1.9713436E3,6.219739E2,6.481442E2,1.262799E3,7.085446E2,3.596704E2,2.6230344E2,3.5262766E2,2.9551654E2,2.0470212E2,1.0580968E3,2.1067053E2,4.978741E2,9.676578E1,2.6290463E2,7.223969E0,2.5507947E2,1.9791672E2,1.5471095E2,3.4155247E1,2.613613E2,1.17592445E2,8.710967E1,6.6588257E2,3.9221426E2,4.882963E1,1.6184091E2,3.0031277E2,1.9756133E2,3.742037E1,5.934541E1,3.0201572E1,2.3270305E2,3.9825869E0,3.241382E0,3.39809E1,2.2109857E2,2.4813335E1,1.7310338E2,2.2123518E1,1.3258743E2,2.622554E1,7.9297085E0,5.934004E0,2.5542728E2,9.695814E1,2.063431E1,1.3916894E1,7.319278E1,1.9006609E2,4.758165E2,1.0156037E2,2.906539E2,3.7719883E1,1.1109747E1,1.0351163E2,5.832928E1,2.363649E2,6.394789E1,1.569122E2,4.0649113E1],"tree_param":{"num_deleted":"0","num_feature":"17","num_nodes":"63","size_leaf_vector":"1"}},{"base_weights":[1.02968E-2,2.3484819E-1,-1.322485E-1,1.5034875E-1,4.4162947E-1,-2.0095432E-1,3.5029685E-4,4.802763E-1,8.732659E-2,7.468054E-1,2.949076E-1,3.312121E-1,-2.3045425E-1,1.2978181E-1,-1.4903302E-1,3.9644358E-1,1.1144696E0,6.1597687E-1,5.8216866E-2,8.8776356E-1,3.4911454E-1,1.6651375E-2,2.4351294E-1,3.2647222E-2,6.879151E-1,-1.2890695E-1,-3.6531857E-1,-5.9752977E-1,1.7593665E-1,1.0682398E-1,-3.2400694E-1,2.860511E-3,9.771712E-3,7.0093675E-3,2.2746135E-2,1.5478138E-2,1.5162895E-4,-3.863038E-3,1.8551113E-3,-0E0,1.395218E-2,-5.2741435E-3,9.23854E-3,-2.533926E-3,4.8365993E-3,-3.2599838E-3,7.791966E-3,1.6941214E-2,1.3950953E-3,-1.3196E-3,-7.959863E-3,-1.3262137E-2,-4.9010706E-3,-1.1885629E-2,2.2612873E-3,3.9678155E-3,-2.12423E-3,-2.5860025E-3,4.1055125E-3,-6.9980803E-3,1.6333202E-3],"categories":[],"categories_nodes":[],"categories_segments":[],"categories_sizes":[],"default_left":[0,0,0,0,0,0,0,0,0,0,0,0,0,0,0,0,0,0,0,0,0,0,0,0,0,0,0,0,0,0,0,0,0,0,0,0,0,0,0,0,0,0,0,0,0,0,0,0,0,0,0,0,0,0,0,0,0,0,0,0,0],"id":20,"left_children":[1,3,5,7,9,11,13,15,17,19,21,23,25,27,29,31,33,35,37,39,41,-1,43,45,47,49,51,53,55,57,59,-1,-1,-1,-1,-1,-1,-1,-1,-1,-1,-1,-1,-1,-1,-1,-1,-1,-1,-1,-1,-1,-1,-1,-1,-1,-1,-1,-1,-1,-1],"loss_changes":[1.0349019E2,2.15205E1,1.8119942E1,1.8217487E1,1.5363251E1,2.0463829E1,1.2986444E1,6.226528E0,1.1145195E1,5.444397E0,9.440435E0,6.7227287E0,1.6587097E1,1.1977398E1,1.4034906E1,6.1683216E0,2.2660198E0,9.22189E0,1.5271359E1,3.8757324E0,6.6750793E0,0E0,8.21258E0,5.1014433E0,7.186702E0,1.1099796E1,8.615952E0,3.737618E0,1.0163753E1,6.0914E0,1.2246864E1,0E0,0E0,0E0,0E0,0E0,0E0,0E0,0E0,0E0,0E0,0E0,0E0,0E0,0E0,0E0,0E0,0E0,0E0,0E0,0E0,0E0,0E0,0E0,0E0,0E0,0E0,0E0,0E0,0E0,0E0],"parents":[2147483647,0,0,1,1,2,2,3,3,4,4,5,5,6,6,7,7,8,8,9,9,10,10,11,11,12,12,13,13,14,14,15,15,16,16,17,17,18,18,19,19,20,20,22,22,23,23,24,24,25,25,26,26,27,27,28,28,29,29,30,30],"right_children":[2,4,6,8,10,12,14,16,18,20,22,24,26,28,30,32,34,36,38,40,42,-1,44,46,48,50,52,54,56,58,60,-1,-1,-1,-1,-1,-1,-1,-1,-1,-1,-1,-1,-1,-1,-1,-1,-1,-1,-1,-1,-1,-1,-1,-1,-1,-1,-1,-1,-1,-1],"split_conditions":[4.4027779E-1,2.9875E1,5.8861456E0,2.8555554E-1,3.7779036E-1,4.8E0,5.5333334E-1,3.4E0,3.4930012E0,3.3863335E1,9.6E0,3.3731225E0,5.212721E-1,3.2366943E0,1.24E1,4.5080175E0,1E0,1.166E2,1.7864584E1,8.9E0,3.4243332E1,1.6651375E-2,2.2222223E0,1.694074E1,4.8037534E0,2.54E1,4.3095237E-1,3.9071739E0,2.4E1,1.2290161E0,4.9E0,2.860511E-3,9.771712E-3,7.0093675E-3,2.2746135E-2,1.5478138E-2,1.5162895E-4,-3.863038E-3,1.8551113E-3,-0E0,1.395218E-2,-5.2741435E-3,9.23854E-3,-2.533926E-3,4.8365993E-3,-3.2599838E-3,7.791966E-3,1.6941214E-2,1.3950953E-3,-1.3196E-3,-7.959863E-3,-1.3262137E-2,-4.9010706E-3,-1.1885629E-2,2.2612873E-3,3.9678155E-3,-2.12423E-3,-2.5860025E-3,4.1055125E-3,-6.9980803E-3,1.6333202E-3],"split_indices":[15,14,9,15,15,3,15,11,5,13,3,9,15,6,3,6,0,2,14,4,14,0,11,14,9,3,16,12,3,12,11,0,0,0,0,0,0,0,0,0,0,0,0,0,0,0,0,0,0,0,0,0,0,0,0,0,0,0,0,0,0],"split_type":[0,0,0,0,0,0,0,0,0,0,0,0,0,0,0,0,0,0,0,0,0,0,0,0,0,0,0,0,0,0,0,0,0,0,0,0,0,0,0,0,0,0,0,0,0,0,0,0,0,0,0,0,0,0,0,0,0,0,0,0,0],"sum_hessian":[3.2296162E3,1.2556406E3,1.9739756E3,8.945327E2,3.6110788E2,1.3031987E3,6.7077686E2,1.4101666E2,7.5351605E2,1.1480529E2,2.463026E2,6.688904E1,1.2363097E3,3.6175613E2,3.0902072E2,1.2654399E2,1.4472673E1,3.73683E1,7.1614777E2,8.287146E1,3.1933828E1,1.271184E1,2.3359076E2,3.7848953E1,2.9040089E1,7.088489E2,5.274608E2,2.020996E1,3.4154617E2,1.24125946E2,1.8489478E2,7.354009E1,5.3003902E1,6.987437E0,7.4852366E0,2.0926542E1,1.6441761E1,1.22297676E2,5.938501E2,4.9936314E0,7.787783E1,8.229534E0,2.3704294E1,3.755254E1,1.9603822E2,2.444318E1,1.3405772E1,1.5411975E1,1.3628115E1,6.481962E2,6.065266E1,2.9835619E1,4.976252E2,1.6506632E1,3.7033284E0,2.6684415E2,7.470202E1,4.5373333E1,7.875262E1,1.3883846E2,4.6056328E1],"tree_param":{"num_deleted":"0","num_feature":"17","num_nodes":"61","size_leaf_vector":"1"}},{"base_weights":[-8.806315E-4,2.1441759E-1,-1.5599501E-1,3.5506782E-1,9.330999E-2,3.1551725E-1,-1.747307E-1,1.8210821E-1,5.141645E-1,-6.337297E-2,1.9358398E-1,5.466916E-2,7.501947E-1,-2.5430718E-1,-3.9527934E-2,3.7410173E-1,-7.897992E-2,7.0954174E-1,3.6395487E-1,2.227594E-2,-2.959548E-1,1.1365392E-1,4.701621E-1,-5.0603706E-1,2.7813768E-1,9.8503315E-1,-3.575623E-3,-1.4036888E-1,-4.1869086E-1,3.4729537E-2,-2.9440838E-1,1.1800558E-2,4.2789266E-3,-2.0260348E-3,1.3570953E-2,-1.1299566E-3,1.1404058E-2,4.272996E-3,1.3222673E-2,-2.934925E-4,1.1818609E-2,-1.6902665E-2,-2.8581528E-3,2.2009022E-3,-5.320674E-3,5.727203E-4,8.625537E-3,-0E0,-1.1858107E-2,7.595708E-3,-6.0560615E-3,1.7765421E-2,-0E0,-5.5985345E-4,-4.109247E-3,-1.38469925E-2,-5.615579E-3,2.0150905E-3,-2.8186648E-3,-7.783241E-3,-8.355319E-4],"categories":[],"categories_nodes":[],"categories_segments":[],"categories_sizes":[],"default_left":[0,0,0,0,0,0,0,0,0,0,0,0,0,0,0,0,0,0,0,0,0,0,0,0,0,0,0,0,0,0,0,0,0,0,0,0,0,0,0,0,0,0,0,0,0,0,0,0,0,0,0,0,0,0,0,0,0,0,0,0,0],"id":21,"left_children":[1,3,5,7,9,11,13,15,17,19,21,23,25,27,29,31,33,35,37,39,41,43,45,47,49,51,-1,53,55,57,59,-1,-1,-1,-1,-1,-1,-1,-1,-1,-1,-1,-1,-1,-1,-1,-1,-1,-1,-1,-1,-1,-1,-1,-1,-1,-1,-1,-1,-1,-1],"loss_changes":[1.079882E2,2.272934E1,1.6575867E1,1.6627663E1,1.1569043E1,7.4856043E0,1.9295475E1,1.5336432E1,8.567612E0,5.8209896E0,9.488262E0,5.7293553E0,6.620764E0,2.0896774E1,1.2954138E1,5.4403286E0,6.9037323E0,7.0197906E0,6.446865E0,7.2268033E0,5.7847037E0,5.6967907E0,4.34779E0,1.3698151E0,5.747863E0,5.014675E0,0E0,9.282566E0,8.328484E0,1.1878285E1,8.092748E0,0E0,0E0,0E0,0E0,0E0,0E0,0E0,0E0,0E0,0E0,0E0,0E0,0E0,0E0,0E0,0E0,0E0,0E0,0E0,0E0,0E0,0E0,0E0,0E0,0E0,0E0,0E0,0E0,0E0,0E0],"parents":[2147483647,0,0,1,1,2,2,3,3,4,4,5,5,6,6,7,7,8,8,9,9,10,10,11,11,12,12,13,13,14,14,15,15,16,16,17,17,18,18,19,19,20,20,21,21,22,22,23,23,24,24,25,25,27,27,28,28,29,29,30,30],"right_children":[2,4,6,8,10,12,14,16,18,20,22,24,26,28,30,32,34,36,38,40,42,44,46,48,50,52,-1,54,56,58,60,-1,-1,-1,-1,-1,-1,-1,-1,-1,-1,-1,-1,-1,-1,-1,-1,-1,-1,-1,-1,-1,-1,-1,-1,-1,-1,-1,-1,-1,-1],"split_conditions":[4.4666666E-1,3.7779036E-1,4.8E0,2.2316668E1,2.1E0,3.4086723E0,5.7E0,5.25E0,3.3473304E-1,1.625E0,1.202E2,4.7555557E-1,5.94709E-1,5.2791196E-1,2.3E1,2.6243386E0,5.6908092E0,1.8888888E0,1.92E1,1.9173397E0,3E0,4.9232954E-1,2.5352083E1,4.592857E-1,6.230159E-1,5.349974E0,-3.575623E-3,1.46E1,4.3988705E-1,6.111111E-1,2.5444445E1,1.1800558E-2,4.2789266E-3,-2.0260348E-3,1.3570953E-2,-1.1299566E-3,1.1404058E-2,4.272996E-3,1.3222673E-2,-2.934925E-4,1.1818609E-2,-1.6902665E-2,-2.8581528E-3,2.2009022E-3,-5.320674E-3,5.727203E-4,8.625537E-3,-0E0,-1.1858107E-2,7.595708E-3,-6.0560615E-3,1.7765421E-2,-0E0,-5.5985345E-4,-4.109247E-3,-1.38469925E-2,-5.615579E-3,2.0150905E-3,-2.8186648E-3,-7.783241E-3,-8.355319E-4],"split_indices":[15,15,3,14,11,6,8,3,15,11,2,15,15,15,3,5,9,8,4,12,6,16,14,15,16,6,0,3,16,15,4,0,0,0,0,0,0,0,0,0,0,0,0,0,0,0,0,0,0,0,0,0,0,0,0,0,0,0,0,0,0],"split_type":[0,0,0,0,0,0,0,0,0,0,0,0,0,0,0,0,0,0,0,0,0,0,0,0,0,0,0,0,0,0,0,0,0,0,0,0,0,0,0,0,0,0,0,0,0,0,0,0,0,0,0,0,0,0,0,0,0,0,0,0,0],"sum_hessian":[3.2331855E3,1.3520686E3,1.881117E3,6.224166E2,7.296519E2,7.011316E1,1.8110038E3,3.0094125E2,3.214754E2,2.8233536E2,4.4731653E2,4.5281506E1,2.4831652E1,1.1365942E3,6.7440955E2,1.746513E2,1.2628996E2,1.3663011E2,1.8484528E2,2.0482327E2,7.751209E1,3.496703E2,9.764624E1,1.1806843E1,3.3474663E1,2.0607101E1,4.2245517E0,6.7445197E2,4.6214227E2,5.2080383E2,1.5360571E2,2.6958998E1,1.476923E2,1.2058985E2,5.700112E0,8.984053E0,1.27646065E2,1.6386551E2,2.097977E1,1.9419601E2,1.0627256E1,6.902754E0,7.0609344E1,3.273627E2,2.2307592E1,2.1553501E1,7.6092735E1,5.4110174E0,6.3958254E0,2.5794336E1,7.680327E0,1.7133713E1,3.4733882E0,3.890467E2,2.854053E2,3.0480434E1,4.3166183E2,3.6129498E2,1.5950887E2,7.608699E1,7.751872E1],"tree_param":{"num_deleted":"0","num_feature":"17","num_nodes":"61","size_leaf_vector":"1"}},{"base_weights":[-4.627447E-3,2.1466154E-1,-1.6112892E-1,6.0886756E-2,3.0398908E-1,-2.0853594E-1,3.0526359E-2,3.9340413E-1,-7.81377E-2,6.7713696E-1,2.1915929E-1,2.5856522E-1,-2.3154874E-1,3.8492262E-1,-4.762172E-2,7.143021E-1,2.0540604E-1,-5.004135E-1,-1.7380865E-2,8.040683E-1,3.0197597E-1,1.6897672E-1,5.0441486E-1,-1.6368484E-1,4.457242E-1,-2.0044242E-1,-5.491048E-1,-2.7306318E-2,6.844556E-1,1.7050931E-1,-2.4841402E-1,3.957425E-3,1.3815276E-2,-3.1124493E-3,5.4085716E-3,-1.0755762E-2,-8.987445E-4,2.4093383E-3,-3.3540654E-3,6.590601E-3,1.4470755E-2,-3.0333148E-3,9.351466E-3,1.6840916E-2,2.2381325E-3,-3.2578548E-3,9.06967E-3,-1.0180366E-2,8.5350405E-4,-3.387575E-3,1.0036319E-2,-4.7608074E-3,-1.2088292E-3,-1.6467696E-2,-6.2586423E-3,3.882206E-3,-5.5530635E-3,-0E0,1.2249309E-2,3.7613695E-3,-1.0474231E-2,-5.749304E-3,2.036159E-3],"categories":[],"categories_nodes":[],"categories_segments":[],"categories_sizes":[],"default_left":[0,0,0,0,0,0,0,0,0,0,0,0,0,0,0,0,0,0,0,0,0,0,0,0,0,0,0,0,0,0,0,0,0,0,0,0,0,0,0,0,0,0,0,0,0,0,0,0,0,0,0,0,0,0,0,0,0,0,0,0,0,0,0],"id":22,"left_children":[1,3,5,7,9,11,13,15,17,19,21,23,25,27,29,31,33,35,37,39,41,43,45,47,49,51,53,55,57,59,61,-1,-1,-1,-1,-1,-1,-1,-1,-1,-1,-1,-1,-1,-1,-1,-1,-1,-1,-1,-1,-1,-1,-1,-1,-1,-1,-1,-1,-1,-1,-1,-1],"loss_changes":[1.1080352E2,1.8202538E1,1.7258507E1,2.3211418E1,2.6115395E1,1.6313972E1,1.0535146E1,8.228523E0,8.635835E0,6.486786E0,9.414192E0,5.783814E0,1.3712608E1,8.932218E0,1.3397547E1,4.226387E0,6.51372E0,3.6933002E0,1.1664466E1,5.8414E0,7.3375587E0,9.273159E0,8.278315E0,2.8764002E0,8.211751E0,1.8695164E1,7.6729393E0,3.0429108E0,4.211548E0,1.0438338E1,8.840419E0,0E0,0E0,0E0,0E0,0E0,0E0,0E0,0E0,0E0,0E0,0E0,0E0,0E0,0E0,0E0,0E0,0E0,0E0,0E0,0E0,0E0,0E0,0E0,0E0,0E0,0E0,0E0,0E0,0E0,0E0,0E0,0E0],"parents":[2147483647,0,0,1,1,2,2,3,3,4,4,5,5,6,6,7,7,8,8,9,9,10,10,11,11,12,12,13,13,14,14,15,15,16,16,17,17,18,18,19,19,20,20,21,21,22,22,23,23,24,24,25,25,26,26,27,27,28,28,29,29,30,30],"right_children":[2,4,6,8,10,12,14,16,18,20,22,24,26,28,30,32,34,36,38,40,42,44,46,48,50,52,54,56,58,60,62,-1,-1,-1,-1,-1,-1,-1,-1,-1,-1,-1,-1,-1,-1,-1,-1,-1,-1,-1,-1,-1,-1,-1,-1,-1,-1,-1,-1,-1,-1,-1,-1],"split_conditions":[4.4666666E-1,2.2316668E1,7.6E0,4.25E0,3.4047619E-1,4.8E0,1.06E1,2.171441E0,3E0,3E0,1.219E2,3.6E0,2.54E1,8.7E0,5.5333334E-1,3.25E-1,2.6223383E0,4.0095237E-1,7E0,1.124E2,2.6068333E1,2.0406666E1,8.6E0,4.6749258E-1,4.75E-1,2.5352083E1,3.8395061E0,1.9173397E0,7.1428573E-1,9.191784E0,4.6E0,3.957425E-3,1.3815276E-2,-3.1124493E-3,5.4085716E-3,-1.0755762E-2,-8.987445E-4,2.4093383E-3,-3.3540654E-3,6.590601E-3,1.4470755E-2,-3.0333148E-3,9.351466E-3,1.6840916E-2,2.2381325E-3,-3.2578548E-3,9.06967E-3,-1.0180366E-2,8.5350405E-4,-3.387575E-3,1.0036319E-2,-4.7608074E-3,-1.2088292E-3,-1.6467696E-2,-6.2586423E-3,3.882206E-3,-5.5530635E-3,-0E0,1.2249309E-2,3.7613695E-3,-1.0474231E-2,-5.749304E-3,2.036159E-3],"split_indices":[15,14,8,3,15,3,3,9,6,1,2,3,3,4,15,16,9,15,3,2,14,13,4,16,15,14,12,12,11,6,11,0,0,0,0,0,0,0,0,0,0,0,0,0,0,0,0,0,0,0,0,0,0,0,0,0,0,0,0,0,0,0,0],"split_type":[0,0,0,0,0,0,0,0,0,0,0,0,0,0,0,0,0,0,0,0,0,0,0,0,0,0,0,0,0,0,0,0,0,0,0,0,0,0,0,0,0,0,0,0,0,0,0,0,0,0,0,0,0,0,0,0,0,0,0,0,0,0,0],"sum_hessian":[3.2281074E3,1.342541E3,1.8855664E3,4.964389E2,8.461021E2,1.514296E3,3.712704E2,1.4732224E2,3.4911667E2,1.5432722E2,6.917749E2,6.9419846E1,1.4448761E3,6.802913E1,3.0324124E2,5.2368885E1,9.4953354E1,4.188378E1,3.0723288E2,1.1337703E2,4.0950188E1,5.912379E2,1.0053701E2,2.0290562E1,4.9129284E1,1.3189517E3,1.2592448E2,2.8013731E1,4.0015396E1,1.4386021E2,1.5938104E2,1.871664E1,3.3652245E1,2.5181873E1,6.9771484E1,2.637575E1,1.550803E1,1.635075E2,1.4372537E2,3.8960117E1,7.4416916E1,1.5474535E1,2.5475653E1,9.189939E0,5.82048E2,1.216343E1,8.837358E1,6.4171576E0,1.3873404E1,1.1862177E1,3.7267105E1,6.5013715E2,6.6881445E2,2.1088661E1,1.04835815E2,1.4376047E1,1.3637685E1,6.693414E0,3.3321983E1,1.3253458E2,1.132564E1,1.182252E2,4.115584E1],"tree_param":{"num_deleted":"0","num_feature":"17","num_nodes":"63","size_leaf_vector":"1"}},{"base_weights":[4.165131E-4,1.750936E-1,-1.7055316E-1,3.2092133E-1,8.778598E-2,3.6836222E-1,-1.9177085E-1,1.7735931E-1,5.738314E-1,5.492995E-2,3.6981106E-1,1.7024657E-1,1.0794665E0,-2.5745383E-1,2.8274702E-2,3.3315498E-1,-0E0,7.8793347E-1,4.4151E-1,7.2817475E-2,-5.6667787E-1,-6.777787E-2,5.553629E-1,2.9654732E-1,-1.3908661E-2,2.2713467E-2,-0E0,-1.5563722E-1,-3.441582E-1,-2.0722073E-1,1.5284361E-1,1.2460996E-2,4.1036117E-3,-2.979126E-3,4.0711337E-3,1.0092491E-3,1.3841601E-2,5.268478E-3,1.451164E-2,-3.5738118E-3,1.5301374E-3,-1.1582114E-2,2.589753E-3,8.827419E-3,-5.0727963E-3,4.4052587E-3,1.7241783E-2,-0E0,1.0079196E-2,-9.925258E-4,-7.2204247E-3,-9.233199E-3,-3.839923E-3,3.2995013E-3,-5.1167794E-3,-3.434378E-3,3.4498987E-3],"categories":[],"categories_nodes":[],"categories_segments":[],"categories_sizes":[],"default_left":[0,0,0,0,0,0,0,0,0,0,0,0,0,0,0,0,0,0,0,0,0,0,0,0,0,0,0,0,0,0,0,0,0,0,0,0,0,0,0,0,0,0,0,0,0,0,0,0,0,0,0,0,0,0,0,0,0],"id":23,"left_children":[1,3,5,7,9,11,13,15,17,19,21,23,25,27,29,31,33,35,37,39,41,43,45,47,-1,-1,-1,49,51,53,55,-1,-1,-1,-1,-1,-1,-1,-1,-1,-1,-1,-1,-1,-1,-1,-1,-1,-1,-1,-1,-1,-1,-1,-1,-1,-1],"loss_changes":[9.6747246E1,2.0139511E1,1.8637947E1,2.113979E1,9.044017E0,7.65467E0,2.2916397E1,1.0559129E1,5.0176773E0,9.776671E0,8.699894E0,6.7137403E0,6.0074463E0,1.0364716E1,1.0563682E1,4.9139977E0,1.0050821E1,7.6524086E0,5.159645E0,8.374237E0,4.391362E0,5.515886E0,1.0317453E1,5.5691214E0,0E0,0E0,0E0,1.6197609E1,1.4770226E1,7.464947E0,7.3754096E0,0E0,0E0,0E0,0E0,0E0,0E0,0E0,0E0,0E0,0E0,0E0,0E0,0E0,0E0,0E0,0E0,0E0,0E0,0E0,0E0,0E0,0E0,0E0,0E0,0E0,0E0],"parents":[2147483647,0,0,1,1,2,2,3,3,4,4,5,5,6,6,7,7,8,8,9,9,10,10,11,11,12,12,13,13,14,14,15,15,16,16,17,17,18,18,19,19,20,20,21,21,22,22,23,23,27,27,28,28,29,29,30,30],"right_children":[2,4,6,8,10,12,14,16,18,20,22,24,26,28,30,32,34,36,38,40,42,44,46,48,-1,-1,-1,50,52,54,56,-1,-1,-1,-1,-1,-1,-1,-1,-1,-1,-1,-1,-1,-1,-1,-1,-1,-1,-1,-1,-1,-1,-1,-1,-1,-1],"split_conditions":[4.652778E-1,3.75E-1,4.8E0,9.5E0,6.3275585E0,6.111111E0,7.4E0,5.25E0,3.3473304E-1,2.56E1,5.820462E0,6.1E0,5.873016E-1,5.212721E-1,1.128E2,2E0,2.2316668E1,1.492222E0,1.219E2,3.1001792E0,6E0,3E0,5.0958576E0,3.4951143E0,-1.3908661E-2,2.2713467E-2,-0E0,2.14E1,4.9136305E-1,1.125E1,7.854595E0,1.2460996E-2,4.1036117E-3,-2.979126E-3,4.0711337E-3,1.0092491E-3,1.3841601E-2,5.268478E-3,1.451164E-2,-3.5738118E-3,1.5301374E-3,-1.1582114E-2,2.589753E-3,8.827419E-3,-5.0727963E-3,4.4052587E-3,1.7241783E-2,-0E0,1.0079196E-2,-9.925258E-4,-7.2204247E-3,-9.233199E-3,-3.839923E-3,3.2995013E-3,-5.1167794E-3,-3.434378E-3,3.4498987E-3],"split_indices":[15,15,3,4,12,4,8,3,15,3,6,8,15,15,2,3,14,12,2,6,10,7,9,9,0,0,0,3,16,3,9,0,0,0,0,0,0,0,0,0,0,0,0,0,0,0,0,0,0,0,0,0,0,0,0,0,0],"split_type":[0,0,0,0,0,0,0,0,0,0,0,0,0,0,0,0,0,0,0,0,0,0,0,0,0,0,0,0,0,0,0,0,0,0,0,0,0,0,0,0,0,0,0,0,0,0,0,0,0,0,0,0,0,0,0,0,0],"sum_hessian":[3.2379204E3,1.6034526E3,1.6344677E3,5.969518E2,1.0065009E3,6.028936E1,1.5741783E3,3.8325006E2,2.137017E2,9.043422E2,1.0215868E2,4.8600327E1,1.1689032E1,1.2144661E3,3.597122E2,2.0320518E2,1.8004488E2,7.83228E1,1.353789E2,8.80709E2,2.3633232E1,2.9528234E1,7.263045E1,4.4655792E1,3.9445326E0,7.9611716E0,3.7278602E0,5.629573E2,6.515088E2,1.2248044E2,2.3723175E2,1.799171E1,1.8521347E2,1.037572E2,7.628767E1,1.4189923E1,6.413287E1,1.1889549E2,1.6483414E1,7.560075E1,8.051082E2,1.8956648E1,4.6765833E0,7.695601E0,2.1832634E1,5.2557552E1,2.0072895E1,2.476895E1,1.9886843E1,4.465703E2,1.1638699E2,1.489747E2,5.0253412E2,2.8551786E1,9.392865E1,3.9240143E1,1.9799161E2],"tree_param":{"num_deleted":"0","num_feature":"17","num_nodes":"57","size_leaf_vector":"1"}},{"base_weights":[1.0360998E-2,1.6230164E-1,-8.280144E-2,4.3899678E-2,2.8301764E-1,3.5359874E-1,-1.0005359E-1,3.3747268E-1,-1.3727489E-1,4.892052E-1,1.2316771E-1,7.7590935E-2,6.8970495E-1,-2.7669805E-1,-4.1037675E-2,-1.1524864E-1,3.788456E-1,-8.906056E-1,-8.24868E-2,2.8950828E-1,7.831108E-1,-9.546286E-2,2.9349947E-1,4.805966E-1,-1.854705E-1,8.9770657E-1,-4.720662E-2,-2.076214E-1,-6.809408E-1,1.2772626E-1,-1.1630895E-1,6.7572324E-3,-9.609021E-3,5.1418017E-3,1.9063253E-2,-1.5816342E-2,-0E0,-3.5031562E-4,-9.940348E-3,5.3797085E-3,-7.401648E-3,-4.546911E-3,1.2324022E-2,1.1202628E-2,-2.4421012E-3,4.887533E-3,-1.2814975E-2,9.892463E-3,-8.9332997E-4,-1.2204467E-2,2.575014E-4,1.4029767E-3,1.6473021E-2,9.4426377E-4,-4.61728E-3,-7.03919E-3,-1.3648624E-3,-1.6489595E-2,-6.713799E-3,5.328887E-5,6.013515E-3,-4.3290583E-3,1.9139328E-4],"categories":[],"categories_nodes":[],"categories_segments":[],"categories_sizes":[],"default_left":[0,0,0,0,0,0,0,0,0,0,0,0,0,0,0,0,0,0,0,0,0,0,0,0,0,0,0,0,0,0,0,0,0,0,0,0,0,0,0,0,0,0,0,0,0,0,0,0,0,0,0,0,0,0,0,0,0,0,0,0,0,0,0],"id":24,"left_children":[1,3,5,7,9,11,13,15,17,19,21,23,25,27,29,31,33,35,37,39,41,43,45,47,49,51,53,55,57,59,61,-1,-1,-1,-1,-1,-1,-1,-1,-1,-1,-1,-1,-1,-1,-1,-1,-1,-1,-1,-1,-1,-1,-1,-1,-1,-1,-1,-1,-1,-1,-1,-1],"loss_changes":[4.579524E1,1.737336E1,1.4926429E1,3.3408085E1,1.9554379E1,6.406206E0,1.987131E1,4.7005234E0,1.5234692E1,1.4566471E1,1.2978815E1,4.8171134E0,5.5766315E0,1.27117E1,1.8395346E1,6.259976E0,4.9767914E0,3.4203835E0,1.2048556E1,9.306334E0,6.1219482E0,8.571983E0,8.141823E0,2.263358E0,3.8474221E0,3.6440964E0,3.8694274E-1,1.2336256E1,5.3276844E0,1.508256E1,2.302351E1,0E0,0E0,0E0,0E0,0E0,0E0,0E0,0E0,0E0,0E0,0E0,0E0,0E0,0E0,0E0,0E0,0E0,0E0,0E0,0E0,0E0,0E0,0E0,0E0,0E0,0E0,0E0,0E0,0E0,0E0,0E0,0E0],"parents":[2147483647,0,0,1,1,2,2,3,3,4,4,5,5,6,6,7,7,8,8,9,9,10,10,11,11,12,12,13,13,14,14,15,15,16,16,17,17,18,18,19,19,20,20,21,21,22,22,23,23,24,24,25,25,26,26,27,27,28,28,29,29,30,30],"right_children":[2,4,6,8,10,12,14,16,18,20,22,24,26,28,30,32,34,36,38,40,42,44,46,48,50,52,54,56,58,60,62,-1,-1,-1,-1,-1,-1,-1,-1,-1,-1,-1,-1,-1,-1,-1,-1,-1,-1,-1,-1,-1,-1,-1,-1,-1,-1,-1,-1,-1,-1,-1,-1],"split_conditions":[4.405303E-1,2.5164583E1,4.5E0,5.5E0,1.25E1,3.7E0,2.1945238E1,1.9663842E0,3.0331502E0,2.8851852E1,1.1414286E2,2.1427433E0,6.1851853E-1,1.16E1,1.2333333E1,2.2E0,4.5296645E0,2.129E1,2.6073334E1,2.9856667E1,1.9E0,3.577381E-1,2.7864012E1,5.2639294E-1,2.4444444E0,4.7142857E-1,3.25E0,2.7E0,1.9180952E1,6.8E0,3.3333333E0,6.7572324E-3,-9.609021E-3,5.1418017E-3,1.9063253E-2,-1.5816342E-2,-0E0,